svm_type one_class
kernel_type linear
nr_class 2
total_sv 4685
rho 14907.1
SV
1 1:1 628:1 1806:1 1808:1 1810:1 1812:1 2269:1 3372:1 3440:1 3441:1 4285:1 4286:1 4288:1 4888:1 5015:1 5381:1 5794:1 5830:1 6892:1 6895:1 7427:1 7948:1 9382:1 9384:1 9490:1 10124:1 10495:1 10956:1 11309:1 13125:1 13570:1 14130:1 
1 1:1 959:1 2756:1 2768:1 3454:1 4362:1 7264:1 10390:1 10513:1 11092:1 12062:1 12343:1 13130:1 14129:1 14451:1 
1 1:1 959:1 2756:1 4362:1 4475:1 7264:1 10513:1 11092:1 12062:1 13130:1 14129:1 14451:1 
1 1:1 102:1 223:1 547:1 612:1 849:1 977:1 1074:1 1242:1 1280:1 1614:1 1810:1 1915:1 2173:1 2410:1 2518:1 2522:1 2756:1 2837:1 3083:1 3602:1 3776:1 4348:1 4420:1 4475:1 4639:1 4855:1 4886:1 5008:1 5023:1 5034:1 5114:1 5416:1 5610:1 5710:1 5740:1 6503:1 6651:1 6707:1 7115:1 7379:1 7448:1 7525:1 7536:1 7598:1 7620:1 8163:1 8292:1 8587:1 8590:1 8648:1 8743:1 8858:1 8888:1 9046:1 9050:1 9272:1 9312:1 9326:1 9451:1 9473:1 9711:1 9716:1 10024:1 10083:1 10318:1 10391:1 11092:1 11307:1 11474:1 12148:1 12338:1 12406:1 13104:1 14635:1 
1 1:1 959:1 2756:1 2768:1 3039:1 3454:1 4362:1 4892:1 5790:1 7264:1 10390:1 10513:1 10921:1 10976:1 11092:1 12062:1 12343:1 13130:1 13349:1 14129:1 14451:1 
1 1:1 13:1 88:1 187:1 760:1 763:1 1280:1 1973:1 2011:1 2298:1 2756:1 2821:1 3954:1 4362:1 4478:1 5023:1 5150:1 5432:1 5847:1 6503:1 6524:1 6583:1 7003:1 7091:1 7279:1 7486:1 8100:1 8127:1 8544:1 9277:1 9827:1 9843:1 9893:1 10382:1 10822:1 11294:1 11481:1 12044:1 13152:1 13973:1 
1 1:1 4362:1 5647:1 6055:1 7525:1 7894:1 13130:1 
1 1:1 1324:1 2870:1 5740:1 7525:1 7894:1 8244:1 8324:1 9827:1 10513:1 10681:1 11178:1 12044:1 14451:1 
1 1:1 578:1 903:1 915:1 1005:1 1242:1 1288:1 1661:1 1810:1 2011:1 2030:1 2494:1 2518:1 2554:1 3098:1 3814:1 4028:1 4362:1 4786:1 5691:1 5815:1 6380:1 7175:1 7264:1 7370:1 7582:1 7656:1 7894:1 7966:1 8037:1 9177:1 9312:1 9326:1 9473:1 9792:1 9805:1 9884:1 10058:1 10083:1 10103:1 10437:1 10513:1 10599:1 10743:1 11187:1 11471:1 11474:1 11954:1 12620:1 12706:1 13130:1 13277:1 13551:1 13697:1 14451:1 14639:1 
1 1:1 959:1 2756:1 4362:1 4475:1 7264:1 10513:1 11092:1 12062:1 13130:1 14129:1 14451:1 
1 1:1 1324:1 2870:1 4362:1 7525:1 7894:1 8244:1 8324:1 9827:1 10513:1 10681:1 12044:1 14451:1 
1 1:1 1938:1 2482:1 2756:1 2870:1 2924:1 3042:1 3564:1 4362:1 5091:1 6651:1 7514:1 7894:1 8037:1 8888:1 9827:1 10346:1 10677:1 10681:1 11187:1 12044:1 12766:1 13152:1 14451:1 
1 1:1 13:1 88:1 187:1 760:1 763:1 1280:1 1973:1 2011:1 2298:1 2756:1 2821:1 3954:1 4362:1 4478:1 5023:1 5150:1 5432:1 5847:1 6503:1 6524:1 6583:1 7003:1 7091:1 7279:1 7486:1 8100:1 8127:1 8544:1 9277:1 9827:1 9843:1 9893:1 10382:1 10822:1 11294:1 11481:1 12044:1 13152:1 13973:1 
1 1:1 570:1 838:1 1892:1 1918:1 1938:1 2393:1 2482:1 2778:1 3314:1 3696:1 4185:1 4362:1 5062:1 5095:1 5335:1 5528:1 5760:1 6923:1 7554:1 7966:1 8037:1 9119:1 9375:1 9630:1 10178:1 10677:1 11187:1 11373:1 12722:1 12917:1 13152:1 13452:1 14603:1 
1 1:1 289:1 838:1 1004:1 2385:1 2604:1 2756:1 2760:1 3314:1 3886:1 4362:1 4916:1 4960:1 4973:1 5045:1 5091:1 5095:1 6923:1 7332:1 7492:1 7516:1 7582:1 7755:1 8188:1 8474:1 8587:1 8649:1 9271:1 9312:1 9502:1 9827:1 10323:1 10691:1 11092:1 11373:1 12408:1 13130:1 14451:1 
1 1:1 
1 1:1 13:1 223:1 612:1 744:1 763:1 834:1 915:1 1004:1 1033:1 1255:1 1938:1 2046:1 2363:1 2518:1 3314:1 3954:1 4147:1 4639:1 4855:1 4961:1 5045:1 5095:1 5179:1 5472:1 5610:1 5715:1 5787:1 6676:1 6920:1 7279:1 7620:1 7685:1 7941:1 7966:1 8127:1 8358:1 8655:1 9581:1 9690:1 9816:1 9898:1 10087:1 10103:1 10977:1 12212:1 12334:1 12343:1 12703:1 13130:1 13340:1 14451:1 14530:1 14800:1 
1 1:1 346:1 612:1 1004:1 2200:1 2412:1 2431:1 3083:1 4362:1 4641:1 5150:1 5528:1 6524:1 6853:1 7874:1 9277:1 9473:1 9594:1 9626:1 9827:1 12406:1 12893:1 13104:1 13130:1 13152:1 14788:1 
1 1:1 959:1 2756:1 2768:1 3454:1 4362:1 7264:1 10390:1 10513:1 11092:1 12062:1 12343:1 13130:1 14129:1 14451:1 
1 1:1 959:1 2756:1 2768:1 3454:1 4362:1 7264:1 10390:1 10513:1 11092:1 12062:1 12343:1 13130:1 14129:1 14451:1 
1 1:1 368:1 838:1 849:1 1816:1 1955:1 1979:1 2522:1 2985:1 3314:1 3435:1 3583:1 4348:1 4362:1 4397:1 4824:1 4960:1 5095:1 5576:1 5710:1 6583:1 6704:1 6853:1 6923:1 7516:1 7536:1 7586:1 7755:1 7894:1 7966:1 8161:1 8724:1 10387:1 10391:1 10482:1 10533:1 10669:1 10691:1 10856:1 10858:1 11474:1 12044:1 12408:1 12722:1 12726:1 12808:1 12846:1 13130:1 13340:1 13386:1 13708:1 13784:1 14451:1 14603:1 
1 1:1 763:1 1074:1 1288:1 1324:1 1728:1 5288:1 7582:1 7894:1 8208:1 11966:1 12044:1 12075:1 12212:1 13059:1 14032:1 14472:1 
1 1:1 
1 1:1 959:1 2756:1 4362:1 4475:1 7264:1 10513:1 11092:1 12062:1 13130:1 14129:1 14451:1 
1 1:1 124:1 763:1 834:1 887:1 1958:1 2760:1 2924:1 4362:1 4846:1 4923:1 5185:1 5524:1 5610:1 6278:1 6683:1 6789:1 6920:1 7966:1 8127:1 8356:1 8734:1 8809:1 9326:1 9827:1 10103:1 11666:1 12212:1 12808:1 13826:1 14738:1 
1 1:1 176:1 959:1 2756:1 4362:1 7264:1 10513:1 11092:1 12062:1 13130:1 14129:1 14451:1 
1 1:1 1004:1 2760:1 3437:1 3451:1 4006:1 4362:1 5091:1 5241:1 5924:1 6471:1 6825:1 7290:1 7966:1 9638:1 9827:1 9945:1 10062:1 10103:1 10124:1 10426:1 10485:1 10691:1 10856:1 12303:1 12408:1 13473:1 
1 1:1 374:1 849:1 963:1 2257:1 2421:1 2431:1 2768:1 3454:1 5732:1 6691:1 6789:1 7582:1 7894:1 7966:1 8324:1 9792:1 9827:1 10091:1 10390:1 10429:1 11092:1 11228:1 12212:1 12343:1 12535:1 12844:1 13130:1 13490:1 14451:1 
1 1:1 315:1 671:1 776:1 1324:1 1750:1 2677:1 4348:1 4362:1 5015:1 5095:1 7894:1 8587:1 9030:1 10323:1 10327:1 10914:1 11518:1 12722:1 13340:1 14603:1 
1 1:1 244:1 368:1 547:1 952:1 1134:1 1140:1 1181:1 1727:1 1892:1 2011:1 2300:1 2431:1 2482:1 2576:1 2735:1 2837:1 2924:1 2951:1 3314:1 3530:1 4155:1 4392:1 5010:1 5023:1 5030:1 5095:1 5150:1 5203:1 5588:1 5710:1 5760:1 6049:1 6923:1 7026:1 7360:1 7755:1 8557:1 8815:1 8854:1 8880:1 9345:1 9626:1 9893:1 10323:1 10560:1 10691:1 10914:1 11223:1 11518:1 11641:1 12029:1 12406:1 12620:1 12722:1 12917:1 13152:1 13340:1 13402:1 13785:1 13915:1 14032:1 14130:1 14603:1 14699:1 
1 1:1 959:1 2756:1 2768:1 3454:1 4362:1 7264:1 10390:1 10513:1 11092:1 12062:1 12343:1 13130:1 14129:1 14451:1 
1 1:1 2030:1 2300:1 2431:1 3877:1 4024:1 4362:1 4397:1 4499:1 5095:1 5117:1 5150:1 5169:1 5529:1 7049:1 7168:1 7586:1 7894:1 7966:1 8197:1 8687:1 9690:1 9813:1 9861:1 10681:1 11465:1 12044:1 12099:1 12212:1 12343:1 13056:1 13093:1 14096:1 14500:1 14610:1 14784:1 
1 1:1 98:1 612:1 849:1 879:1 1197:1 1324:1 1741:1 2924:1 3434:1 3564:1 5045:1 5177:1 5401:1 5838:1 6583:1 7264:1 7514:1 7525:1 7630:1 7852:1 7899:1 8818:1 10322:1 10976:1 11156:1 11717:1 12838:1 13000:1 13117:1 13379:1 13402:1 
1 1:1 368:1 578:1 732:1 849:1 915:1 1004:1 1728:1 1778:1 1958:1 2225:1 2421:1 2677:1 2735:1 2760:1 2849:1 3014:1 3083:1 3501:1 3902:1 4478:1 5058:1 5062:1 5150:1 5426:1 5472:1 5518:1 5928:1 6920:1 6930:1 6987:1 7554:1 7582:1 7620:1 7656:1 7894:1 7966:1 8100:1 8324:1 9045:1 9050:1 9581:1 10677:1 11292:1 11826:1 12044:1 12212:1 12408:1 12646:1 12921:1 13130:1 13914:1 14451:1 14533:1 
1 1:1 368:1 578:1 732:1 849:1 915:1 1004:1 1728:1 1778:1 1958:1 2225:1 2421:1 2677:1 2735:1 2760:1 2849:1 3014:1 3083:1 3501:1 3902:1 4478:1 5058:1 5062:1 5150:1 5426:1 5472:1 5518:1 5928:1 6920:1 6930:1 6987:1 7554:1 7582:1 7620:1 7656:1 7894:1 7966:1 8100:1 8324:1 9045:1 9050:1 9581:1 10677:1 11292:1 11826:1 12044:1 12212:1 12408:1 12646:1 12921:1 13130:1 13914:1 14451:1 14533:1 
1 1:1 45:1 368:1 915:1 1280:1 1285:1 2090:1 2381:1 2768:1 2962:1 3189:1 3454:1 3984:1 4846:1 4952:1 5388:1 5815:1 6410:1 7465:1 7525:1 8649:1 10390:1 10692:1 10808:1 12212:1 12343:1 12800:1 14150:1 14451:1 
1 1:1 570:1 1324:1 1999:1 2056:1 3102:1 4095:1 4362:1 4834:1 5658:1 5815:1 6431:1 6736:1 6920:1 7554:1 7894:1 7948:1 7966:1 8258:1 8587:1 8888:1 9240:1 9429:1 9581:1 9827:1 10480:1 12274:1 12471:1 12772:1 13106:1 14703:1 14832:1 
1 1:1 45:1 368:1 915:1 1280:1 1285:1 2090:1 2381:1 2962:1 3189:1 3984:1 4846:1 4952:1 5388:1 5815:1 6410:1 7465:1 7525:1 8649:1 10692:1 10808:1 12212:1 12343:1 12800:1 14150:1 14451:1 
1 1:1 13:1 88:1 187:1 760:1 763:1 1280:1 1973:1 2011:1 2298:1 2756:1 2821:1 3954:1 4362:1 4478:1 5023:1 5150:1 5432:1 5847:1 6503:1 6524:1 6583:1 7003:1 7091:1 7279:1 7486:1 8100:1 8127:1 8544:1 9277:1 9827:1 9843:1 9893:1 10382:1 10822:1 11294:1 11481:1 12044:1 13152:1 13973:1 
1 1:1 849:1 1324:1 2677:1 2760:1 7966:1 9827:1 12044:1 12212:1 14451:1 
1 1:1 959:1 2756:1 4362:1 4475:1 7264:1 10513:1 11092:1 12062:1 13130:1 14129:1 14451:1 
1 1:1 542:1 1121:1 1276:1 1890:1 2225:1 2787:1 2924:1 3199:1 3270:1 3696:1 4418:1 4639:1 4916:1 4973:1 5335:1 5351:1 5899:1 6026:1 6215:1 6268:1 6524:1 6561:1 6680:1 7516:1 8093:1 8171:1 8406:1 8588:1 8649:1 8724:1 9893:1 10323:1 10332:1 10657:1 10765:1 10858:1 11792:1 12029:1 12397:1 13461:1 13891:1 
1 1:1 368:1 915:1 952:1 2040:1 3037:1 3083:1 3102:1 4362:1 5150:1 5528:1 6133:1 6524:1 7279:1 8037:1 8410:1 8473:1 8732:1 9277:1 9473:1 12183:1 12680:1 13104:1 13152:1 
1 1:1 542:1 1121:1 1276:1 1890:1 2225:1 2787:1 2924:1 3199:1 3270:1 3696:1 4418:1 4639:1 4916:1 4973:1 5335:1 5351:1 5899:1 6026:1 6215:1 6268:1 6524:1 6561:1 6680:1 7516:1 8093:1 8171:1 8406:1 8588:1 8649:1 8724:1 9893:1 10323:1 10332:1 10657:1 10765:1 10858:1 11792:1 12029:1 12397:1 13461:1 13891:1 
1 1:1 4362:1 9581:1 
1 1:1 1728:1 2404:1 2518:1 4864:1 5610:1 5691:1 7525:1 7606:1 8590:1 10103:1 11474:1 11975:1 14130:1 
1 1:1 1728:1 2404:1 2518:1 4864:1 5610:1 5691:1 7525:1 7606:1 8590:1 10103:1 11474:1 11975:1 14130:1 
1 1:1 959:1 2756:1 2768:1 3039:1 3454:1 4362:1 4892:1 5790:1 7264:1 10390:1 10513:1 10921:1 10976:1 11092:1 12062:1 12343:1 13130:1 13349:1 14129:1 14451:1 
1 1:1 570:1 1324:1 1999:1 2056:1 3102:1 4095:1 4362:1 4834:1 5658:1 5815:1 6431:1 6736:1 6920:1 7554:1 7894:1 7948:1 7966:1 8258:1 8587:1 8888:1 9240:1 9429:1 9581:1 9827:1 10480:1 12274:1 12471:1 12772:1 13106:1 14703:1 14832:1 
1 1:1 13:1 88:1 187:1 760:1 763:1 1280:1 1973:1 2011:1 2298:1 2756:1 2821:1 3954:1 4362:1 4478:1 5023:1 5150:1 5432:1 5847:1 6503:1 6524:1 6583:1 7003:1 7091:1 7279:1 7486:1 8100:1 8127:1 8544:1 9277:1 9827:1 9843:1 9893:1 10382:1 10822:1 11294:1 11481:1 12044:1 13152:1 13973:1 
1 1:1 547:1 838:1 952:1 1130:1 1181:1 1892:1 2011:1 2300:1 2431:1 2756:1 3314:1 4362:1 5095:1 5150:1 6049:1 6923:1 7894:1 8972:1 9277:1 9452:1 9626:1 9893:1 10323:1 10858:1 10914:1 11518:1 12044:1 12722:1 12846:1 12917:1 13130:1 13152:1 14603:1 
1 1:1 298:1 368:1 533:1 732:1 849:1 915:1 1004:1 1136:1 1925:1 2040:1 2150:1 2300:1 2318:1 2330:1 3083:1 3870:1 4362:1 4759:1 4879:1 5058:1 5169:1 5710:1 6049:1 6524:1 6640:1 6853:1 7196:1 7853:1 7965:1 8383:1 8549:1 9473:1 9594:1 9827:1 10480:1 11474:1 11750:1 12268:1 13056:1 13104:1 13120:1 13130:1 14793:1 14856:1 
1 1:1 838:1 1892:1 3314:1 4362:1 5095:1 7894:1 9115:1 10323:1 10914:1 12722:1 12917:1 13130:1 14603:1 
1 1:1 349:1 759:1 1324:1 2009:1 2756:1 2773:1 2870:1 2914:1 4028:1 4362:1 4655:1 6059:1 6920:1 7084:1 7525:1 7894:1 7966:1 8512:1 8888:1 9049:1 9827:1 11031:1 12044:1 12274:1 12838:1 13669:1 
1 1:1 547:1 1004:1 2770:1 2962:1 3314:1 3435:1 4362:1 4751:1 5095:1 9240:1 9681:1 10681:1 10691:1 13104:1 14533:1 14568:1 14635:1 
1 1:1 346:1 612:1 1004:1 2200:1 2412:1 2431:1 3083:1 4362:1 4641:1 5150:1 5528:1 6524:1 6853:1 7874:1 9277:1 9473:1 9594:1 9626:1 9827:1 12406:1 12893:1 13104:1 13130:1 13152:1 14788:1 
1 1:1 4362:1 5410:1 5543:1 6144:1 7151:1 7582:1 7894:1 9297:1 12044:1 12212:1 12646:1 13545:1 13708:1 
1 1:1 298:1 866:1 952:1 1324:1 1358:1 1421:1 1938:1 2177:1 2756:1 3225:1 3348:1 3564:1 4065:1 4362:1 5091:1 5179:1 5218:1 5242:1 5416:1 5815:1 6583:1 7004:1 7265:1 7582:1 7894:1 8809:1 9026:1 9312:1 9716:1 9861:1 10048:1 10332:1 11474:1 11826:1 12044:1 12212:1 12997:1 13106:1 13441:1 13914:1 14275:1 14451:1 
1 1:1 4362:1 5610:1 7524:1 10103:1 10480:1 
1 1:1 93:1 421:1 621:1 838:1 1181:1 1826:1 1955:1 1979:1 2153:1 2254:1 2412:1 2458:1 2617:1 2756:1 3042:1 3311:1 3314:1 3529:1 3642:1 4362:1 4884:1 4900:1 4923:1 5095:1 5125:1 5150:1 5416:1 5691:1 5715:1 6074:1 6177:1 6427:1 6671:1 6844:1 6923:1 7084:1 7559:1 7586:1 8018:1 8144:1 8188:1 8406:1 8429:1 8647:1 8654:1 9598:1 10087:1 10269:1 10323:1 10691:1 11223:1 11577:1 11975:1 12029:1 12408:1 12478:1 13112:1 13469:1 13551:1 14603:1 
1 1:1 131:1 915:1 3582:1 3701:1 4028:1 4047:1 4362:1 4416:1 4697:1 5505:1 7026:1 8512:1 8649:1 8749:1 8815:1 9050:1 10124:1 11073:1 11187:1 12743:1 12997:1 13548:1 14757:1 
1 1:1 13:1 187:1 196:1 403:1 915:1 1021:1 1033:1 1280:1 1346:1 1556:1 1737:1 1938:1 2218:1 2431:1 2870:1 2991:1 3093:1 3351:1 4095:1 4323:1 4681:1 5008:1 5114:1 6226:1 6789:1 6920:1 6930:1 7258:1 7524:1 7586:1 8031:1 8037:1 8127:1 8734:1 8743:1 9034:1 9050:1 9067:1 9312:1 9498:1 9582:1 9792:1 10164:1 10198:1 10491:1 10752:1 10921:1 11465:1 11917:1 11954:1 12212:1 12592:1 12838:1 13349:1 13458:1 13532:1 13545:1 14776:1 14779:1 
1 1:1 2319:1 4362:1 4392:1 5524:1 6059:1 6410:1 6907:1 8100:1 9827:1 12268:1 14746:1 
1 1:1 298:1 866:1 952:1 1324:1 1358:1 1421:1 1938:1 2177:1 2756:1 3225:1 3348:1 3564:1 4065:1 4362:1 5091:1 5179:1 5218:1 5242:1 5416:1 5815:1 6583:1 7004:1 7265:1 7582:1 7894:1 8809:1 9026:1 9312:1 9716:1 9861:1 10048:1 10332:1 11474:1 11826:1 12044:1 12212:1 12997:1 13106:1 13441:1 13914:1 14275:1 14451:1 14635:1 
1 1:1 4362:1 5610:1 7524:1 10103:1 10480:1 
1 1:1 267:1 368:1 570:1 1280:1 1358:1 1614:1 1750:1 2011:1 2022:1 2482:1 2518:1 2522:1 2677:1 2760:1 3083:1 3196:1 3689:1 3984:1 4392:1 5058:1 5135:1 5150:1 5335:1 5472:1 5815:1 6380:1 6471:1 6503:1 6920:1 7032:1 7257:1 7279:1 7536:1 7783:1 7966:1 8100:1 8649:1 8821:1 9277:1 9286:1 9312:1 9533:1 9805:1 9945:1 10083:1 10513:1 10677:1 10960:1 11092:1 11437:1 11826:1 12212:1 12343:1 12646:1 12800:1 13145:1 14207:1 14451:1 14703:1 14779:1 14798:1 
1 1:1 267:1 368:1 570:1 1280:1 1358:1 1614:1 1750:1 2011:1 2022:1 2482:1 2518:1 2522:1 2677:1 2760:1 3083:1 3196:1 3689:1 3984:1 4392:1 5058:1 5135:1 5150:1 5335:1 5472:1 5815:1 6380:1 6471:1 6503:1 6920:1 7032:1 7257:1 7279:1 7536:1 7783:1 7966:1 8100:1 8649:1 8821:1 9277:1 9286:1 9312:1 9533:1 9805:1 9945:1 10083:1 10513:1 10677:1 10960:1 11092:1 11437:1 11826:1 12212:1 12343:1 12646:1 12800:1 13145:1 14207:1 14451:1 14703:1 14779:1 14798:1 
1 1:1 13:1 187:1 196:1 403:1 915:1 1021:1 1033:1 1280:1 1346:1 1556:1 1737:1 1938:1 2218:1 2431:1 2870:1 2991:1 3093:1 3351:1 4095:1 4323:1 4681:1 5008:1 5114:1 6226:1 6789:1 6920:1 6930:1 7258:1 7524:1 7586:1 8031:1 8037:1 8127:1 8734:1 8743:1 9034:1 9050:1 9067:1 9312:1 9498:1 9582:1 9792:1 10164:1 10198:1 10491:1 10752:1 10921:1 11465:1 11917:1 11954:1 12212:1 12592:1 12838:1 13349:1 13458:1 13532:1 13545:1 14776:1 14779:1 
1 1:1 13:1 187:1 196:1 403:1 915:1 1021:1 1033:1 1280:1 1346:1 1556:1 1737:1 1938:1 2218:1 2431:1 2870:1 2991:1 3093:1 3351:1 4095:1 4323:1 4681:1 5008:1 5114:1 6226:1 6789:1 6920:1 6930:1 7258:1 7524:1 7586:1 8031:1 8037:1 8127:1 8734:1 8743:1 9034:1 9050:1 9067:1 9312:1 9498:1 9582:1 9792:1 10164:1 10198:1 10491:1 10752:1 10921:1 11465:1 11917:1 11954:1 12212:1 12592:1 12838:1 13349:1 13458:1 13532:1 13545:1 14776:1 14779:1 
1 1:1 578:1 915:1 942:1 1729:1 2011:1 2431:1 2458:1 2949:1 3607:1 3779:1 4362:1 4960:1 5338:1 5472:1 5715:1 7554:1 7620:1 7638:1 7832:1 8752:1 9581:1 9827:1 10319:1 11518:1 12680:1 13152:1 13802:1 14115:1 
1 1:1 13:1 88:1 187:1 760:1 763:1 1280:1 1973:1 2011:1 2298:1 2756:1 2821:1 3954:1 4362:1 4478:1 5023:1 5150:1 5432:1 5847:1 6503:1 6524:1 6583:1 7003:1 7091:1 7279:1 7486:1 8100:1 8127:1 8544:1 9277:1 9827:1 9843:1 9893:1 10382:1 10822:1 11294:1 11481:1 12044:1 13152:1 13973:1 
1 1:1 368:1 1280:1 1324:1 1750:1 1985:1 2011:1 2089:1 2109:1 2522:1 2870:1 2924:1 4177:1 4362:1 4392:1 4455:1 4572:1 4622:1 4923:1 5091:1 6257:1 6671:1 7524:1 7894:1 8649:1 9681:1 9893:1 10599:1 11461:1 11474:1 11501:1 12044:1 12772:1 13052:1 14451:1 14503:1 
1 1:1 67:1 187:1 346:1 612:1 759:1 915:1 1004:1 1324:1 1661:1 1874:1 2011:1 2150:1 2318:1 2380:1 2572:1 3689:1 3779:1 4362:1 5472:1 5528:1 5588:1 5610:1 5710:1 5815:1 5957:1 6049:1 6619:1 8179:1 8648:1 8858:1 9050:1 9297:1 9312:1 9594:1 9626:1 9792:1 9805:1 10103:1 11298:1 11518:1 11776:1 12268:1 12579:1 13386:1 
1 1:1 1938:1 2482:1 2522:1 2756:1 3042:1 4362:1 5091:1 6583:1 6651:1 7514:1 7525:1 7894:1 7966:1 8037:1 8888:1 10599:1 10677:1 11092:1 11187:1 12044:1 12372:1 12766:1 12772:1 13130:1 13152:1 14451:1 
1 1:1 4362:1 11908:1 
1 1:1 298:1 368:1 849:1 952:1 1324:1 1729:1 1773:1 1816:1 2011:1 2677:1 2836:1 3314:1 3779:1 4362:1 4572:1 5095:1 5150:1 5203:1 5412:1 5426:1 5472:1 6049:1 6116:1 6410:1 7360:1 7582:1 7755:1 7894:1 7966:1 8037:1 8188:1 8888:1 9062:1 9183:1 9805:1 9827:1 10081:1 10087:1 10220:1 10323:1 10584:1 10691:1 10746:1 10914:1 10976:1 12029:1 12044:1 12183:1 12212:1 12408:1 12680:1 12722:1 12934:1 13152:1 13340:1 13802:1 14130:1 14451:1 14603:1 14703:1 
1 1:1 131:1 915:1 2768:1 3454:1 3582:1 3701:1 4028:1 4047:1 4362:1 4416:1 4697:1 5505:1 7026:1 8512:1 8649:1 8749:1 8815:1 9050:1 10124:1 10390:1 11073:1 11187:1 12343:1 12743:1 12997:1 13548:1 14757:1 
1 1:1 13:1 187:1 196:1 403:1 915:1 1021:1 1033:1 1280:1 1346:1 1556:1 1737:1 1938:1 2218:1 2431:1 2870:1 2991:1 3093:1 3351:1 4095:1 4323:1 4681:1 5008:1 5114:1 6226:1 6789:1 6920:1 6930:1 7258:1 7524:1 7586:1 8031:1 8037:1 8127:1 8734:1 8743:1 9034:1 9050:1 9067:1 9312:1 9498:1 9582:1 9792:1 10164:1 10198:1 10491:1 10752:1 10921:1 11465:1 11917:1 11954:1 12212:1 12592:1 12838:1 13349:1 13458:1 13532:1 13545:1 14776:1 14779:1 
1 1:1 558:1 612:1 838:1 849:1 1004:1 1007:1 1242:1 1311:1 1716:1 1892:1 2431:1 2677:1 2728:1 2924:1 3227:1 3314:1 3335:1 3428:1 3482:1 4362:1 4655:1 5095:1 5710:1 5715:1 6059:1 6278:1 6363:1 6420:1 6923:1 7525:1 8018:1 8144:1 8368:1 8880:1 9870:1 10323:1 10560:1 10758:1 10914:1 11888:1 12044:1 12510:1 12722:1 12838:1 12870:1 12917:1 13176:1 13340:1 13891:1 14603:1 
1 1:1 131:1 915:1 3582:1 3701:1 4028:1 4047:1 4362:1 4416:1 4697:1 5505:1 7026:1 8512:1 8649:1 8749:1 8815:1 9050:1 10124:1 11073:1 11187:1 12743:1 12997:1 13548:1 14757:1 
1 1:1 131:1 915:1 3582:1 3701:1 4028:1 4047:1 4362:1 4416:1 4697:1 5505:1 7026:1 8512:1 8649:1 8749:1 8815:1 9050:1 10124:1 11073:1 11187:1 12743:1 12997:1 13548:1 14757:1 
1 1:1 115:1 196:1 233:1 357:1 372:1 397:1 421:1 471:1 537:1 578:1 604:1 758:1 1004:1 1284:1 1358:1 1717:1 1721:1 1730:1 1750:1 1788:1 2011:1 2084:1 2503:1 2694:1 2849:1 2959:1 3196:1 3447:1 3573:1 4006:1 4362:1 4417:1 4480:1 4536:1 4817:1 4961:1 5008:1 5292:1 5377:1 5427:1 5441:1 5472:1 5567:1 5815:1 5822:1 6177:1 6181:1 6389:1 6521:1 6524:1 6671:1 6830:1 6932:1 7178:1 7495:1 7524:1 7652:1 7656:1 7685:1 7751:1 7755:1 7963:1 8037:1 8354:1 8404:1 8612:1 8649:1 8651:1 8720:1 9009:1 9319:1 9326:1 9482:1 9563:1 9613:1 9617:1 9711:1 9884:1 10084:1 10201:1 10272:1 10391:1 10459:1 10588:1 10698:1 10832:1 10876:1 10925:1 11249:1 11321:1 11534:1 11593:1 11913:1 12268:1 12392:1 12413:1 12472:1 12703:1 12734:1 12746:1 12806:1 12889:1 13349:1 13473:1 13545:1 13635:1 13659:1 13689:1 13697:1 13711:1 13914:1 14044:1 14143:1 14233:1 14597:1 14719:1 14755:1 
1 1:1 131:1 915:1 3582:1 3701:1 4028:1 4047:1 4362:1 4416:1 4697:1 5505:1 7026:1 8512:1 8649:1 8749:1 8815:1 9050:1 10124:1 11073:1 11187:1 12743:1 12997:1 13548:1 14757:1 
1 1:1 497:1 619:1 834:1 1126:1 1236:1 2298:1 2494:1 2768:1 3454:1 5041:1 5045:1 5095:1 5604:1 6410:1 6583:1 6895:1 6920:1 7178:1 7725:1 9805:1 9818:1 9827:1 10087:1 10390:1 10513:1 10647:1 11083:1 11778:1 12343:1 13130:1 13493:1 
1 1:1 1358:1 1661:1 1788:1 2046:1 2058:1 2294:1 2319:1 2746:1 2760:1 2770:1 3014:1 3042:1 3435:1 3751:1 4392:1 5041:1 5472:1 5815:1 6987:1 7258:1 7279:1 7492:1 7586:1 7727:1 7852:1 7966:1 8324:1 8422:1 8512:1 8587:1 9044:1 9240:1 9422:1 9827:1 9904:1 10677:1 11178:1 11187:1 12044:1 12343:1 12482:1 12532:1 12800:1 13002:1 13386:1 13473:1 13476:1 13560:1 13777:1 14451:1 14635:1 
1 1:1 1358:1 1661:1 1788:1 2046:1 2058:1 2294:1 2319:1 2746:1 2760:1 3014:1 3042:1 3751:1 4392:1 5041:1 5472:1 5815:1 6987:1 7258:1 7279:1 7492:1 7586:1 7727:1 7852:1 7966:1 8324:1 8422:1 8512:1 8587:1 9044:1 9422:1 9827:1 9904:1 10677:1 11178:1 11187:1 12044:1 12343:1 12482:1 12532:1 12800:1 13002:1 13386:1 13473:1 13476:1 13560:1 13777:1 14451:1 
1 1:1 267:1 759:1 1004:1 1147:1 1280:1 1324:1 1871:1 1958:1 2011:1 2092:1 2421:1 2431:1 3041:1 3689:1 4362:1 4392:1 4936:1 5011:1 5169:1 5441:1 5482:1 6059:1 6583:1 6620:1 6676:1 7196:1 7524:1 7894:1 8398:1 9267:1 9393:1 9827:1 10050:1 10318:1 11031:1 11067:1 11078:1 11966:1 12268:1 12408:1 13653:1 14032:1 14129:1 14130:1 14698:1 14778:1 
1 1:1 60:1 154:1 267:1 915:1 1004:1 1506:1 2030:1 2518:1 3564:1 4288:1 4362:1 5091:1 5740:1 5760:1 6278:1 6583:1 7279:1 7527:1 7941:1 8047:1 8692:1 8858:1 9312:1 9827:1 9855:1 11092:1 12044:1 12442:1 12471:1 13130:1 13340:1 14451:1 
1 1:1 368:1 760:1 763:1 849:1 915:1 1242:1 1280:1 1655:1 1810:1 1931:1 2846:1 2949:1 3954:1 4074:1 4572:1 4622:1 4786:1 5091:1 7083:1 7524:1 8590:1 9267:1 9498:1 10318:1 10325:1 10480:1 11187:1 11474:1 12030:1 12268:1 12808:1 13130:1 14635:1 
1 1:1 368:1 570:1 849:1 915:1 1354:1 1358:1 1614:1 1938:1 2518:1 2677:1 2914:1 3053:1 4418:1 4470:1 4478:1 5058:1 5150:1 5335:1 5472:1 5637:1 5815:1 6380:1 6471:1 7032:1 7087:1 7251:1 7832:1 7908:1 7966:1 8556:1 8587:1 8649:1 9277:1 9312:1 9805:1 10513:1 10960:1 11092:1 11214:1 11593:1 12212:1 12343:1 12646:1 12838:1 12983:1 14180:1 14451:1 14597:1 14798:1 
1 1:1 644:1 1552:1 1971:1 3230:1 4006:1 5426:1 6583:1 6920:1 7196:1 7279:1 7894:1 8107:1 8512:1 9613:1 9912:1 11092:1 12620:1 13130:1 13551:1 14451:1 
1 1:1 759:1 797:1 915:1 1041:1 1074:1 1280:1 1985:1 2046:1 2218:1 2518:1 2760:1 2959:1 3607:1 4323:1 5041:1 5062:1 5388:1 5410:1 5472:1 5732:1 5740:1 5815:1 6059:1 6380:1 7514:1 7525:1 7554:1 7582:1 7586:1 7647:1 7966:1 8324:1 8649:1 9240:1 9316:1 9429:1 9611:1 9827:1 11292:1 11765:1 12343:1 12800:1 13130:1 13985:1 14635:1 14859:1 
1 1:1 497:1 619:1 834:1 1126:1 1236:1 2298:1 2494:1 2770:1 3435:1 5041:1 5045:1 5095:1 5604:1 6410:1 6583:1 6895:1 6920:1 7178:1 7725:1 9805:1 9818:1 9827:1 10087:1 10513:1 10647:1 11083:1 11778:1 13130:1 13493:1 
1 1:1 759:1 797:1 915:1 1041:1 1074:1 1280:1 1985:1 2046:1 2218:1 2518:1 2760:1 2959:1 3607:1 4323:1 5041:1 5062:1 5388:1 5410:1 5472:1 5732:1 5740:1 5815:1 6059:1 6380:1 7514:1 7525:1 7554:1 7582:1 7586:1 7647:1 7966:1 8324:1 8649:1 9240:1 9316:1 9429:1 9611:1 9827:1 10837:1 11292:1 11765:1 12343:1 12800:1 13130:1 13985:1 14635:1 14859:1 
1 1:1 58:1 1074:1 1214:1 1537:1 2200:1 2225:1 2756:1 4478:1 5740:1 6410:1 6583:1 6691:1 7346:1 7525:1 7966:1 8451:1 9164:1 9473:1 9621:1 9952:1 10010:1 11112:1 11214:1 11229:1 12684:1 13914:1 14037:1 14451:1 
1 1:1 959:1 2756:1 4362:1 4475:1 7264:1 10513:1 11092:1 12062:1 13130:1 14129:1 14451:1 
1 1:1 763:1 879:1 1119:1 1955:1 2329:1 2760:1 2870:1 3320:1 3954:1 4348:1 4362:1 4572:1 4600:1 4855:1 4959:1 5091:1 5338:1 5410:1 5426:1 5472:1 5610:1 5715:1 6250:1 6410:1 7279:1 7586:1 7965:1 7966:1 8100:1 8144:1 8534:1 8876:1 8942:1 9050:1 9615:1 9748:1 9805:1 9892:1 10060:1 10513:1 10801:1 11259:1 11333:1 11474:1 12041:1 12150:1 12562:1 12684:1 13106:1 13308:1 
1 1:1 102:1 223:1 357:1 547:1 612:1 849:1 915:1 977:1 1280:1 1614:1 1810:1 1915:1 1949:1 1971:1 2008:1 2030:1 2311:1 2410:1 2518:1 2522:1 2756:1 2769:1 2837:1 2924:1 3083:1 3602:1 4348:1 4420:1 4475:1 4639:1 4836:1 4855:1 4886:1 5008:1 5023:1 5034:1 5382:1 5416:1 5576:1 5610:1 5740:1 6651:1 6707:1 7115:1 7379:1 7525:1 7536:1 7598:1 7620:1 8163:1 8292:1 8587:1 8590:1 8649:1 8858:1 8888:1 9050:1 9272:1 9312:1 9451:1 9473:1 9711:1 9716:1 10024:1 10083:1 10318:1 11092:1 11149:1 11307:1 11474:1 12338:1 12406:1 13104:1 13494:1 14635:1 
1 1:1 115:1 194:1 368:1 612:1 791:1 1033:1 1291:1 1457:1 2011:1 2032:1 2257:1 2318:1 2677:1 2760:1 2870:1 2959:1 3268:1 3326:1 3428:1 3448:1 3568:1 3582:1 3780:1 3864:1 3984:1 4362:1 5063:1 5472:1 6597:1 6736:1 6830:1 6902:1 6920:1 7084:1 7514:1 7554:1 7656:1 7685:1 7948:1 7966:1 8512:1 8544:1 8648:1 9050:1 9312:1 9326:1 9429:1 9626:1 9827:1 9945:1 10391:1 10513:1 11178:1 11331:1 11518:1 12044:1 12266:1 12680:1 12772:1 13130:1 13165:1 13402:1 13452:1 13669:1 14080:1 14131:1 14283:1 14451:1 
1 1:1 17:1 2924:1 3102:1 3779:1 4362:1 4572:1 4625:1 5023:1 5058:1 6278:1 7514:1 7554:1 7625:1 10480:1 11566:1 11659:1 12838:1 14229:1 14703:1 
1 1:1 298:1 368:1 533:1 732:1 849:1 915:1 1004:1 1136:1 1925:1 2040:1 2150:1 2300:1 2318:1 2330:1 3083:1 3870:1 4362:1 4759:1 4879:1 5058:1 5169:1 5710:1 6049:1 6524:1 6640:1 6853:1 7196:1 7853:1 7965:1 8383:1 8549:1 9473:1 9594:1 9827:1 10480:1 11474:1 11750:1 12268:1 13056:1 13104:1 13120:1 13130:1 14793:1 14856:1 
1 1:1 715:1 952:1 1358:1 1728:1 2011:1 3230:1 4024:1 4362:1 4834:1 5062:1 5095:1 5241:1 6920:1 7622:1 8816:1 8888:1 9312:1 10480:1 10560:1 10914:1 11223:1 11474:1 11829:1 11954:1 12148:1 12343:1 12703:1 12722:1 13106:1 13262:1 14032:1 14129:1 
1 1:1 240:1 915:1 1004:1 1775:1 2037:1 2412:1 2735:1 3954:1 4362:1 4786:1 5150:1 5610:1 5740:1 7265:1 7936:1 7959:1 7966:1 8649:1 8888:1 9312:1 9473:1 10391:1 10956:1 11024:1 11112:1 11149:1 11604:1 12044:1 13130:1 
1 1:1 129:1 732:1 1358:1 1421:1 1737:1 1814:1 2056:1 2218:1 2829:1 3196:1 3906:1 4846:1 5041:1 5094:1 5169:1 5524:1 5528:1 5610:1 5691:1 5821:1 6143:1 7251:1 7735:1 8070:1 8100:1 8536:1 8637:1 9316:1 9451:1 9498:1 9716:1 10429:1 10430:1 10480:1 10513:1 10863:1 10925:1 11659:1 11826:1 12237:1 12268:1 12343:1 12442:1 12808:1 13145:1 13545:1 13777:1 13855:1 14713:1 14825:1 
1 1:1 346:1 612:1 1004:1 2200:1 2412:1 2431:1 3083:1 4362:1 4641:1 5150:1 5528:1 6524:1 6853:1 7874:1 9277:1 9473:1 9594:1 9626:1 9827:1 12406:1 12893:1 13104:1 13130:1 13152:1 14788:1 
1 1:1 60:1 570:1 604:1 849:1 1074:1 1938:1 2354:1 2518:1 2677:1 2760:1 3348:1 3984:1 4147:1 4470:1 5062:1 5091:1 5646:1 5715:1 5760:1 5815:1 7168:1 7264:1 7370:1 7536:1 7554:1 7660:1 7832:1 7966:1 8100:1 8649:1 8655:1 8729:1 8821:1 8888:1 9026:1 9827:1 9945:1 10087:1 11954:1 12111:1 12212:1 12343:1 12838:1 12921:1 13551:1 14703:1 
1 1:1 1324:1 2870:1 5740:1 7525:1 7894:1 8244:1 8324:1 9827:1 10513:1 10681:1 11178:1 12044:1 14451:1 
1 1:1 60:1 570:1 604:1 849:1 1074:1 1938:1 2354:1 2518:1 2677:1 2760:1 3348:1 3984:1 4147:1 4470:1 5062:1 5091:1 5646:1 5715:1 5760:1 5815:1 7168:1 7264:1 7370:1 7536:1 7554:1 7660:1 7832:1 7966:1 8100:1 8649:1 8655:1 8729:1 8821:1 8888:1 9026:1 9827:1 9945:1 10087:1 11954:1 12111:1 12212:1 12343:1 12838:1 12921:1 13551:1 14703:1 
1 1:1 231:1 1147:1 1221:1 1473:1 2008:1 2412:1 2660:1 3011:1 4362:1 5740:1 5821:1 6156:1 6583:1 8436:1 8942:1 9549:1 14078:1 14435:1 
1 1:1 547:1 631:1 791:1 951:1 1004:1 1897:1 2032:1 2765:1 3083:1 3230:1 4323:1 4362:1 4786:1 4825:1 4846:1 4923:1 5186:1 5426:1 5740:1 6524:1 6583:1 6998:1 8283:1 8367:1 9473:1 9594:1 9710:1 9792:1 9805:1 9827:1 9829:1 10087:1 10513:1 11331:1 12592:1 13104:1 13130:1 14475:1 14713:1 
1 1:1 223:1 952:1 1004:1 1217:1 1775:1 1902:1 2046:1 2518:1 2760:1 3298:1 3434:1 3696:1 4147:1 4362:1 4655:1 5045:1 5169:1 5405:1 5472:1 5637:1 6218:1 6363:1 6420:1 7049:1 7966:1 8127:1 8327:1 8358:1 9026:1 9473:1 9827:1 9870:1 9898:1 10376:1 10480:1 10544:1 10843:1 10914:1 11024:1 11223:1 12212:1 12343:1 12838:1 13130:1 13340:1 14105:1 14451:1 14530:1 
1 1:1 2319:1 4392:1 4572:1 5524:1 6059:1 6410:1 6907:1 8100:1 12044:1 12268:1 
1 1:1 315:1 1004:1 2760:1 3437:1 3451:1 4006:1 4362:1 5091:1 5711:1 5924:1 6471:1 6825:1 7265:1 7290:1 7966:1 9638:1 9827:1 10062:1 10103:1 10124:1 10426:1 10485:1 10691:1 10856:1 12303:1 12408:1 
1 1:1 13:1 88:1 187:1 760:1 763:1 1280:1 1973:1 2011:1 2298:1 2756:1 2821:1 3954:1 4362:1 4478:1 5023:1 5150:1 5432:1 5847:1 6503:1 6524:1 6583:1 7003:1 7091:1 7279:1 7486:1 8100:1 8127:1 8544:1 9277:1 9827:1 9843:1 9893:1 10382:1 10822:1 11294:1 11481:1 12044:1 13152:1 13973:1 
1 1:1 3413:1 4362:1 7399:1 
1 1:1 187:1 267:1 915:1 1004:1 1280:1 1955:1 1985:1 2225:1 2482:1 2849:1 2870:1 3014:1 3954:1 4392:1 4478:1 4786:1 5426:1 5472:1 5518:1 5528:1 5732:1 5815:1 6410:1 6902:1 7582:1 7606:1 7620:1 7966:1 8100:1 8258:1 8527:1 8649:1 9014:1 9050:1 9312:1 9581:1 9748:1 10083:1 10513:1 10677:1 10701:1 11173:1 11292:1 11331:1 11629:1 11765:1 12044:1 12212:1 12334:1 12343:1 12408:1 12580:1 12772:1 12800:1 13104:1 13130:1 14130:1 14451:1 14678:1 
1 1:1 223:1 952:1 1004:1 1217:1 1775:1 1902:1 2046:1 2518:1 2760:1 3298:1 3434:1 3696:1 4147:1 4362:1 4655:1 5045:1 5169:1 5405:1 5472:1 5637:1 6218:1 6363:1 6420:1 7049:1 7966:1 8127:1 8327:1 8358:1 9026:1 9473:1 9827:1 9870:1 9898:1 10376:1 10480:1 10544:1 10843:1 10914:1 11024:1 11223:1 12212:1 12343:1 12838:1 13130:1 13340:1 14105:1 14451:1 14530:1 
1 1:1 13:1 223:1 612:1 744:1 763:1 834:1 915:1 1004:1 1033:1 1255:1 1938:1 2046:1 2363:1 2518:1 3954:1 4147:1 4639:1 4855:1 4961:1 5045:1 5179:1 5472:1 5610:1 5715:1 5787:1 6676:1 6920:1 7279:1 7620:1 7685:1 7941:1 7966:1 8127:1 8358:1 8655:1 9581:1 9690:1 9816:1 9898:1 10087:1 10103:1 10977:1 12212:1 12334:1 12343:1 12703:1 13130:1 13340:1 14451:1 14530:1 14800:1 
1 1:1 838:1 1892:1 3314:1 4362:1 5095:1 7894:1 9115:1 10323:1 10914:1 12722:1 12917:1 13130:1 14603:1 
1 1:1 13:1 223:1 612:1 744:1 763:1 834:1 915:1 1004:1 1033:1 1255:1 1938:1 2046:1 2363:1 2518:1 3954:1 4147:1 4639:1 4855:1 4961:1 5045:1 5179:1 5472:1 5610:1 5715:1 5787:1 6676:1 6920:1 7279:1 7620:1 7685:1 7941:1 7966:1 8127:1 8358:1 8655:1 9581:1 9690:1 9816:1 9898:1 10087:1 10103:1 10977:1 12212:1 12334:1 12343:1 12703:1 13130:1 13340:1 14451:1 14530:1 14800:1 
1 1:1 187:1 240:1 542:1 952:1 1358:1 2625:1 4362:1 5150:1 5416:1 6239:1 6583:1 6930:1 7525:1 8888:1 9050:1 9893:1 10976:1 11518:1 11697:1 
1 1:1 715:1 952:1 1358:1 1728:1 2011:1 3230:1 4024:1 4362:1 4834:1 5062:1 5095:1 5241:1 6920:1 7622:1 8816:1 8888:1 9312:1 10480:1 10560:1 10914:1 11223:1 11474:1 11829:1 11954:1 12148:1 12343:1 12703:1 12722:1 13106:1 13262:1 14032:1 14129:1 
1 1:1 715:1 952:1 1358:1 1728:1 2011:1 3230:1 4024:1 4362:1 4834:1 5062:1 5095:1 5241:1 6920:1 7622:1 8816:1 8888:1 9312:1 10480:1 10560:1 10914:1 11223:1 11474:1 11829:1 11954:1 12148:1 12343:1 12703:1 12722:1 13106:1 13262:1 14032:1 14129:1 
1 1:1 497:1 619:1 834:1 1126:1 1236:1 2298:1 2494:1 4362:1 5041:1 5045:1 5095:1 5604:1 6410:1 6583:1 6895:1 6920:1 7178:1 7725:1 9805:1 9818:1 9827:1 10087:1 10513:1 10647:1 11083:1 11778:1 13130:1 13493:1 
0.07459849278015936 1:1 187:1 267:1 915:1 1004:1 1280:1 1955:1 1985:1 2225:1 2482:1 2849:1 2870:1 3014:1 3954:1 4392:1 4478:1 4786:1 5426:1 5472:1 5518:1 5528:1 5732:1 5815:1 6410:1 6902:1 7582:1 7606:1 7620:1 7966:1 8100:1 8258:1 8527:1 8649:1 9014:1 9050:1 9312:1 9581:1 9748:1 10083:1 10513:1 10677:1 10701:1 11173:1 11292:1 11331:1 11629:1 11765:1 12044:1 12212:1 12334:1 12343:1 12408:1 12580:1 12772:1 12800:1 13104:1 13130:1 14130:1 14451:1 14678:1 
1 1:1 13:1 88:1 187:1 760:1 763:1 1280:1 1973:1 2011:1 2298:1 2756:1 2821:1 3954:1 4362:1 4478:1 5023:1 5150:1 5432:1 5847:1 6503:1 6524:1 6583:1 7003:1 7091:1 7279:1 7486:1 8100:1 8127:1 8544:1 9277:1 9827:1 9843:1 9893:1 10382:1 10822:1 11294:1 11481:1 12044:1 13152:1 13973:1 
1 1:1 374:1 547:1 915:1 1280:1 1282:1 1346:1 1658:1 1661:1 2011:1 2225:1 2518:1 2831:1 3870:1 3954:1 5715:1 7582:1 8647:1 9415:1 9531:1 10976:1 11048:1 11275:1 11474:1 12044:1 12148:1 12752:1 13494:1 13915:1 
1 1:1 58:1 1074:1 1214:1 1537:1 2200:1 2225:1 2756:1 4362:1 4478:1 5740:1 6410:1 6583:1 6691:1 7346:1 7525:1 7966:1 8451:1 9164:1 9473:1 9621:1 9952:1 10010:1 11112:1 11214:1 11229:1 12684:1 13914:1 14037:1 14451:1 
1 1:1 176:1 959:1 2756:1 4362:1 7264:1 10513:1 11092:1 12062:1 13130:1 14129:1 14451:1 
1 1:1 17:1 2924:1 3102:1 3779:1 4625:1 5023:1 5058:1 6278:1 7514:1 7554:1 7625:1 10480:1 11659:1 12838:1 14229:1 14703:1 
1 1:1 98:1 187:1 612:1 1741:1 3564:1 4362:1 4846:1 5177:1 5401:1 5740:1 7264:1 7514:1 7525:1 7630:1 7852:1 7899:1 7966:1 8818:1 8888:1 9827:1 10322:1 10976:1 11156:1 11373:1 11717:1 12044:1 12838:1 13000:1 13117:1 13130:1 13379:1 13402:1 14451:1 
1 1:1 368:1 570:1 849:1 915:1 1354:1 1358:1 1614:1 1938:1 2518:1 2677:1 2914:1 3053:1 4418:1 4470:1 4478:1 5058:1 5150:1 5335:1 5472:1 5637:1 5815:1 6380:1 6471:1 7032:1 7087:1 7251:1 7832:1 7908:1 7966:1 8556:1 8587:1 8649:1 9277:1 9312:1 9805:1 10513:1 10960:1 11092:1 11214:1 11593:1 12212:1 12343:1 12646:1 12838:1 12983:1 14180:1 14451:1 14597:1 14798:1 
1 1:1 240:1 633:1 838:1 1004:1 1602:1 1717:1 1775:1 1979:1 2735:1 2853:1 3042:1 3314:1 4362:1 4407:1 4581:1 5095:1 5150:1 5169:1 5518:1 5610:1 5740:1 6187:1 6651:1 6923:1 7265:1 7582:1 7586:1 7936:1 7959:1 7966:1 8018:1 8584:1 8649:1 8888:1 9312:1 9473:1 10391:1 10856:1 10858:1 10956:1 10976:1 11024:1 11112:1 11298:1 11333:1 11518:1 11566:1 11593:1 11792:1 12408:1 12722:1 13340:1 14500:1 14603:1 14807:1 14827:1 
1 1:1 265:1 578:1 759:1 776:1 838:1 915:1 1004:1 1282:1 1288:1 1397:1 1716:1 1892:1 1955:1 1979:1 2482:1 2617:1 2837:1 2868:1 3333:1 4056:1 4067:1 4362:1 4846:1 5095:1 5150:1 5203:1 5335:1 5348:1 5428:1 5440:1 5691:1 6592:1 6853:1 6923:1 7265:1 7582:1 7586:1 7966:1 8100:1 8824:1 9277:1 9312:1 10050:1 10323:1 10429:1 10691:1 10858:1 10914:1 12029:1 12408:1 12461:1 12620:1 12722:1 12917:1 13104:1 13241:1 13494:1 13710:1 14603:1 
1 1:1 265:1 578:1 759:1 776:1 838:1 915:1 1004:1 1282:1 1288:1 1397:1 1716:1 1892:1 1955:1 1979:1 2482:1 2617:1 2837:1 2868:1 3333:1 4056:1 4067:1 4362:1 4846:1 5095:1 5150:1 5203:1 5335:1 5348:1 5428:1 5440:1 5691:1 6592:1 6853:1 6923:1 7265:1 7582:1 7586:1 7966:1 8100:1 8824:1 9277:1 9312:1 10050:1 10323:1 10429:1 10691:1 10858:1 10914:1 12029:1 12408:1 12461:1 12620:1 12722:1 12917:1 13104:1 13241:1 13494:1 13710:1 14603:1 
1 1:1 760:1 1021:1 1173:1 2768:1 2790:1 2869:1 3011:1 3133:1 3454:1 3765:1 4362:1 4533:1 4720:1 4892:1 5023:1 5114:1 5740:1 6524:1 6583:1 6726:1 7279:1 7787:1 8186:1 8687:1 9952:1 10318:1 10342:1 10390:1 10814:1 10976:1 11792:1 12343:1 12408:1 12650:1 13551:1 13721:1 14078:1 14096:1 
1 1:1 154:1 182:1 184:1 298:1 315:1 483:1 838:1 1049:1 1727:1 1750:1 1816:1 1874:1 1904:1 1918:1 1973:1 2156:1 2409:1 2482:1 2522:1 2564:1 2756:1 2760:1 2762:1 3042:1 3196:1 3314:1 3770:1 4067:1 4838:1 4846:1 4997:1 5045:1 5095:1 5160:1 5171:1 5186:1 5335:1 6013:1 6433:1 6583:1 6923:1 7004:1 7191:1 7264:1 7658:1 7735:1 7755:1 7880:1 7966:1 8018:1 8127:1 8649:1 8963:1 9789:1 9805:1 9884:1 10178:1 10332:1 10691:1 10914:1 11160:1 11181:1 11666:1 12044:1 12174:1 12408:1 12722:1 13067:1 13252:1 13299:1 13493:1 13544:1 13973:1 14603:1 14639:1 14856:1 
1 1:1 368:1 493:1 849:1 977:1 985:1 2092:1 2131:1 2156:1 2850:1 4362:1 4381:1 4478:1 4795:1 4824:1 4846:1 5262:1 5441:1 5728:1 6920:1 7469:1 8053:1 8363:1 8649:1 9026:1 9137:1 9297:1 9312:1 9827:1 9898:1 10164:1 10318:1 10325:1 10437:1 10806:1 11099:1 11401:1 11439:1 11471:1 11474:1 11731:1 12044:1 12212:1 12343:1 12408:1 12682:1 12744:1 12997:1 13130:1 13152:1 13282:1 13441:1 13914:1 14072:1 14451:1 14566:1 
1 1:1 154:1 182:1 298:1 448:1 483:1 838:1 969:1 1049:1 1134:1 1750:1 1816:1 1874:1 1904:1 1918:1 1973:1 2156:1 2482:1 2522:1 2564:1 2756:1 2760:1 2762:1 3042:1 3196:1 3314:1 3435:1 3770:1 4067:1 4838:1 4846:1 4997:1 5045:1 5095:1 5160:1 5171:1 5889:1 6013:1 6433:1 6583:1 6589:1 6923:1 6962:1 7004:1 7264:1 7658:1 7735:1 7755:1 7880:1 7966:1 8018:1 8103:1 8127:1 8598:1 8649:1 8785:1 8963:1 9805:1 9884:1 10178:1 10332:1 10691:1 10914:1 11181:1 11666:1 12044:1 12174:1 12408:1 12722:1 12986:1 13067:1 13252:1 13299:1 13493:1 13544:1 13973:1 14115:1 14603:1 14639:1 14856:1 
1 1:1 102:1 223:1 357:1 547:1 612:1 849:1 915:1 977:1 1280:1 1614:1 1810:1 1915:1 1949:1 1971:1 2008:1 2030:1 2311:1 2410:1 2518:1 2522:1 2756:1 2769:1 2837:1 2924:1 3083:1 3602:1 4348:1 4420:1 4475:1 4639:1 4836:1 4855:1 4886:1 5008:1 5023:1 5034:1 5382:1 5416:1 5576:1 5610:1 5740:1 6651:1 6707:1 7115:1 7379:1 7525:1 7536:1 7598:1 7620:1 8163:1 8292:1 8587:1 8590:1 8649:1 8858:1 8888:1 9050:1 9272:1 9312:1 9451:1 9473:1 9711:1 9716:1 10024:1 10083:1 10318:1 11092:1 11149:1 11307:1 11474:1 12338:1 12406:1 13104:1 13494:1 14635:1 
1 1:1 154:1 182:1 184:1 298:1 315:1 483:1 838:1 1049:1 1727:1 1750:1 1816:1 1874:1 1904:1 1918:1 1973:1 2156:1 2409:1 2482:1 2522:1 2564:1 2756:1 2760:1 2762:1 3042:1 3196:1 3314:1 3770:1 4067:1 4838:1 4846:1 4997:1 5045:1 5095:1 5160:1 5171:1 5186:1 5335:1 6013:1 6433:1 6583:1 6923:1 7004:1 7191:1 7264:1 7658:1 7735:1 7755:1 7880:1 7966:1 8018:1 8127:1 8649:1 8963:1 9789:1 9805:1 9884:1 10178:1 10332:1 10691:1 10914:1 11160:1 11181:1 11666:1 12044:1 12174:1 12408:1 12722:1 13067:1 13252:1 13299:1 13493:1 13544:1 13973:1 14603:1 14639:1 14856:1 
1 1:1 13:1 88:1 187:1 760:1 763:1 1280:1 1973:1 2011:1 2298:1 2756:1 2821:1 3954:1 4362:1 4478:1 5023:1 5150:1 5432:1 5847:1 6503:1 6524:1 6583:1 7003:1 7091:1 7279:1 7486:1 8100:1 8127:1 8544:1 9277:1 9827:1 9843:1 9893:1 10382:1 10822:1 11294:1 11481:1 12044:1 13152:1 13973:1 
1 1:1 60:1 570:1 612:1 849:1 1358:1 1475:1 1728:1 1788:1 1961:1 2046:1 2330:1 2451:1 2482:1 3083:1 3314:1 3323:1 3954:1 4817:1 4910:1 5023:1 5062:1 5095:1 5150:1 5169:1 5190:1 6250:1 6268:1 6376:1 6477:1 6676:1 6809:1 6820:1 6830:1 6930:1 7196:1 7251:1 7264:1 7279:1 7318:1 7554:1 7582:1 7894:1 7934:1 8545:1 8720:1 9500:1 9630:1 9898:1 9928:1 10087:1 10157:1 10353:1 10677:1 11281:1 11331:1 11932:1 12111:1 12128:1 12212:1 12343:1 12722:1 12772:1 12838:1 13106:1 13130:1 13473:1 14129:1 14451:1 14703:1 14713:1 14779:1 
1 1:1 1221:1 2008:1 2412:1 2660:1 2756:1 3011:1 4378:1 5821:1 7525:1 8436:1 9549:1 10554:1 
1 1:1 58:1 1074:1 1214:1 1537:1 2200:1 2225:1 2756:1 4362:1 4478:1 5740:1 6410:1 6583:1 6691:1 7346:1 7525:1 7966:1 8451:1 9164:1 9473:1 9621:1 9952:1 10010:1 11112:1 11214:1 11229:1 12684:1 13914:1 14037:1 14451:1 
1 1:1 265:1 838:1 1282:1 1892:1 1955:1 1979:1 2617:1 2756:1 3042:1 3314:1 4362:1 4581:1 5062:1 5095:1 5150:1 5203:1 5428:1 5528:1 7384:1 7554:1 7586:1 7948:1 8037:1 8649:1 9342:1 9581:1 9827:1 10050:1 10691:1 10858:1 10914:1 12029:1 12408:1 12722:1 12917:1 14603:1 14808:1 
1 1:1 349:1 759:1 1324:1 2009:1 2756:1 2773:1 2870:1 2914:1 3434:1 4028:1 4362:1 4555:1 4655:1 6059:1 6920:1 7084:1 7894:1 7966:1 8512:1 8888:1 9049:1 9827:1 10843:1 11024:1 11031:1 12044:1 12274:1 12838:1 13669:1 
1 1:1 17:1 2924:1 3102:1 3779:1 4362:1 4572:1 4625:1 5023:1 5058:1 6278:1 7514:1 7554:1 7625:1 10480:1 11566:1 11659:1 12838:1 14229:1 14703:1 
1 1:1 4362:1 8512:1 10554:1 12268:1 
1 1:1 184:1 298:1 578:1 1661:1 1931:1 1942:1 2056:1 2234:1 2518:1 2837:1 2870:1 4362:1 4817:1 4846:1 4922:1 5426:1 5740:1 5760:1 6268:1 6325:1 6357:1 6844:1 7112:1 7161:1 7389:1 7514:1 7524:1 7727:1 7735:1 8512:1 8809:1 9026:1 9297:1 9394:1 9500:1 9789:1 9792:1 10198:1 10681:1 10925:1 10976:1 11181:1 11275:1 11666:1 12442:1 13197:1 13476:1 14080:1 14129:1 14192:1 
1 1:1 143:1 154:1 312:1 326:1 368:1 436:1 448:1 561:1 575:1 578:1 633:1 676:1 915:1 1004:1 1022:1 1063:1 1198:1 1232:1 1280:1 1469:1 1554:1 1559:1 1635:1 1958:1 1985:1 2011:1 2030:1 2156:1 2503:1 2991:1 3218:1 3334:1 3434:1 3485:1 3589:1 3718:1 3984:1 4385:1 4418:1 4536:1 4681:1 4795:1 4817:1 4960:1 5023:1 5194:1 5351:1 5427:1 5447:1 5472:1 5517:1 5610:1 5637:1 5715:1 5815:1 5818:1 5944:1 5982:1 6225:1 6356:1 6437:1 6441:1 6736:1 6997:1 7191:1 7251:1 7257:1 7658:1 8037:1 8122:1 8226:1 8354:1 8398:1 8442:1 8545:1 8549:1 8819:1 8930:1 9289:1 9312:1 9498:1 9533:1 9681:1 9730:1 9787:1 9805:1 9933:1 10164:1 10353:1 10622:1 10772:1 10808:1 10832:1 10925:1 10976:1 11112:1 11181:1 11275:1 11331:1 11333:1 11336:1 11465:1 11670:1 12212:1 12408:1 12472:1 12535:1 12703:1 12805:1 12838:1 12997:1 13019:1 13067:1 13165:1 13809:1 13815:1 13946:1 14198:1 14451:1 14678:1 14779:1 14829:1 
1 1:1 1004:1 2870:1 8556:1 14451:1 
1 1:1 4362:1 8512:1 10554:1 12268:1 
1 1:1 128:1 349:1 464:1 760:1 834:1 1280:1 1324:1 1730:1 2030:1 2431:1 2518:1 2760:1 3454:1 3954:1 4362:1 4392:1 5062:1 5091:1 5962:1 6736:1 7524:1 7582:1 8287:1 8816:1 8858:1 8888:1 9473:1 10536:1 10743:1 11829:1 11954:1 13914:1 14451:1 
1 1:1 128:1 349:1 464:1 760:1 834:1 1280:1 1324:1 1730:1 2030:1 2431:1 2518:1 2760:1 3454:1 3954:1 4362:1 4392:1 5062:1 5091:1 5962:1 6736:1 7524:1 7582:1 8287:1 8816:1 8858:1 8888:1 9473:1 10536:1 10743:1 11829:1 11954:1 13914:1 14451:1 
1 1:1 98:1 612:1 879:1 1197:1 1741:1 2760:1 5177:1 5838:1 6583:1 7264:1 7630:1 7852:1 7899:1 8818:1 9892:1 10322:1 10513:1 10976:1 11156:1 11717:1 12044:1 12212:1 12838:1 13000:1 13117:1 13379:1 13402:1 13702:1 
1 1:1 547:1 763:1 1324:1 1358:1 1388:1 2756:1 2760:1 2844:1 2991:1 3230:1 4019:1 4334:1 4683:1 4904:1 5255:1 5409:1 5766:1 6315:1 6540:1 6844:1 7379:1 7396:1 7525:1 7527:1 7966:1 8473:1 8734:1 8858:1 8888:1 9050:1 10681:1 10752:1 11173:1 11331:1 12579:1 12808:1 13106:1 13657:1 14129:1 14451:1 14859:1 
1 1:1 128:1 349:1 464:1 760:1 834:1 1280:1 1324:1 1730:1 2030:1 2431:1 2518:1 2760:1 3454:1 3954:1 4362:1 4392:1 5062:1 5091:1 5962:1 6736:1 7524:1 7582:1 8287:1 8816:1 8858:1 8888:1 9473:1 10536:1 10743:1 11829:1 11954:1 13914:1 14451:1 
1 1:1 176:1 255:1 849:1 1004:1 1766:1 1867:1 1871:1 2315:1 2516:1 2518:1 2760:1 2960:1 4028:1 4362:1 4622:1 4692:1 4741:1 5045:1 5091:1 5169:1 5498:1 5574:1 7509:1 7527:1 7735:1 7894:1 7966:1 8474:1 8649:1 9312:1 9711:1 10876:1 11083:1 11259:1 12044:1 12212:1 12491:1 12708:1 13130:1 14451:1 
1 1:1 128:1 349:1 464:1 760:1 834:1 1280:1 1324:1 1730:1 2030:1 2431:1 2518:1 2760:1 3454:1 3954:1 4362:1 4392:1 5062:1 5091:1 5962:1 6736:1 7524:1 7582:1 8287:1 8816:1 8858:1 8888:1 9473:1 10536:1 10743:1 11829:1 11954:1 13914:1 14451:1 
1 1:1 368:1 915:1 952:1 2040:1 3037:1 3083:1 3102:1 4362:1 5150:1 5528:1 6133:1 6524:1 7279:1 8037:1 8410:1 8473:1 8732:1 9277:1 9473:1 12183:1 12680:1 13104:1 13152:1 
1 1:1 346:1 612:1 1004:1 2200:1 2412:1 2431:1 3083:1 4362:1 4641:1 5150:1 5528:1 6524:1 6853:1 7874:1 9277:1 9473:1 9594:1 9626:1 9827:1 12406:1 12893:1 13104:1 13130:1 13152:1 14788:1 
1 1:1 187:1 483:1 849:1 915:1 1033:1 1083:1 1280:1 1354:1 1489:1 1552:1 1638:1 1735:1 1958:1 2225:1 2431:1 2503:1 2518:1 2529:1 2959:1 3146:1 3582:1 3689:1 3984:1 4006:1 4392:1 4572:1 4834:1 5023:1 5610:1 5631:1 5815:1 5962:1 6383:1 6477:1 6857:1 6920:1 7257:1 7279:1 7894:1 8100:1 8127:1 8144:1 8545:1 8749:1 8821:1 8999:1 9050:1 9326:1 9805:1 10012:1 10960:1 11149:1 11181:1 11298:1 11534:1 12343:1 12372:1 12620:1 12680:1 13106:1 13985:1 
1 1:1 1032:1 1033:1 1979:1 2412:1 2738:1 3179:1 3218:1 4006:1 4030:1 4362:1 4498:1 4545:1 4681:1 5091:1 5547:1 5815:1 6134:1 6456:1 7168:1 7279:1 7685:1 7841:1 8649:1 8752:1 8888:1 9050:1 9791:1 9792:1 10976:1 11275:1 12212:1 12343:1 12838:1 13106:1 13711:1 14031:1 14435:1 
1 1:1 58:1 985:1 1004:1 1242:1 2150:1 2294:1 2300:1 2453:1 2482:1 2949:1 3298:1 4362:1 4846:1 4923:1 5157:1 5472:1 5604:1 5691:1 6578:1 6930:1 7735:1 8037:1 8512:1 8649:1 8867:1 9312:1 9488:1 10087:1 10171:1 10332:1 10429:1 10858:1 10976:1 11073:1 11078:1 11112:1 11187:1 11275:1 12174:1 12212:1 12408:1 12703:1 12997:1 13784:1 14185:1 14451:1 14461:1 14713:1 14825:1 
1 1:1 879:1 963:1 1032:1 1033:1 2677:1 3230:1 3954:1 4362:1 5518:1 6383:1 6830:1 7966:1 8734:1 8824:1 13419:1 13452:1 13973:1 14132:1 14779:1 
1 1:1 612:1 849:1 915:1 1004:1 1760:1 2431:1 2837:1 3531:1 4362:1 4625:1 5023:1 5528:1 5610:1 5732:1 7320:1 8512:1 8648:1 8732:1 9050:1 9613:1 9626:1 9827:1 9898:1 10103:1 10480:1 12044:1 12174:1 12406:1 12766:1 13104:1 13130:1 13152:1 13494:1 14788:1 
1 1:1 298:1 368:1 533:1 732:1 849:1 915:1 1004:1 1136:1 1925:1 2040:1 2150:1 2300:1 2318:1 2330:1 3083:1 3870:1 4362:1 4759:1 4879:1 5058:1 5169:1 5710:1 6049:1 6524:1 6640:1 6853:1 7196:1 7853:1 7965:1 8383:1 8549:1 9473:1 9594:1 9827:1 10480:1 11474:1 11750:1 12268:1 13056:1 13104:1 13120:1 13130:1 14793:1 14856:1 
1 1:1 13:1 88:1 187:1 760:1 763:1 1280:1 1973:1 2011:1 2298:1 2756:1 2821:1 3954:1 4362:1 4478:1 5023:1 5150:1 5432:1 5847:1 6503:1 6524:1 6583:1 7003:1 7091:1 7279:1 7486:1 8100:1 8127:1 8544:1 9277:1 9827:1 9843:1 9893:1 10382:1 10822:1 11294:1 11481:1 12044:1 13152:1 13973:1 
1 1:1 1206:1 1904:1 2756:1 2770:1 3435:1 4121:1 5169:1 6583:1 6671:1 7279:1 7582:1 10319:1 10720:1 12148:1 12343:1 12493:1 14072:1 14555:1 
1 1:1 187:1 2156:1 2763:1 3036:1 3230:1 4475:1 4572:1 5091:1 7346:1 7525:1 8127:1 8258:1 8512:1 8888:1 11474:1 11940:1 11983:1 12044:1 12086:1 12212:1 12472:1 13092:1 13130:1 13855:1 14566:1 
1 1:1 187:1 2156:1 2763:1 3036:1 3230:1 4475:1 4572:1 5091:1 7346:1 7525:1 8127:1 8258:1 8512:1 8888:1 11474:1 11940:1 11983:1 12044:1 12086:1 12212:1 12472:1 13092:1 13130:1 13855:1 14566:1 
1 1:1 759:1 945:1 1334:1 1358:1 1552:1 1971:1 3230:1 4006:1 4362:1 5545:1 6383:1 6920:1 7196:1 7524:1 7685:1 7894:1 8100:1 8107:1 8512:1 8729:1 9594:1 9613:1 9912:1 11092:1 11492:1 12528:1 12620:1 13130:1 14451:1 
1 1:1 
1 1:1 154:1 255:1 303:1 399:1 448:1 526:1 560:1 570:1 1022:1 1060:1 1089:1 1118:1 1716:1 1814:1 1871:1 2131:1 2173:1 2277:1 2412:1 2483:1 2494:1 2503:1 2518:1 2529:1 2959:1 2963:1 2986:1 3348:1 3435:1 3530:1 3582:1 3718:1 3902:1 3954:1 4056:1 4268:1 4786:1 4795:1 4817:1 4916:1 4980:1 5236:1 5427:1 5441:1 5472:1 5604:1 5637:1 5689:1 5702:1 6224:1 6225:1 6471:1 6759:1 6809:1 6830:1 7119:1 7168:1 7191:1 7514:1 7658:1 7665:1 7669:1 7855:1 7963:1 7969:1 8074:1 8098:1 8208:1 8369:1 8442:1 8549:1 8688:1 8780:1 8824:1 8923:1 9050:1 9067:1 9312:1 9319:1 9451:1 9498:1 9548:1 9581:1 9582:1 9787:1 9884:1 9945:1 10391:1 10491:1 10637:1 10677:1 10832:1 10858:1 10991:1 11035:1 11112:1 11380:1 11518:1 11526:1 11750:1 11777:1 12106:1 12212:1 12325:1 12343:1 12710:1 12757:1 12782:1 12921:1 13059:1 13297:1 13451:1 13815:1 13816:1 14105:1 14143:1 14180:1 14417:1 14597:1 14629:1 14808:1 14832:1 14886:1 
1 1:1 681:1 915:1 998:1 1004:1 1280:1 2518:1 2870:1 4362:1 4683:1 5685:1 7346:1 7966:1 9827:1 14451:1 
1 1:1 187:1 448:1 471:1 560:1 651:1 834:1 1007:1 1047:1 1118:1 1242:1 1280:1 1292:1 1421:1 1449:1 1548:1 2011:1 2079:1 2090:1 2131:1 2173:1 2257:1 2395:1 2503:1 2518:1 2724:1 2733:1 2843:1 2870:1 2949:1 2986:1 2991:1 3013:1 3014:1 3036:1 3062:1 3102:1 3320:1 3435:1 3718:1 4006:1 4478:1 4504:1 5128:1 5194:1 5338:1 5351:1 5422:1 5524:1 5631:1 5710:1 5815:1 5928:1 6143:1 6226:1 6433:1 6471:1 6477:1 6524:1 6649:1 6767:1 6920:1 7178:1 7191:1 7196:1 7214:1 7483:1 7725:1 7832:1 7963:1 8100:1 8122:1 8151:1 8354:1 8548:1 8549:1 8746:1 9312:1 9451:1 9787:1 9805:1 9884:1 9913:1 9987:1 10164:1 10228:1 10280:1 10284:1 10391:1 10513:1 10622:1 10876:1 11099:1 11187:1 11298:1 11333:1 11401:1 11518:1 11599:1 11750:1 12002:1 12155:1 12212:1 12703:1 12917:1 12961:1 13165:1 13551:1 13697:1 14125:1 14270:1 14600:1 14713:1 14809:1 14886:1 
1 1:1 13:1 2156:1 2420:1 2991:1 4362:1 5008:1 7582:1 8661:1 10340:1 11602:1 12569:1 12800:1 12808:1 
1 1:1 34:1 197:1 368:1 464:1 578:1 586:1 644:1 834:1 915:1 985:1 1280:1 1655:1 1661:1 1729:1 1958:1 2011:1 2218:1 2991:1 3214:1 3218:1 3230:1 3298:1 3718:1 3751:1 3863:1 4218:1 4358:1 4478:1 4838:1 4868:1 4923:1 5023:1 5034:1 5087:1 5140:1 5186:1 5288:1 5440:1 5899:1 6410:1 6492:1 6671:1 6736:1 6855:1 6895:1 6987:1 7094:1 7251:1 7369:1 7415:1 7525:1 8449:1 8545:1 8626:1 8637:1 9069:1 9592:1 9920:1 10323:1 10458:1 11083:1 11246:1 11495:1 11518:1 12030:1 12208:1 12238:1 12375:1 12535:1 12708:1 12895:1 13096:1 13130:1 13386:1 13463:1 13480:1 13816:1 13817:1 14074:1 14129:1 14451:1 14475:1 14639:1 
1 1:1 346:1 612:1 1004:1 2200:1 2412:1 2431:1 3083:1 4362:1 4641:1 5150:1 5528:1 6524:1 6853:1 7874:1 9277:1 9473:1 9594:1 9626:1 9827:1 12406:1 12893:1 13104:1 13130:1 13152:1 14788:1 
1 1:1 631:1 1874:1 2660:1 2977:1 4046:1 4362:1 4923:1 5045:1 6583:1 7369:1 7847:1 7966:1 8127:1 8638:1 8649:1 10491:1 10716:1 12143:1 12212:1 12274:1 12364:1 12997:1 14451:1 14568:1 14713:1 
1 1:1 959:1 2756:1 2768:1 3454:1 4362:1 7264:1 10390:1 10513:1 11092:1 12062:1 12343:1 13130:1 14129:1 14451:1 
1 1:1 1282:1 1346:1 2011:1 2225:1 2412:1 2831:1 3564:1 3870:1 3954:1 5610:1 5740:1 6326:1 7094:1 7582:1 8647:1 8649:1 8888:1 9415:1 9531:1 9827:1 10103:1 10773:1 11030:1 11048:1 11474:1 11666:1 11678:1 12044:1 12752:1 13915:1 
1 1:1 1282:1 1346:1 2011:1 2225:1 2412:1 2831:1 3564:1 3870:1 3954:1 5610:1 5740:1 6326:1 7094:1 7582:1 8647:1 8649:1 8888:1 9415:1 9531:1 9827:1 10103:1 10773:1 11030:1 11048:1 11474:1 11666:1 11678:1 12044:1 12752:1 13915:1 
1 1:1 448:1 952:1 1358:1 1443:1 1641:1 2330:1 2518:1 2735:1 2991:1 4362:1 4599:1 5262:1 5815:1 6920:1 7088:1 7525:1 8216:1 8258:1 8556:1 8821:1 8888:1 9415:1 9909:1 10318:1 10391:1 10411:1 10977:1 11401:1 11534:1 11731:1 11917:1 12086:1 13532:1 13855:1 14538:1 14746:1 
1 1:1 187:1 341:1 928:1 1130:1 1285:1 2056:1 2192:1 2298:1 2756:1 2942:1 4362:1 4856:1 5652:1 5827:1 5975:1 6214:1 6583:1 7448:1 7527:1 7852:1 8032:1 8100:1 8649:1 8687:1 8749:1 9419:1 9522:1 9615:1 10053:1 11569:1 11780:1 11999:1 12532:1 13145:1 13395:1 
1 1:1 493:1 578:1 849:1 977:1 985:1 2092:1 2131:1 2156:1 2850:1 4362:1 4478:1 4795:1 4824:1 5262:1 5441:1 6920:1 7469:1 8053:1 8363:1 8649:1 9026:1 9137:1 9297:1 9312:1 9413:1 9827:1 9898:1 10164:1 10318:1 10390:1 10437:1 10806:1 11099:1 11401:1 11439:1 11471:1 11474:1 11731:1 12044:1 12212:1 12343:1 12408:1 12682:1 12708:1 12744:1 12997:1 13106:1 13130:1 13282:1 13441:1 13914:1 14072:1 14451:1 14566:1 
1 1:1 67:1 154:1 326:1 421:1 478:1 547:1 560:1 609:1 625:1 824:1 839:1 994:1 1033:1 1242:1 1280:1 1552:1 1887:1 2011:1 2084:1 2130:1 2131:1 2161:1 2173:1 2257:1 2494:1 2516:1 2518:1 2768:1 2963:1 2986:1 3274:1 3328:1 3435:1 3454:1 3589:1 3672:1 3709:1 3807:1 3914:1 3984:1 4067:1 4285:1 4478:1 4536:1 4795:1 4892:1 4979:1 5025:1 5114:1 5302:1 5427:1 5472:1 5923:1 6001:1 6181:1 6225:1 6356:1 6410:1 6503:1 6683:1 6830:1 7168:1 7191:1 7405:1 7514:1 7652:1 7685:1 7848:1 7855:1 7963:1 8078:1 8110:1 8151:1 8208:1 8395:1 8462:1 8474:1 8495:1 8527:1 8649:1 9050:1 9094:1 9121:1 9134:1 9459:1 9688:1 9805:1 9913:1 9920:1 10164:1 10183:1 10390:1 10391:1 10513:1 10808:1 10832:1 10965:1 11035:1 11073:1 11181:1 11333:1 11474:1 11603:1 11736:1 11932:1 11937:1 11980:1 12046:1 12155:1 12212:1 12334:1 12343:1 12495:1 12535:1 12536:1 12761:1 12782:1 12987:1 12999:1 13165:1 13241:1 13635:1 13657:1 13663:1 13696:1 13750:1 14129:1 14330:1 14597:1 14755:1 14766:1 14869:1 
1 1:1 13:1 242:1 298:1 612:1 759:1 1036:1 1280:1 1775:1 1938:1 2150:1 2257:1 2421:1 2760:1 3954:1 4622:1 4639:1 4783:1 4817:1 4879:1 5023:1 5058:1 5150:1 5179:1 5472:1 5524:1 5637:1 5863:1 6215:1 6391:1 6410:1 6846:1 7180:1 7251:1 7279:1 7527:1 7690:1 7723:1 7783:1 7852:1 7941:1 7966:1 8053:1 8100:1 8127:1 8545:1 8692:1 8734:1 8858:1 9473:1 9594:1 9716:1 9843:1 10100:1 10818:1 11181:1 11776:1 11954:1 12044:1 12121:1 12212:1 12592:1 12703:1 12784:1 12808:1 12823:1 13130:1 13340:1 13654:1 14261:1 14451:1 14677:1 14779:1 14859:1 
1 1:1 578:1 763:1 849:1 915:1 1280:1 1655:1 1810:1 1931:1 2355:1 2949:1 3954:1 4024:1 4074:1 4362:1 4572:1 4622:1 4786:1 5091:1 5576:1 8590:1 8964:1 9286:1 9498:1 9892:1 10480:1 10976:1 12030:1 12268:1 12708:1 13597:1 14503:1 
1 1:1 67:1 154:1 326:1 421:1 478:1 547:1 560:1 609:1 625:1 824:1 839:1 994:1 1033:1 1242:1 1280:1 1552:1 1887:1 2011:1 2084:1 2130:1 2131:1 2161:1 2173:1 2257:1 2494:1 2516:1 2518:1 2768:1 2963:1 2986:1 3274:1 3328:1 3435:1 3454:1 3589:1 3672:1 3709:1 3807:1 3914:1 3984:1 4067:1 4285:1 4478:1 4536:1 4795:1 4979:1 5025:1 5114:1 5302:1 5427:1 5472:1 5923:1 6001:1 6181:1 6225:1 6356:1 6410:1 6503:1 6683:1 6830:1 7168:1 7191:1 7405:1 7514:1 7652:1 7685:1 7848:1 7855:1 7963:1 8078:1 8110:1 8151:1 8208:1 8395:1 8462:1 8474:1 8495:1 8527:1 8649:1 9050:1 9094:1 9121:1 9134:1 9459:1 9688:1 9805:1 9913:1 9920:1 10164:1 10183:1 10390:1 10391:1 10513:1 10808:1 10832:1 10965:1 11035:1 11073:1 11181:1 11333:1 11474:1 11603:1 11736:1 11932:1 11937:1 11980:1 12046:1 12155:1 12212:1 12334:1 12343:1 12495:1 12535:1 12536:1 12761:1 12782:1 12987:1 12999:1 13165:1 13241:1 13635:1 13657:1 13663:1 13696:1 13750:1 14129:1 14330:1 14597:1 14755:1 14766:1 14869:1 
1 1:1 426:1 436:1 679:1 732:1 992:1 1074:1 1118:1 1354:1 1358:1 1958:1 2131:1 2421:1 2503:1 2768:1 2959:1 3284:1 3454:1 3976:1 4006:1 4035:1 4474:1 4478:1 4764:1 4795:1 4912:1 5001:1 5031:1 5604:1 5637:1 5821:1 5825:1 5873:1 6801:1 6987:1 7168:1 7527:1 7760:1 7852:1 7963:1 8127:1 8499:1 8587:1 8675:1 8824:1 8987:1 9050:1 9262:1 9312:1 9407:1 9594:1 9884:1 10390:1 10391:1 10677:1 10832:1 10876:1 11092:1 11112:1 11380:1 11533:1 11750:1 11777:1 11993:1 12343:1 12408:1 12484:1 12703:1 12710:1 12784:1 12997:1 13165:1 13349:1 13697:1 13815:1 14129:1 14354:1 14571:1 14713:1 14808:1 14868:1 14886:1 
1 1:1 131:1 847:1 849:1 1358:1 1852:1 1938:1 2009:1 2431:1 2452:1 2756:1 2770:1 2870:1 3042:1 3348:1 3435:1 3540:1 4047:1 4416:1 4697:1 4838:1 4923:1 5169:1 5505:1 5869:1 6226:1 6583:1 7026:1 7407:1 7894:1 8037:1 8649:1 8815:1 9050:1 9792:1 9827:1 10124:1 11078:1 11214:1 11724:1 12274:1 12343:1 12509:1 12743:1 12766:1 13047:1 13130:1 13548:1 14451:1 14809:1 
1 1:1 267:1 759:1 1004:1 1147:1 1280:1 1324:1 1871:1 1958:1 2011:1 2092:1 2421:1 2431:1 3041:1 3689:1 4362:1 4392:1 4936:1 5011:1 5169:1 5441:1 5482:1 6059:1 6583:1 6620:1 6676:1 7196:1 7524:1 7894:1 8398:1 9267:1 9393:1 9827:1 10050:1 10318:1 11031:1 11067:1 11078:1 11966:1 12268:1 12408:1 13653:1 14032:1 14129:1 14130:1 14698:1 14778:1 
1 1:1 131:1 847:1 849:1 1358:1 1852:1 1938:1 2009:1 2431:1 2452:1 2756:1 2770:1 2870:1 3042:1 3348:1 3435:1 3540:1 4047:1 4416:1 4697:1 4838:1 4923:1 5169:1 5505:1 5869:1 6226:1 6583:1 7026:1 7407:1 7894:1 8037:1 8649:1 8815:1 9050:1 9792:1 9827:1 10124:1 11078:1 11214:1 11724:1 12274:1 12343:1 12509:1 12743:1 12766:1 13047:1 13130:1 13548:1 14451:1 14809:1 
1 1:1 2768:1 3454:1 10390:1 12343:1 
1 1:1 883:1 1136:1 1871:1 1942:1 2855:1 3083:1 3689:1 4786:1 4879:1 5150:1 6583:1 6756:1 7514:1 7524:1 9277:1 9473:1 9620:1 9792:1 9814:1 9827:1 11275:1 12013:1 12044:1 13104:1 14793:1 
1 1:1 368:1 547:1 1324:1 1569:1 2318:1 2924:1 3102:1 3218:1 4625:1 5023:1 5058:1 5150:1 5524:1 5815:1 5977:1 6278:1 6576:1 6920:1 7019:1 7279:1 7524:1 7554:1 7625:1 8512:1 9158:1 9277:1 9792:1 9893:1 10480:1 11659:1 12183:1 12268:1 12838:1 13152:1 14229:1 14451:1 
1 1:1 2412:1 2756:1 2924:1 2940:1 4672:1 5740:1 6250:1 7527:1 7638:1 9827:1 
1 1:1 1140:1 1808:1 2924:1 3564:1 4362:1 5322:1 6219:1 6581:1 7456:1 7779:1 8006:1 8418:1 9477:1 
1 1:1 157:1 162:1 212:1 320:1 368:1 480:1 692:1 742:1 824:1 839:1 852:1 952:1 1091:1 1106:1 1130:1 1134:1 1242:1 1448:1 1719:1 1744:1 1918:1 1925:1 1959:1 1985:1 2235:1 2237:1 2318:1 2542:1 2560:1 2768:1 2849:1 2870:1 3021:1 3435:1 3440:1 3446:1 3537:1 3705:1 3743:1 3841:1 3855:1 3857:1 4285:1 4292:1 4362:1 4478:1 4795:1 4914:1 5010:1 5012:1 5017:1 5025:1 5050:1 5091:1 5140:1 5159:1 5201:1 5265:1 5328:1 5351:1 5512:1 5611:1 5711:1 5713:1 5740:1 5778:1 6031:1 6065:1 6178:1 6224:1 6262:1 6471:1 6597:1 6768:1 7068:1 7492:1 7505:1 7525:1 7586:1 7625:1 7951:1 8007:1 8009:1 8091:1 8513:1 8523:1 8639:1 8649:1 8705:1 8743:1 8807:1 8812:1 8968:1 9116:1 9345:1 9428:1 9520:1 9525:1 9654:1 9854:1 9880:1 10323:1 10340:1 10480:1 10482:1 10568:1 10569:1 10657:1 10874:1 11002:1 11251:1 11292:1 11304:1 11593:1 11983:1 12000:1 12006:1 12014:1 12126:1 12296:1 12343:1 12363:1 12472:1 12551:1 12558:1 12900:1 12999:1 13172:1 13174:1 13326:1 13495:1 13787:1 13855:1 13864:1 14030:1 14080:1 14337:1 14370:1 
1 1:1 157:1 162:1 212:1 320:1 368:1 480:1 692:1 742:1 824:1 839:1 852:1 952:1 1091:1 1106:1 1130:1 1134:1 1242:1 1448:1 1719:1 1744:1 1918:1 1925:1 1959:1 1985:1 2235:1 2237:1 2318:1 2542:1 2560:1 2768:1 2849:1 2870:1 3021:1 3435:1 3446:1 3537:1 3705:1 3743:1 3841:1 3855:1 3857:1 4285:1 4292:1 4362:1 4478:1 4795:1 4914:1 5010:1 5012:1 5017:1 5025:1 5050:1 5091:1 5140:1 5159:1 5201:1 5265:1 5328:1 5351:1 5512:1 5611:1 5711:1 5713:1 5740:1 5778:1 6031:1 6065:1 6178:1 6224:1 6262:1 6471:1 6597:1 6768:1 7068:1 7492:1 7505:1 7525:1 7586:1 7625:1 7951:1 8007:1 8009:1 8091:1 8513:1 8523:1 8639:1 8649:1 8705:1 8743:1 8807:1 8812:1 8968:1 9116:1 9345:1 9428:1 9520:1 9525:1 9654:1 9854:1 9880:1 10323:1 10340:1 10480:1 10482:1 10568:1 10569:1 10657:1 10874:1 11002:1 11251:1 11292:1 11304:1 11593:1 11983:1 12000:1 12006:1 12014:1 12126:1 12296:1 12343:1 12363:1 12472:1 12551:1 12558:1 12900:1 12999:1 13172:1 13174:1 13326:1 13495:1 13787:1 13855:1 13864:1 13914:1 14080:1 14337:1 14370:1 
1 1:1 
1 1:1 
1 1:1 2924:1 3564:1 4362:1 5322:1 6475:1 8006:1 11758:1 
1 1:1 2870:1 4362:1 5091:1 8649:1 10323:1 12201:1 
1 1:1 189:1 942:1 1816:1 1938:1 2011:1 3779:1 5150:1 5338:1 5472:1 7087:1 7251:1 7514:1 7554:1 7832:1 9011:1 10050:1 12183:1 12680:1 13130:1 13152:1 
1 1:1 
1 1:1 612:1 1324:1 2054:1 2760:1 2837:1 2924:1 4047:1 4362:1 5023:1 5062:1 6284:1 7554:1 7685:1 7894:1 8341:1 9050:1 9316:1 9531:1 11298:1 11534:1 12044:1 12620:1 12930:1 13005:1 13548:1 14129:1 14180:1 
1 1:1 368:1 621:1 1004:1 1033:1 1902:1 1958:1 2330:1 2959:1 3230:1 5472:1 5518:1 5710:1 7396:1 8512:1 8888:1 8987:1 9108:1 9613:1 9658:1 9827:1 9893:1 9898:1 10513:1 10976:1 11112:1 11275:1 12044:1 12930:1 13104:1 13123:1 13130:1 13286:1 13494:1 
1 1:1 158:1 759:1 915:1 2200:1 3196:1 3689:1 4323:1 4362:1 4922:1 5398:1 5610:1 6049:1 6137:1 6524:1 6583:1 6691:1 6846:1 7279:1 7690:1 7832:1 8037:1 8179:1 8208:1 8587:1 8729:1 8734:1 9473:1 9792:1 9805:1 9827:1 10976:1 11187:1 12579:1 13104:1 13152:1 13490:1 14597:1 
1 1:1 224:1 763:1 977:1 2034:1 2167:1 2431:1 2564:1 2773:1 2907:1 2914:1 3428:1 4362:1 4468:1 4655:1 5063:1 5186:1 5405:1 5815:1 6059:1 6202:1 6268:1 6275:1 6736:1 6830:1 6855:1 7119:1 7133:1 7196:1 7256:1 7264:1 7630:1 7825:1 7934:1 8651:1 8734:1 9110:1 9325:1 9711:1 10411:1 10469:1 10765:1 10992:1 11474:1 11859:1 12839:1 12934:1 13106:1 13379:1 13402:1 13669:1 
1 1:1 1121:1 1334:1 1552:1 1971:1 2717:1 2870:1 3053:1 3230:1 3902:1 4006:1 4179:1 4362:1 5055:1 5388:1 7049:1 7196:1 7362:1 7894:1 8107:1 8512:1 8595:1 8649:1 8812:1 8888:1 9271:1 9354:1 9594:1 9613:1 9912:1 10353:1 10778:1 11092:1 12183:1 12263:1 12343:1 12438:1 12528:1 12620:1 13130:1 14451:1 14555:1 14808:1 
1 1:1 
1 1:1 436:1 473:1 578:1 612:1 621:1 824:1 985:1 1004:1 1022:1 1255:1 1280:1 1285:1 1499:1 1556:1 1942:1 2011:1 2040:1 2298:1 2318:1 2503:1 2760:1 2902:1 3444:1 4323:1 4362:1 4478:1 4536:1 4740:1 4795:1 5114:1 5396:1 5472:1 5702:1 5710:1 5815:1 6016:1 6185:1 6258:1 6268:1 6503:1 6801:1 6830:1 6920:1 7178:1 7191:1 7582:1 7685:1 7755:1 7855:1 8068:1 8395:1 8474:1 8486:1 8612:1 8649:1 8743:1 9067:1 9305:1 9533:1 9571:1 9617:1 9805:1 10272:1 10316:1 10391:1 10464:1 10705:1 10792:1 11193:1 11214:1 11325:1 11387:1 11465:1 11750:1 12406:1 12656:1 12746:1 12856:1 13066:1 13545:1 13697:1 13809:1 14568:1 14597:1 14713:1 14869:1 
1 1:1 176:1 959:1 2756:1 4362:1 7264:1 10513:1 11092:1 12062:1 13130:1 14129:1 14451:1 
1 1:1 98:1 612:1 849:1 879:1 1197:1 1324:1 1741:1 2924:1 5045:1 5177:1 5401:1 5838:1 6583:1 7264:1 7514:1 7525:1 7630:1 7852:1 7899:1 8818:1 10322:1 10976:1 11156:1 11717:1 12838:1 13000:1 13117:1 13379:1 13402:1 
1 1:1 60:1 117:1 374:1 542:1 644:1 881:1 2225:1 2494:1 2756:1 3448:1 3718:1 4024:1 4121:1 4362:1 4455:1 5463:1 6481:1 7209:1 7525:1 7658:1 9271:1 10681:1 10976:1 11187:1 12334:1 12772:1 13130:1 14538:1 14713:1 14829:1 
1 1:1 883:1 1136:1 1871:1 1942:1 2855:1 3083:1 3689:1 4786:1 4879:1 5150:1 6583:1 6756:1 7514:1 7524:1 9277:1 9473:1 9620:1 9792:1 9814:1 9827:1 11275:1 12013:1 12044:1 13104:1 14793:1 
1 1:1 255:1 298:1 368:1 529:1 570:1 849:1 915:1 985:1 987:1 1147:1 1173:1 1358:1 1552:1 1569:1 2756:1 3042:1 3984:1 4095:1 4641:1 5003:1 5058:1 5062:1 5150:1 5528:1 5694:1 5977:1 6049:1 7554:1 8031:1 8037:1 8179:1 9045:1 9326:1 9827:1 9854:1 10681:1 10694:1 11431:1 11437:1 11474:1 12084:1 12111:1 12157:1 12274:1 12343:1 12680:1 12838:1 13106:1 13152:1 14078:1 14180:1 14297:1 14703:1 
1 1:1 187:1 2756:1 2760:1 3689:1 4362:1 5472:1 5740:1 7279:1 7495:1 8651:1 8888:1 9827:1 12044:1 14713:1 
1 1:1 
1 1:1 1324:1 2870:1 4362:1 7894:1 9827:1 10681:1 12044:1 14451:1 
1 1:1 187:1 1280:1 1324:1 1730:1 2200:1 2218:1 2421:1 2518:1 2695:1 2760:1 2768:1 2949:1 3454:1 3697:1 4121:1 4892:1 4906:1 5169:1 5610:1 5962:1 6315:1 6473:1 6853:1 7514:1 7525:1 7874:1 7894:1 8226:1 8283:1 8584:1 8589:1 8832:1 8868:1 9312:1 9427:1 9581:1 9827:1 9892:1 10342:1 10390:1 10528:1 10777:1 11659:1 12343:1 12579:1 12641:1 12800:1 12893:1 13298:1 14713:1 14784:1 
1 1:1 497:1 619:1 834:1 1126:1 1236:1 2298:1 2494:1 4362:1 5041:1 5045:1 5095:1 5604:1 5969:1 6410:1 6583:1 6895:1 6920:1 7178:1 7525:1 7725:1 9805:1 9818:1 9827:1 10087:1 10513:1 10647:1 11083:1 11778:1 13130:1 13493:1 
1 1:1 759:1 945:1 1358:1 1552:1 1971:1 3230:1 4006:1 4362:1 5545:1 6383:1 6920:1 7196:1 7524:1 7685:1 7894:1 8100:1 8107:1 8512:1 8729:1 9594:1 9613:1 9912:1 11092:1 11492:1 12528:1 12620:1 13130:1 14451:1 
1 1:1 612:1 849:1 915:1 1004:1 2431:1 2837:1 3531:1 4625:1 5023:1 5528:1 5610:1 5732:1 7320:1 8512:1 8648:1 8732:1 9050:1 9613:1 9626:1 9827:1 9898:1 10103:1 10480:1 12044:1 12174:1 12406:1 12766:1 13104:1 13130:1 13152:1 13494:1 14788:1 
1 1:1 187:1 1280:1 1324:1 1730:1 2200:1 2218:1 2421:1 2518:1 2695:1 2760:1 2768:1 2949:1 3454:1 3697:1 4121:1 4906:1 5169:1 5610:1 5962:1 6315:1 6473:1 6853:1 7514:1 7525:1 7874:1 7894:1 8226:1 8283:1 8584:1 8589:1 8832:1 8868:1 9312:1 9427:1 9581:1 9827:1 9892:1 10342:1 10390:1 10528:1 10777:1 11659:1 12343:1 12579:1 12641:1 12800:1 12893:1 13298:1 14713:1 14784:1 
1 1:1 1282:1 1346:1 2011:1 2225:1 2412:1 2831:1 3564:1 3870:1 3954:1 5610:1 5740:1 6326:1 7094:1 7582:1 8647:1 8649:1 8888:1 9415:1 9531:1 9827:1 10103:1 10773:1 11030:1 11048:1 11474:1 11666:1 11678:1 12044:1 12752:1 13915:1 
1 1:1 578:1 915:1 942:1 1729:1 1816:1 2011:1 2431:1 2458:1 2949:1 3607:1 3779:1 4362:1 4899:1 4960:1 5338:1 5472:1 5715:1 5740:1 7554:1 7620:1 7638:1 7832:1 8752:1 9581:1 10319:1 11518:1 12680:1 13152:1 13802:1 
1 1:1 1130:1 1140:1 1666:1 2676:1 2756:1 3304:1 3877:1 4288:1 4362:1 5022:1 5169:1 6522:1 8955:1 10481:1 12087:1 13092:1 13507:1 13701:1 13706:1 
1 1:1 374:1 849:1 963:1 2257:1 2421:1 2431:1 2768:1 3454:1 5732:1 6691:1 6789:1 7582:1 7894:1 7966:1 8324:1 9792:1 9827:1 10091:1 10390:1 10429:1 11092:1 11228:1 12212:1 12343:1 12535:1 12844:1 13130:1 13490:1 14451:1 
1 1:1 2870:1 5091:1 7525:1 8649:1 10323:1 11087:1 14863:1 
1 1:1 2870:1 5091:1 7525:1 8649:1 10323:1 12201:1 14863:1 
1 1:1 2870:1 5091:1 7525:1 8649:1 10323:1 13914:1 14863:1 
1 1:1 399:1 3564:1 4362:1 7525:1 7934:1 8649:1 14206:1 
1 1:1 399:1 3564:1 4362:1 7525:1 7934:1 8649:1 14206:1 
1 1:1 399:1 3564:1 4362:1 7525:1 7934:1 8649:1 14206:1 
1 1:1 1130:1 1140:1 1666:1 2676:1 2756:1 3304:1 3877:1 4288:1 4362:1 5022:1 5169:1 6522:1 8955:1 10481:1 12087:1 13092:1 13507:1 13701:1 13706:1 
1 1:1 197:1 547:1 759:1 849:1 977:1 1119:1 1280:1 1641:1 1736:1 1958:1 1973:1 2431:1 2568:1 2682:1 2760:1 2770:1 3435:1 3448:1 3650:1 3936:1 4010:1 4133:1 4720:1 4855:1 4916:1 5169:1 5693:1 5815:1 5899:1 6651:1 7168:1 7265:1 7419:1 7524:1 7894:1 7966:1 8227:1 8324:1 8512:1 8545:1 8888:1 9026:1 9502:1 9533:1 9827:1 10087:1 10479:1 10513:1 11459:1 11495:1 11641:1 11958:1 11983:1 12212:1 12373:1 12795:1 12983:1 13056:1 13123:1 13130:1 13708:1 13855:1 13880:1 14105:1 14125:1 14130:1 14451:1 
1 1:1 959:1 2756:1 2768:1 3454:1 4362:1 7264:1 10390:1 10513:1 11092:1 12062:1 12343:1 13130:1 14129:1 14451:1 
1 1:1 372:1 547:1 849:1 1004:1 1074:1 2431:1 3557:1 3689:1 4362:1 4846:1 5011:1 5034:1 6059:1 6691:1 6930:1 7112:1 7524:1 9267:1 9393:1 10060:1 11029:1 11518:1 11776:1 11783:1 12174:1 12408:1 12913:1 13653:1 14191:1 14261:1 14778:1 
1 1:1 1743:1 2924:1 3564:1 4362:1 5012:1 5322:1 7779:1 8006:1 
1 1:1 187:1 399:1 535:1 849:1 1324:1 1358:1 2011:1 2452:1 3028:1 3501:1 4024:1 4044:1 4362:1 4421:1 4648:1 4987:1 5062:1 5472:1 6226:1 6425:1 6853:1 6869:1 6920:1 6930:1 6987:1 7049:1 7135:1 7966:1 8127:1 8589:1 8649:1 8816:1 8912:1 9020:1 9045:1 9164:1 9312:1 9892:1 10164:1 10858:1 10976:1 11275:1 11465:1 12174:1 12212:1 12334:1 12343:1 12997:1 13644:1 14451:1 14836:1 
1 1:1 184:1 298:1 578:1 1661:1 1942:1 1985:1 2518:1 2837:1 2870:1 3230:1 4362:1 4817:1 4922:1 5426:1 5740:1 5760:1 6268:1 6325:1 6357:1 6844:1 7112:1 7161:1 7389:1 7483:1 7524:1 7735:1 8512:1 8963:1 9026:1 9297:1 9500:1 9524:1 9789:1 9792:1 10198:1 10429:1 10681:1 10925:1 10976:1 11181:1 11275:1 11657:1 11666:1 14080:1 14129:1 14192:1 
1 1:1 384:1 578:1 612:1 759:1 763:1 952:1 1280:1 1324:1 1358:1 2370:1 2449:1 2870:1 2924:1 3196:1 3564:1 4817:1 5150:1 5179:1 5740:1 7525:1 7536:1 7894:1 7990:1 8127:1 9050:1 9816:1 10668:1 10976:1 11275:1 11474:1 12044:1 12157:1 12251:1 12667:1 12800:1 14033:1 14713:1 
1 1:1 1121:1 1552:1 1971:1 2717:1 2870:1 3053:1 3230:1 3902:1 4006:1 4362:1 5055:1 5388:1 7049:1 7196:1 7362:1 7894:1 8107:1 8512:1 8595:1 8649:1 8812:1 8888:1 9271:1 9354:1 9594:1 9613:1 9912:1 10353:1 10778:1 11092:1 12183:1 12263:1 12343:1 12438:1 12528:1 12620:1 13130:1 14451:1 14555:1 14808:1 
1 1:1 199:1 421:1 603:1 612:1 1128:1 1280:1 1285:1 2311:1 2410:1 2949:1 4362:1 4421:1 4622:1 4639:1 5179:1 5644:1 6034:1 6226:1 6250:1 7582:1 7832:1 7966:1 8100:1 8616:1 8649:1 9268:1 11292:1 11513:1 12703:1 14096:1 
1 1:1 199:1 421:1 603:1 612:1 1128:1 1280:1 1285:1 2311:1 2410:1 2949:1 4362:1 4421:1 4622:1 4639:1 5179:1 5644:1 6034:1 6226:1 6250:1 7582:1 7832:1 7966:1 8100:1 8616:1 8649:1 9268:1 11292:1 11513:1 12703:1 14096:1 
1 1:1 199:1 421:1 603:1 612:1 1128:1 1280:1 1285:1 2311:1 2410:1 2949:1 4362:1 4421:1 4622:1 4639:1 5179:1 5644:1 6034:1 6226:1 6250:1 7582:1 7832:1 7966:1 8100:1 8616:1 8649:1 9268:1 11292:1 11513:1 12703:1 14096:1 
1 1:1 199:1 421:1 603:1 612:1 1128:1 1280:1 1285:1 2311:1 2410:1 2949:1 4362:1 4421:1 4622:1 4639:1 5179:1 5644:1 6034:1 6226:1 6250:1 7582:1 7832:1 7966:1 8100:1 8616:1 8649:1 9268:1 11292:1 11513:1 12703:1 14096:1 
1 1:1 60:1 421:1 760:1 1274:1 1366:1 1386:1 2482:1 2694:1 2731:1 2760:1 3551:1 4377:1 5023:1 5114:1 5169:1 5432:1 5543:1 5928:1 7112:1 7258:1 7524:1 7525:1 7586:1 7639:1 7894:1 7966:1 8039:1 8179:1 8258:1 8545:1 9805:1 9893:1 10087:1 10103:1 11350:1 11481:1 11737:1 11913:1 11966:1 12212:1 12579:1 12630:1 13025:1 13551:1 13770:1 14032:1 
1 1:1 199:1 421:1 603:1 612:1 1128:1 1280:1 1285:1 2311:1 2410:1 2949:1 4362:1 4421:1 4622:1 4639:1 5179:1 5644:1 6034:1 6226:1 6250:1 7582:1 7832:1 7966:1 8100:1 8616:1 8649:1 9268:1 11292:1 11513:1 12703:1 14096:1 
1 1:1 199:1 421:1 603:1 612:1 1128:1 1280:1 1285:1 2311:1 2410:1 2949:1 4362:1 4421:1 4622:1 4639:1 5179:1 5644:1 6034:1 6226:1 6250:1 7582:1 7832:1 7966:1 8100:1 8616:1 8649:1 9268:1 11292:1 11513:1 12703:1 14096:1 
1 1:1 2451:1 2924:1 3345:1 4362:1 4397:1 5104:1 7525:1 7966:1 8197:1 8732:1 9827:1 12044:1 13130:1 13452:1 
1 1:1 168:1 1292:1 1324:1 1644:1 2092:1 2105:1 2518:1 2756:1 3037:1 3765:1 3902:1 4904:1 4949:1 5255:1 6315:1 6524:1 6540:1 6549:1 6619:1 7525:1 7966:1 8034:1 8037:1 8590:1 8934:1 9164:1 10925:1 11025:1 11474:1 11926:1 12772:1 13494:1 13973:1 14129:1 14836:1 
1 1:1 98:1 612:1 849:1 879:1 1197:1 1324:1 1741:1 2924:1 3434:1 3564:1 5045:1 5177:1 5401:1 5838:1 6583:1 7264:1 7514:1 7525:1 7630:1 7852:1 7899:1 8818:1 10322:1 10976:1 11156:1 11717:1 12838:1 13000:1 13117:1 13379:1 13402:1 
1 1:1 199:1 421:1 603:1 612:1 1128:1 1280:1 1285:1 2311:1 2410:1 2949:1 4362:1 4421:1 4622:1 4639:1 5179:1 5644:1 6034:1 6226:1 6250:1 7582:1 7832:1 7966:1 8100:1 8616:1 8649:1 9268:1 11292:1 11513:1 12703:1 14096:1 
1 1:1 223:1 368:1 776:1 849:1 915:1 1121:1 1280:1 1358:1 1788:1 2030:1 2046:1 2300:1 2518:1 2522:1 2710:1 2717:1 2756:1 2870:1 3902:1 4455:1 4836:1 5055:1 5388:1 5740:1 5928:1 6131:1 6376:1 6583:1 6789:1 6855:1 7049:1 7168:1 7362:1 7399:1 7894:1 7943:1 8161:1 8358:1 8371:1 8587:1 8595:1 8649:1 8812:1 8815:1 9271:1 9354:1 9481:1 9594:1 9827:1 10034:1 10346:1 10353:1 10681:1 10778:1 11092:1 11426:1 12044:1 12183:1 12263:1 12343:1 13013:1 13104:1 13106:1 13130:1 13695:1 13711:1 14555:1 14772:1 14808:1 
1 1:1 4362:1 
1 1:1 98:1 612:1 849:1 879:1 1197:1 1324:1 1741:1 2924:1 3434:1 3564:1 5045:1 5177:1 5401:1 5838:1 6583:1 7264:1 7514:1 7525:1 7630:1 7852:1 7899:1 8818:1 10322:1 10976:1 11156:1 11717:1 12838:1 13000:1 13117:1 13379:1 13402:1 
1 1:1 187:1 2156:1 3253:1 4362:1 8598:1 10976:1 12041:1 12212:1 
1 1:1 558:1 1280:1 2924:1 4165:1 4362:1 5169:1 7202:1 7498:1 9548:1 10050:1 12578:1 13112:1 13402:1 
1 1:1 184:1 298:1 578:1 1661:1 1942:1 1985:1 2518:1 2837:1 2870:1 3230:1 4362:1 4817:1 4922:1 5426:1 5740:1 5760:1 6268:1 6325:1 6357:1 6844:1 7112:1 7161:1 7389:1 7483:1 7524:1 7735:1 8512:1 8963:1 9026:1 9297:1 9500:1 9524:1 9789:1 9792:1 10198:1 10429:1 10681:1 10925:1 10976:1 11181:1 11275:1 11657:1 11666:1 14080:1 14129:1 14192:1 
1 1:1 223:1 368:1 776:1 849:1 915:1 1121:1 1280:1 1358:1 1788:1 2030:1 2046:1 2300:1 2518:1 2522:1 2710:1 2717:1 2756:1 2870:1 3902:1 4455:1 4836:1 5055:1 5388:1 5740:1 5928:1 6131:1 6376:1 6583:1 6789:1 6855:1 7049:1 7168:1 7362:1 7399:1 7894:1 7943:1 8161:1 8358:1 8371:1 8587:1 8595:1 8649:1 8812:1 8815:1 9271:1 9354:1 9481:1 9594:1 9827:1 10034:1 10346:1 10353:1 10681:1 10778:1 11092:1 11426:1 12044:1 12183:1 12263:1 12343:1 13013:1 13104:1 13106:1 13130:1 13695:1 13711:1 14555:1 14772:1 14808:1 
1 1:1 131:1 187:1 374:1 547:1 763:1 1147:1 1563:1 1715:1 1803:1 2011:1 2294:1 2412:1 2510:1 2554:1 2770:1 2962:1 3014:1 3298:1 3435:1 4024:1 4478:1 4622:1 4923:1 5008:1 5023:1 5095:1 5169:1 5203:1 5644:1 6376:1 6524:1 6920:1 7209:1 7459:1 7464:1 7524:1 7755:1 8060:1 8199:1 8324:1 8337:1 8566:1 8649:1 9312:1 9613:1 9892:1 10004:1 10401:1 10559:1 10647:1 11579:1 13532:1 13613:1 14451:1 14836:1 14885:1 
1 1:1 298:1 368:1 533:1 732:1 849:1 915:1 1004:1 1136:1 1925:1 2040:1 2150:1 2300:1 2318:1 2330:1 3083:1 3870:1 4362:1 4759:1 4879:1 5058:1 5169:1 5710:1 6049:1 6524:1 6640:1 6853:1 7196:1 7853:1 7965:1 8383:1 8549:1 9473:1 9594:1 9827:1 10480:1 11474:1 11750:1 12268:1 13056:1 13104:1 13120:1 13130:1 14793:1 14856:1 
1 1:1 240:1 542:1 1324:1 2046:1 2756:1 4362:1 4478:1 5150:1 5875:1 5985:1 6583:1 7894:1 8358:1 8587:1 8649:1 8651:1 8743:1 9827:1 10323:1 11697:1 11864:1 12044:1 12343:1 12592:1 13104:1 13130:1 14032:1 14451:1 
1 1:1 1121:1 1552:1 1971:1 2717:1 2870:1 3053:1 3230:1 3902:1 4006:1 4362:1 5055:1 5388:1 7049:1 7196:1 7362:1 7894:1 8107:1 8512:1 8595:1 8649:1 8812:1 8888:1 9271:1 9354:1 9594:1 9613:1 9912:1 10353:1 10778:1 11092:1 12183:1 12263:1 12343:1 12438:1 12528:1 12620:1 13130:1 14451:1 14555:1 14808:1 
1 1:1 198:1 372:1 1661:1 1729:1 1958:1 2541:1 2613:1 2724:1 2849:1 3882:1 4112:1 4362:1 4478:1 4536:1 4786:1 4834:1 5062:1 6676:1 7083:1 7257:1 7495:1 9312:1 9428:1 9656:1 10318:1 10391:1 10857:1 11112:1 12268:1 12532:1 13059:1 13914:1 14451:1 
1 1:1 223:1 2518:1 2768:1 3454:1 4362:1 4892:1 5045:1 6583:1 9414:1 10390:1 12343:1 
1 1:1 137:1 763:1 1324:1 2412:1 2756:1 2924:1 4024:1 4478:1 6540:1 8128:1 8512:1 9014:1 9827:1 10555:1 10788:1 11035:1 11573:1 13062:1 14451:1 
1 1:1 1033:1 1760:1 2756:1 4362:1 4879:1 5169:1 6284:1 7396:1 7874:1 8179:1 9473:1 9827:1 10513:1 10677:1 12680:1 13104:1 13152:1 14129:1 14793:1 
1 1:1 223:1 368:1 776:1 849:1 915:1 1121:1 1280:1 1358:1 1788:1 2030:1 2046:1 2300:1 2518:1 2522:1 2710:1 2717:1 2756:1 2870:1 3902:1 4455:1 4836:1 5055:1 5388:1 5740:1 5928:1 6131:1 6376:1 6583:1 6789:1 6855:1 7049:1 7168:1 7362:1 7399:1 7894:1 7943:1 8161:1 8358:1 8371:1 8587:1 8595:1 8649:1 8812:1 8815:1 9271:1 9354:1 9481:1 9594:1 9827:1 10034:1 10346:1 10353:1 10681:1 10778:1 11092:1 11426:1 12044:1 12183:1 12263:1 12343:1 13013:1 13104:1 13106:1 13130:1 13695:1 13711:1 14555:1 14772:1 14808:1 
1 1:1 578:1 915:1 942:1 1729:1 2011:1 2431:1 2458:1 2949:1 3607:1 3779:1 4960:1 5338:1 5472:1 5715:1 5740:1 7554:1 7620:1 7638:1 7832:1 8752:1 9581:1 10319:1 11518:1 12680:1 13152:1 13802:1 
1 1:1 98:1 612:1 849:1 879:1 1197:1 1324:1 1741:1 2924:1 5045:1 5177:1 5401:1 5838:1 6583:1 7264:1 7514:1 7525:1 7630:1 7852:1 7899:1 8818:1 10322:1 10976:1 11156:1 11717:1 12838:1 13000:1 13117:1 13379:1 13402:1 
1 1:1 2924:1 4362:1 4392:1 5944:1 7320:1 8812:1 10050:1 11311:1 12752:1 13915:1 14541:1 
1 1:1 612:1 849:1 915:1 1004:1 1760:1 2431:1 2837:1 3531:1 4362:1 4625:1 5023:1 5528:1 5610:1 5732:1 7320:1 8512:1 8648:1 8732:1 9050:1 9613:1 9626:1 9827:1 9898:1 10103:1 10480:1 12044:1 12174:1 12406:1 12766:1 13104:1 13130:1 13152:1 13494:1 14788:1 
1 1:1 223:1 2518:1 2768:1 3454:1 4362:1 4892:1 5045:1 6583:1 9414:1 10390:1 10513:1 12343:1 12808:1 
1 1:1 368:1 547:1 759:1 791:1 849:1 963:1 2011:1 2218:1 2300:1 2318:1 2431:1 2773:1 3277:1 5169:1 5387:1 5485:1 5815:1 6049:1 6471:1 6853:1 7112:1 7525:1 7725:1 7966:1 9312:1 9626:1 9792:1 9827:1 10323:1 10688:1 10788:1 10976:1 11092:1 11275:1 12212:1 12343:1 12532:1 12750:1 13402:1 13463:1 14451:1 14639:1 14678:1 
1 1:1 1136:1 1760:1 1871:1 1942:1 2855:1 3083:1 3689:1 4362:1 4786:1 4879:1 5150:1 6583:1 7514:1 7524:1 9277:1 9473:1 9620:1 9792:1 9805:1 9827:1 11275:1 12013:1 12044:1 13104:1 14793:1 
1 1:1 612:1 849:1 915:1 1004:1 1760:1 2431:1 2837:1 3531:1 4362:1 4625:1 5023:1 5528:1 5610:1 5732:1 7320:1 8512:1 8648:1 8732:1 9050:1 9613:1 9626:1 9827:1 9898:1 10103:1 10480:1 12044:1 12174:1 12406:1 12766:1 13104:1 13130:1 13152:1 13494:1 14788:1 
1 1:1 724:1 996:1 3112:1 4288:1 6862:1 7779:1 8418:1 8958:1 11946:1 12540:1 13877:1 
1 1:1 1004:1 2849:1 2987:1 4362:1 7639:1 12808:1 13104:1 14566:1 
1 1:1 80:1 187:1 349:1 421:1 448:1 578:1 651:1 824:1 1004:1 1060:1 1242:1 1354:1 1358:1 1548:1 1556:1 1668:1 1925:1 1942:1 1958:1 2011:1 2225:1 2300:1 2503:1 2829:1 2870:1 2977:1 3535:1 3664:1 4024:1 4056:1 4129:1 4478:1 4516:1 4536:1 4620:1 4624:1 4749:1 4954:1 5023:1 5114:1 5351:1 5441:1 5472:1 5604:1 5624:1 5637:1 5702:1 5710:1 5821:1 6019:1 6066:1 6268:1 6389:1 6830:1 6920:1 7191:1 7379:1 8395:1 8449:1 8734:1 8888:1 8987:1 9021:1 9164:1 9312:1 9415:1 9466:1 9498:1 9533:1 9571:1 9805:1 10068:1 10164:1 10272:1 10808:1 10951:1 10976:1 11298:1 11321:1 11453:1 11465:1 11471:1 11536:1 11980:1 12254:1 12343:1 12408:1 12472:1 12782:1 12969:1 12983:1 13067:1 13221:1 13476:1 13696:1 14037:1 14078:1 14150:1 14259:1 14330:1 14524:1 14533:1 14597:1 14682:1 14858:1 
1 1:1 80:1 187:1 349:1 421:1 448:1 578:1 651:1 824:1 1004:1 1060:1 1242:1 1354:1 1358:1 1548:1 1556:1 1668:1 1925:1 1942:1 1958:1 2011:1 2225:1 2300:1 2503:1 2829:1 2870:1 2977:1 3535:1 3664:1 4024:1 4056:1 4129:1 4478:1 4516:1 4536:1 4620:1 4624:1 4749:1 4954:1 5023:1 5114:1 5351:1 5441:1 5472:1 5604:1 5624:1 5637:1 5702:1 5710:1 5821:1 6019:1 6066:1 6268:1 6389:1 6830:1 6920:1 7191:1 7379:1 8395:1 8449:1 8734:1 8888:1 8987:1 9021:1 9164:1 9312:1 9415:1 9466:1 9498:1 9533:1 9571:1 9805:1 10068:1 10164:1 10272:1 10808:1 10951:1 10976:1 11298:1 11321:1 11453:1 11465:1 11471:1 11536:1 11980:1 12254:1 12343:1 12408:1 12472:1 12782:1 12969:1 12983:1 13067:1 13221:1 13476:1 13696:1 14037:1 14078:1 14150:1 14259:1 14330:1 14524:1 14533:1 14597:1 14682:1 14858:1 
1 1:1 915:1 1346:1 1629:1 2053:1 2412:1 2756:1 2924:1 3034:1 3042:1 4157:1 4626:1 5114:1 6576:1 9818:1 9827:1 10080:1 11196:1 11481:1 11715:1 14534:1 
1 1:1 915:1 1388:1 1942:1 2225:1 2294:1 2624:1 2870:1 3282:1 3564:1 3701:1 3894:1 4024:1 4362:1 4392:1 4846:1 5008:1 5472:1 5610:1 5869:1 6844:1 8074:1 8292:1 9026:1 9271:1 9805:1 10004:1 10513:1 11149:1 12039:1 12174:1 12611:1 12808:1 13093:1 13656:1 14129:1 
1 1:1 240:1 542:1 2846:1 3002:1 4362:1 5006:1 5150:1 5740:1 8687:1 11474:1 11697:1 11731:1 12099:1 14829:1 
1 1:1 298:1 303:1 368:1 374:1 547:1 622:1 763:1 800:1 893:1 1007:1 1033:1 1520:1 1729:1 1973:1 2011:1 2030:1 2317:1 2431:1 2518:1 2721:1 2985:1 3230:1 3501:1 3564:1 4112:1 4667:1 4846:1 4898:1 4935:1 4952:1 5023:1 5186:1 5203:1 5314:1 5472:1 5518:1 5573:1 5610:1 5691:1 5693:1 5740:1 5815:1 6047:1 6073:1 6410:1 6736:1 6855:1 6902:1 6936:1 7004:1 7196:1 7216:1 7582:1 7957:1 7966:1 8166:1 8179:1 8324:1 8512:1 8821:1 9312:1 9779:1 9805:1 10808:1 10925:1 11092:1 11112:1 11223:1 11294:1 12212:1 12268:1 12472:1 12535:1 12598:1 13056:1 13152:1 13644:1 13855:1 13891:1 14032:1 14451:1 14500:1 14538:1 14635:1 14836:1 
1 1:1 131:1 847:1 849:1 1358:1 1852:1 1938:1 2009:1 2431:1 2452:1 2756:1 2768:1 2770:1 2870:1 3042:1 3348:1 3435:1 3454:1 3540:1 4047:1 4416:1 4697:1 4838:1 4892:1 4923:1 5169:1 5505:1 5869:1 6226:1 6583:1 7026:1 7407:1 7894:1 8037:1 8649:1 8815:1 9050:1 9792:1 9827:1 10124:1 10390:1 11078:1 11214:1 11724:1 12274:1 12343:1 12509:1 12743:1 12766:1 13047:1 13130:1 13548:1 14451:1 14809:1 
1 1:1 2760:1 2768:1 3454:1 3765:1 4362:1 5715:1 7966:1 10390:1 11112:1 12343:1 
1 1:1 198:1 372:1 1661:1 1729:1 1958:1 2541:1 2613:1 2724:1 2849:1 3882:1 4112:1 4362:1 4478:1 4536:1 4786:1 4834:1 5062:1 6676:1 7083:1 7257:1 7495:1 9312:1 9428:1 9656:1 10318:1 10391:1 10857:1 11112:1 12268:1 12532:1 13059:1 13914:1 14451:1 
1 1:1 1074:1 1656:1 1978:1 2677:1 2760:1 4362:1 5241:1 6524:1 6930:1 7524:1 7966:1 8587:1 9827:1 11092:1 11426:1 12044:1 12212:1 13130:1 14451:1 
1 1:1 267:1 759:1 1004:1 1147:1 1280:1 1324:1 1871:1 1958:1 2011:1 2092:1 2421:1 2431:1 3041:1 3689:1 4362:1 4392:1 4936:1 5011:1 5169:1 5441:1 5482:1 6059:1 6583:1 6620:1 6676:1 7196:1 7524:1 7894:1 8398:1 9267:1 9393:1 9827:1 10050:1 10318:1 11031:1 11067:1 11078:1 11966:1 12268:1 12408:1 13653:1 14032:1 14129:1 14130:1 14698:1 14778:1 
1 1:1 137:1 763:1 1324:1 2412:1 2756:1 2924:1 4024:1 4478:1 6540:1 8128:1 8512:1 9014:1 9827:1 10555:1 10788:1 11035:1 11573:1 13062:1 14451:1 
1 1:1 267:1 759:1 1004:1 1147:1 1280:1 1324:1 1871:1 1958:1 2011:1 2092:1 2421:1 2431:1 3041:1 3689:1 4362:1 4392:1 4936:1 5011:1 5169:1 5441:1 5482:1 6059:1 6583:1 6620:1 6676:1 7196:1 7524:1 7894:1 8398:1 9267:1 9393:1 9827:1 10050:1 10318:1 11031:1 11067:1 11078:1 11966:1 12268:1 12408:1 13653:1 14032:1 14129:1 14130:1 14698:1 14778:1 
1 1:1 98:1 612:1 849:1 879:1 1197:1 1324:1 1741:1 2924:1 5045:1 5177:1 5401:1 5838:1 6583:1 7264:1 7514:1 7525:1 7630:1 7852:1 7899:1 8818:1 10322:1 10976:1 11156:1 11717:1 12838:1 13000:1 13117:1 13379:1 13402:1 
1 1:1 13:1 187:1 612:1 985:1 1033:1 2011:1 2421:1 2684:1 3984:1 4362:1 4834:1 5150:1 5432:1 5524:1 5847:1 5962:1 6022:1 6524:1 6583:1 6920:1 7003:1 7091:1 7279:1 7486:1 7492:1 7524:1 7853:1 8127:1 8161:1 8397:1 8481:1 9045:1 9277:1 9827:1 9843:1 10681:1 12343:1 13914:1 13973:1 14451:1 14538:1 
1 1:1 298:1 368:1 533:1 732:1 849:1 915:1 1004:1 1136:1 1925:1 2040:1 2150:1 2300:1 2318:1 2330:1 3083:1 3870:1 4362:1 4759:1 4879:1 5058:1 5169:1 5710:1 6049:1 6524:1 6640:1 6853:1 7196:1 7853:1 7965:1 8383:1 8549:1 9473:1 9594:1 9827:1 10480:1 11474:1 11750:1 12268:1 13056:1 13104:1 13120:1 13130:1 14793:1 14856:1 
1 1:1 612:1 849:1 915:1 1004:1 1760:1 2431:1 2837:1 3531:1 4362:1 4625:1 5023:1 5528:1 5610:1 5732:1 7320:1 8512:1 8648:1 8732:1 9050:1 9613:1 9626:1 9827:1 9898:1 10103:1 10480:1 12044:1 12174:1 12406:1 12766:1 13104:1 13130:1 13152:1 13494:1 14788:1 
1 1:1 1128:1 4362:1 8649:1 
1 1:1 255:1 298:1 368:1 529:1 570:1 849:1 915:1 985:1 987:1 1004:1 1147:1 1173:1 1324:1 1358:1 1552:1 1569:1 2756:1 3042:1 3984:1 4095:1 4362:1 4641:1 5003:1 5058:1 5062:1 5150:1 5528:1 5694:1 5977:1 6049:1 7554:1 8031:1 8037:1 8179:1 9045:1 9326:1 9854:1 10681:1 10694:1 11431:1 11437:1 11474:1 12084:1 12111:1 12157:1 12274:1 12343:1 12579:1 12680:1 12838:1 13106:1 13152:1 14078:1 14180:1 14297:1 14703:1 
1 1:1 368:1 547:1 1324:1 1569:1 2318:1 2924:1 3102:1 3218:1 4625:1 5023:1 5058:1 5150:1 5524:1 5815:1 5977:1 6278:1 6576:1 6920:1 7019:1 7279:1 7524:1 7554:1 7625:1 8512:1 9158:1 9277:1 9792:1 9893:1 10480:1 11659:1 12183:1 12268:1 12838:1 13152:1 14229:1 14451:1 
1 1:1 187:1 915:1 4362:1 5410:1 6066:1 7554:1 7948:1 8363:1 9581:1 10318:1 11734:1 
1 1:1 67:1 187:1 346:1 612:1 759:1 915:1 1004:1 1324:1 1661:1 1874:1 2011:1 2150:1 2318:1 2380:1 2572:1 3689:1 3779:1 4362:1 5472:1 5528:1 5588:1 5610:1 5710:1 5815:1 5957:1 6049:1 6619:1 8179:1 8648:1 8858:1 9050:1 9297:1 9312:1 9594:1 9626:1 9792:1 9805:1 10103:1 11298:1 11518:1 11776:1 12268:1 12579:1 13386:1 
1 1:1 483:1 936:1 1098:1 1114:1 2518:1 2678:1 2756:1 3230:1 3583:1 4362:1 4535:1 4683:1 4824:1 6214:1 6433:1 6583:1 6930:1 7087:1 7112:1 7279:1 7665:1 8127:1 9140:1 9312:1 9827:1 10199:1 11298:1 11474:1 11596:1 12044:1 12343:1 12800:1 13106:1 13130:1 13477:1 14312:1 14451:1 14719:1 
1 1:1 223:1 2518:1 2768:1 3454:1 4362:1 4892:1 5045:1 5300:1 6583:1 8888:1 9414:1 10390:1 10513:1 12343:1 
1 1:1 2451:1 2924:1 3345:1 4362:1 4397:1 5104:1 7525:1 7966:1 8197:1 8732:1 9827:1 12044:1 13130:1 13452:1 
1 1:1 1810:1 1919:1 2420:1 4147:1 4818:1 5062:1 5528:1 6736:1 7525:1 7536:1 7620:1 7622:1 8816:1 9050:1 9945:1 10053:1 10103:1 11073:1 11829:1 12766:1 14500:1 
1 1:1 2760:1 2870:1 2894:1 4362:1 5008:1 5045:1 5610:1 5715:1 5815:1 7379:1 7525:1 7966:1 8649:1 9502:1 9827:1 10976:1 11275:1 12044:1 12343:1 13130:1 14185:1 
1 1:1 547:1 763:1 1324:1 1358:1 1388:1 2756:1 2760:1 2844:1 2991:1 3230:1 4019:1 4334:1 4683:1 4904:1 5255:1 5409:1 5766:1 6315:1 6540:1 6844:1 7379:1 7396:1 7525:1 7527:1 7966:1 8473:1 8734:1 8858:1 8888:1 9050:1 10681:1 10752:1 11173:1 11331:1 12579:1 12808:1 13106:1 13657:1 14129:1 14451:1 14859:1 
1 1:1 612:1 849:1 915:1 1004:1 1760:1 2431:1 2837:1 3531:1 4362:1 4625:1 5023:1 5528:1 5610:1 5732:1 7320:1 8512:1 8648:1 8732:1 9050:1 9613:1 9626:1 9827:1 9898:1 10103:1 10480:1 12044:1 12174:1 12406:1 12766:1 13104:1 13130:1 13152:1 13494:1 14788:1 
1 1:1 45:1 368:1 915:1 1280:1 1285:1 2090:1 2381:1 2768:1 2962:1 3189:1 3454:1 3984:1 4846:1 4952:1 5388:1 5815:1 6410:1 7465:1 7525:1 8649:1 10390:1 10692:1 10808:1 12212:1 12343:1 12800:1 14150:1 14451:1 
1 1:1 98:1 187:1 612:1 1741:1 3564:1 4362:1 5177:1 5401:1 5740:1 7264:1 7514:1 7525:1 7630:1 7852:1 7899:1 7966:1 8818:1 8888:1 9827:1 10322:1 10976:1 11156:1 11373:1 11717:1 12044:1 12838:1 13000:1 13117:1 13130:1 13379:1 13402:1 14451:1 
1 1:1 612:1 849:1 915:1 1004:1 1760:1 2431:1 2837:1 3531:1 4362:1 4625:1 5023:1 5528:1 5610:1 5732:1 7320:1 8512:1 8648:1 8732:1 9050:1 9613:1 9626:1 9827:1 9898:1 10103:1 10480:1 12044:1 12174:1 12406:1 12766:1 13104:1 13130:1 13152:1 13494:1 14788:1 
1 1:1 98:1 612:1 849:1 879:1 1197:1 1324:1 1741:1 2924:1 5045:1 5177:1 5401:1 5838:1 6583:1 7264:1 7514:1 7525:1 7630:1 7852:1 7899:1 8818:1 10322:1 10976:1 11156:1 11717:1 12838:1 13000:1 13117:1 13379:1 13402:1 
1 1:1 13:1 88:1 187:1 760:1 763:1 1280:1 1973:1 2011:1 2298:1 2756:1 2821:1 3954:1 4362:1 4478:1 5023:1 5150:1 5432:1 5847:1 6503:1 6524:1 6583:1 7003:1 7091:1 7279:1 7486:1 8100:1 8127:1 8544:1 9277:1 9827:1 9843:1 9893:1 10382:1 10822:1 11294:1 11481:1 12044:1 13152:1 13973:1 14743:1 
1 1:1 45:1 368:1 915:1 1280:1 1285:1 2090:1 2381:1 2962:1 3189:1 3984:1 4846:1 4952:1 5388:1 5815:1 6410:1 7465:1 7525:1 8649:1 10692:1 10808:1 12212:1 12343:1 12800:1 14150:1 14451:1 
1 1:1 797:1 849:1 879:1 915:1 1074:1 1280:1 1324:1 1358:1 1552:1 1955:1 2056:1 2156:1 2184:1 2341:1 2760:1 2870:1 2945:1 3014:1 3078:1 3434:1 3722:1 3954:1 4979:1 5023:1 5091:1 5416:1 5787:1 6256:1 7032:1 7848:1 7934:1 7966:1 8100:1 8258:1 8649:1 9026:1 9312:1 9792:1 10081:1 10103:1 10668:1 10681:1 10843:1 10921:1 11092:1 11518:1 11534:1 11684:1 12000:1 12041:1 12111:1 12157:1 12274:1 13106:1 13130:1 13380:1 13661:1 14032:1 14379:1 14746:1 14859:1 
1 1:1 298:1 368:1 533:1 732:1 849:1 915:1 1004:1 1136:1 1925:1 2040:1 2150:1 2300:1 2318:1 2330:1 3083:1 3870:1 4362:1 4759:1 4879:1 5058:1 5169:1 5710:1 6049:1 6524:1 6640:1 6853:1 7196:1 7853:1 7965:1 8383:1 8549:1 9473:1 9594:1 9827:1 10480:1 11474:1 11750:1 12268:1 13056:1 13104:1 13120:1 13130:1 14856:1 
1 1:1 267:1 759:1 1004:1 1147:1 1280:1 1324:1 1871:1 1958:1 2011:1 2092:1 2421:1 2431:1 3041:1 3689:1 4362:1 4392:1 4936:1 5011:1 5169:1 5441:1 5482:1 6059:1 6583:1 6620:1 6676:1 7196:1 7524:1 7894:1 8398:1 9267:1 9393:1 9827:1 10050:1 10318:1 11031:1 11067:1 11078:1 11966:1 12268:1 12408:1 13653:1 14032:1 14129:1 14130:1 14698:1 14778:1 
1 1:1 13:1 542:1 1475:1 2156:1 3279:1 4362:1 4392:1 5087:1 5815:1 6071:1 6315:1 7049:1 7087:1 7495:1 7554:1 
1 1:1 346:1 612:1 1004:1 2200:1 2412:1 2431:1 3083:1 4362:1 4641:1 5150:1 5528:1 6524:1 6853:1 7874:1 9277:1 9473:1 9594:1 9626:1 9827:1 12406:1 12893:1 13104:1 13130:1 13152:1 14788:1 
1 1:1 4362:1 5740:1 7525:1 7598:1 10318:1 11474:1 14639:1 
1 1:1 1004:1 1942:1 2225:1 2482:1 2518:1 2760:1 2870:1 4362:1 5440:1 5528:1 6789:1 7196:1 7894:1 7966:1 8649:1 10976:1 11181:1 11275:1 11292:1 11474:1 12343:1 12359:1 12408:1 14180:1 
1 1:1 464:1 547:1 759:1 834:1 1059:1 1121:1 1414:1 1449:1 1568:1 2254:1 2294:1 2300:1 2317:1 2431:1 2576:1 2660:1 2849:1 2870:1 3230:1 3990:1 4786:1 4825:1 4846:1 5472:1 5815:1 6376:1 6410:1 6920:1 7049:1 7087:1 7264:1 7492:1 7690:1 8100:1 8161:1 8473:1 8587:1 8732:1 8752:1 8888:1 9020:1 9502:1 9726:1 9805:1 10284:1 10513:1 10976:1 11298:1 11780:1 11933:1 12044:1 12528:1 12726:1 12930:1 13059:1 13285:1 13473:1 13914:1 13915:1 14129:1 14270:1 14475:1 14555:1 
1 1:1 13:1 88:1 187:1 760:1 763:1 1280:1 1973:1 2011:1 2298:1 2756:1 2821:1 3954:1 4362:1 4478:1 5023:1 5150:1 5432:1 5847:1 6503:1 6524:1 6583:1 7003:1 7091:1 7279:1 7486:1 8100:1 8127:1 8544:1 9277:1 9827:1 9843:1 9893:1 10382:1 10822:1 11294:1 11481:1 12044:1 13152:1 13973:1 
1 1:1 259:1 315:1 322:1 807:1 1128:1 1131:1 1137:1 1140:1 1479:1 1498:1 1506:1 1697:1 1806:1 1808:1 1810:1 1812:1 1816:1 1819:1 1890:1 1892:1 1893:1 1896:1 1900:1 2039:1 2445:1 2624:1 2679:1 2766:1 2768:1 2770:1 3413:1 3434:1 3435:1 3437:1 3440:1 3446:1 3450:1 3451:1 3877:1 4286:1 4288:1 4342:1 4362:1 4980:1 5009:1 5012:1 5015:1 5025:1 5091:1 5711:1 5790:1 5850:1 5924:1 6214:1 6471:1 6520:1 6581:1 7290:1 7369:1 7533:1 7885:1 8000:1 8086:1 8087:1 8649:1 8955:1 8958:1 9058:1 9205:1 9480:1 9711:1 9765:1 9774:1 10062:1 10426:1 10431:1 10480:1 10481:1 10483:1 10493:1 10691:1 10774:1 10826:1 10830:1 10837:1 10856:1 10874:1 11300:1 11301:1 11303:1 11306:1 11309:1 11798:1 12097:1 12129:1 12303:1 12408:1 12952:1 12963:1 13623:1 13651:1 13699:1 13702:1 13704:1 13706:1 14228:1 14505:1 
1 1:1 267:1 759:1 1004:1 1147:1 1280:1 1324:1 1871:1 1958:1 2011:1 2092:1 2421:1 2431:1 3041:1 3689:1 4362:1 4392:1 4936:1 5011:1 5169:1 5441:1 5482:1 6059:1 6583:1 6620:1 6676:1 7196:1 7524:1 7894:1 8398:1 9267:1 9393:1 9827:1 10050:1 10318:1 11031:1 11067:1 11078:1 11966:1 12268:1 12408:1 13653:1 14032:1 14129:1 14130:1 14698:1 14778:1 
1 1:1 1136:1 1760:1 1871:1 1942:1 2855:1 3083:1 3689:1 4362:1 4786:1 4879:1 5150:1 6583:1 7514:1 7524:1 9277:1 9473:1 9620:1 9792:1 9805:1 9827:1 11275:1 12013:1 12044:1 13104:1 14793:1 
1 1:1 13:1 298:1 357:1 368:1 387:1 483:1 644:1 709:1 758:1 759:1 849:1 883:1 899:1 1007:1 1033:1 1119:1 1121:1 1185:1 1661:1 1736:1 1942:1 2011:1 2032:1 2042:1 2056:1 2184:1 2218:1 2294:1 2431:1 2681:1 2855:1 2974:1 2991:1 3027:1 3042:1 3083:1 3196:1 3723:1 3814:1 3906:1 4024:1 4044:1 4151:1 4185:1 4195:1 4455:1 4536:1 4537:1 4624:1 4733:1 4764:1 4817:1 4880:1 4935:1 5150:1 5255:1 5335:1 5388:1 5506:1 5571:1 5672:1 5715:1 5747:1 5816:1 5822:1 6035:1 6391:1 6405:1 6410:1 6454:1 6676:1 6813:1 7015:1 7022:1 7076:1 7106:1 7131:1 7168:1 7256:1 7346:1 7370:1 7459:1 7625:1 7656:1 7660:1 7958:1 7966:1 7990:1 8037:1 8100:1 8412:1 8545:1 8587:1 8621:1 8675:1 8746:1 8752:1 8780:1 8815:1 8824:1 8942:1 9050:1 9066:1 9183:1 9200:1 9316:1 9414:1 9502:1 9662:1 9696:1 9716:1 9748:1 9760:1 9762:1 9843:1 10164:1 10189:1 10491:1 10523:1 10858:1 10876:1 10995:1 10996:1 11073:1 11132:1 11181:1 11331:1 11340:1 11495:1 12010:1 12121:1 12343:1 12373:1 12406:1 12592:1 12646:1 12708:1 12808:1 12838:1 12921:1 13067:1 13211:1 13324:1 13386:1 13535:1 13549:1 13656:1 13670:1 13855:1 14086:1 14129:1 14283:1 14370:1 14435:1 14755:1 14829:1 
1 1:1 380:1 952:1 1004:1 2760:1 2870:1 5348:1 5715:1 6410:1 6503:1 7525:1 7582:1 7656:1 7966:1 8474:1 8888:1 10513:1 10807:1 11100:1 12088:1 12212:1 13130:1 14451:1 
1 1:1 2768:1 3454:1 10390:1 12343:1 
1 1:1 176:1 742:1 915:1 1004:1 1871:1 2011:1 2092:1 2225:1 2421:1 2624:1 2734:1 3041:1 3689:1 4127:1 4362:1 4816:1 5011:1 5587:1 5653:1 5821:1 6268:1 6583:1 7524:1 7894:1 7928:1 8449:1 8554:1 8813:1 9267:1 9363:1 9393:1 9827:1 9843:1 9854:1 10050:1 11149:1 11292:1 11983:1 12268:1 12408:1 12524:1 14130:1 14778:1 
1 1:1 529:1 623:1 1004:1 2011:1 2096:1 2225:1 2924:1 5416:1 5732:1 7509:1 7525:1 7582:1 8100:1 8649:1 9312:1 9805:1 10437:1 11292:1 12029:1 12278:1 12408:1 12482:1 13130:1 13826:1 13915:1 
1 1:1 189:1 942:1 1938:1 2011:1 2431:1 3779:1 5150:1 5338:1 5472:1 7087:1 7251:1 7514:1 7525:1 7554:1 7832:1 8179:1 9011:1 12183:1 12680:1 13152:1 
1 1:1 416:1 547:1 1061:1 1074:1 1242:1 1280:1 1377:1 1712:1 1958:1 2011:1 2218:1 2254:1 2924:1 3042:1 3093:1 3348:1 3993:1 4044:1 4362:1 4681:1 4838:1 4923:1 4987:1 5095:1 5169:1 5472:1 5821:1 6465:1 6853:1 7620:1 8422:1 8743:1 9286:1 9312:1 9882:1 10164:1 10765:1 11112:1 11501:1 11704:1 11951:1 12406:1 12452:1 12897:1 12997:1 13379:1 13463:1 13565:1 13765:1 14461:1 14640:1 14713:1 
1 1:1 416:1 547:1 1061:1 1074:1 1242:1 1280:1 1377:1 1712:1 1958:1 2011:1 2218:1 2254:1 2924:1 3042:1 3093:1 3348:1 3993:1 4044:1 4362:1 4681:1 4838:1 4923:1 4987:1 5095:1 5169:1 5472:1 5821:1 6465:1 6853:1 7620:1 8422:1 8743:1 9286:1 9312:1 9882:1 10164:1 10765:1 11112:1 11501:1 11704:1 11951:1 12406:1 12452:1 12897:1 12997:1 13379:1 13463:1 13565:1 13765:1 14461:1 14640:1 14713:1 
1 1:1 176:1 959:1 2756:1 4362:1 7264:1 10513:1 11092:1 12062:1 13130:1 14129:1 14451:1 
0.778362948223312 1:1 368:1 1280:1 1938:1 1971:1 2030:1 2518:1 2760:1 3196:1 3348:1 3689:1 3984:1 4065:1 4362:1 4616:1 4734:1 5090:1 5091:1 5472:1 5576:1 5610:1 6524:1 6640:1 6830:1 6976:1 7847:1 7894:1 8100:1 8127:1 8728:1 9533:1 9827:1 9893:1 10103:1 10681:1 11112:1 11205:1 12044:1 12212:1 12442:1 12943:1 13130:1 13538:1 13711:1 13822:1 13973:1 14635:1 14812:1 
1 1:1 98:1 612:1 849:1 879:1 1197:1 1324:1 1741:1 2924:1 5045:1 5177:1 5401:1 5838:1 6583:1 7264:1 7514:1 7525:1 7630:1 7852:1 7899:1 8818:1 10322:1 10976:1 11156:1 11717:1 12838:1 13000:1 13117:1 13379:1 13402:1 
1 1:1 2760:1 7586:1 7966:1 12044:1 12212:1 13130:1 
1 1:1 196:1 222:1 612:1 945:1 977:1 1074:1 1280:1 1537:1 2300:1 2412:1 2518:1 2694:1 3014:1 3689:1 3814:1 3954:1 4323:1 4533:1 4923:1 4938:1 5062:1 5472:1 5482:1 5815:1 5962:1 6273:1 6736:1 7279:1 7638:1 8031:1 8100:1 8451:1 8734:1 9026:1 9214:1 9276:1 9312:1 9451:1 9805:1 9952:1 10314:1 10513:1 10976:1 11474:1 11913:1 12197:1 12703:1 12800:1 13056:1 13480:1 13538:1 14480:1 14635:1 
1 1:1 298:1 570:1 759:1 915:1 942:1 952:1 1280:1 1363:1 1552:1 1569:1 2431:1 2518:1 3042:1 3102:1 3689:1 4392:1 4625:1 5023:1 5058:1 5062:1 5150:1 5401:1 5528:1 5715:1 6049:1 6583:1 6857:1 7279:1 7554:1 7586:1 7625:1 8179:1 8888:1 9473:1 9792:1 9805:1 9827:1 10677:1 11437:1 13104:1 13152:1 14443:1 14703:1 
1 1:1 368:1 915:1 952:1 2040:1 3037:1 3083:1 3102:1 4362:1 5150:1 5528:1 6133:1 6524:1 7279:1 8037:1 8410:1 8473:1 8732:1 9277:1 9473:1 12183:1 12680:1 13104:1 13152:1 
1 1:1 849:1 915:1 985:1 1280:1 1358:1 1629:1 2298:1 2370:1 3102:1 3348:1 3701:1 4362:1 4879:1 4923:1 5095:1 5114:1 5169:1 5710:1 5740:1 6168:1 6789:1 6898:1 7229:1 7262:1 7527:1 7656:1 7966:1 8100:1 8292:1 8749:1 8888:1 9814:1 10335:1 10587:1 11018:1 11092:1 11474:1 11481:1 12044:1 12212:1 12684:1 12948:1 13115:1 13130:1 13465:1 13473:1 13644:1 14451:1 14635:1 14784:1 
1 1:1 1938:1 2870:1 4056:1 4298:1 4362:1 4681:1 4801:1 5045:1 5063:1 5472:1 6920:1 7332:1 7396:1 8127:1 8649:1 10513:1 12111:1 12343:1 12559:1 13047:1 13130:1 14032:1 14451:1 
1 1:1 763:1 1121:1 1330:1 1958:1 2011:1 3723:1 3906:1 3914:1 4323:1 4348:1 4362:1 4622:1 5023:1 5604:1 5815:1 5847:1 5924:1 6241:1 7620:1 7965:1 7966:1 8474:1 9266:1 9312:1 9748:1 9778:1 10103:1 10914:1 10972:1 10976:1 10977:1 11205:1 11275:1 11302:1 11495:1 12442:1 12532:1 13106:1 13551:1 13838:1 14451:1 
1 1:1 3279:1 4028:1 4362:1 4420:1 6503:1 6857:1 6920:1 7279:1 8348:1 8512:1 8651:1 9594:1 10544:1 11493:1 
1 1:1 4362:1 9581:1 
1 1:1 189:1 942:1 1938:1 2011:1 2431:1 3779:1 4362:1 5150:1 5338:1 5472:1 5740:1 7087:1 7251:1 7514:1 7554:1 7832:1 9011:1 12183:1 12680:1 12997:1 13152:1 
1 1:1 137:1 763:1 1324:1 2412:1 2756:1 2924:1 4024:1 4478:1 6540:1 8128:1 8512:1 9014:1 9827:1 10555:1 10788:1 11035:1 11573:1 13062:1 14451:1 
1 1:1 612:1 849:1 915:1 1004:1 2431:1 2837:1 3531:1 4625:1 5023:1 5528:1 5610:1 5732:1 7320:1 8512:1 8648:1 8732:1 9050:1 9613:1 9626:1 9827:1 9898:1 10103:1 10480:1 12044:1 12174:1 12406:1 12766:1 13104:1 13130:1 13152:1 13494:1 14788:1 
1 1:1 98:1 612:1 849:1 879:1 1197:1 1324:1 1741:1 2924:1 5045:1 5177:1 5401:1 5838:1 6583:1 7264:1 7514:1 7525:1 7630:1 7852:1 7899:1 8818:1 10322:1 10976:1 11156:1 11717:1 12838:1 13000:1 13117:1 13379:1 13402:1 
1 1:1 368:1 621:1 1004:1 1033:1 1902:1 1958:1 2330:1 2959:1 3230:1 5472:1 5518:1 5710:1 7396:1 8512:1 8888:1 8987:1 9108:1 9613:1 9658:1 9827:1 9893:1 9898:1 10513:1 10976:1 11112:1 11275:1 12044:1 12930:1 13104:1 13123:1 13130:1 13286:1 13494:1 
1 1:1 187:1 542:1 759:1 838:1 849:1 1119:1 1280:1 1744:1 1892:1 2518:1 2760:1 2924:1 3305:1 3314:1 4032:1 4185:1 4348:1 4572:1 5095:1 5740:1 6410:1 6503:1 6583:1 6923:1 7002:1 7656:1 8018:1 8144:1 8522:1 8649:1 8815:1 9312:1 9594:1 9827:1 9893:1 10050:1 10323:1 10513:1 10876:1 10914:1 12917:1 13452:1 14451:1 14603:1 
1 1:1 98:1 612:1 849:1 879:1 1197:1 1324:1 1741:1 2924:1 5045:1 5177:1 5401:1 5838:1 6583:1 7264:1 7514:1 7525:1 7630:1 7852:1 7899:1 8818:1 10322:1 10976:1 11156:1 11717:1 12838:1 13000:1 13117:1 13379:1 13402:1 
1 1:1 267:1 759:1 1004:1 1147:1 1280:1 1324:1 1871:1 1958:1 2011:1 2092:1 2421:1 2431:1 3041:1 3689:1 4362:1 4392:1 4936:1 5011:1 5169:1 5441:1 5482:1 6059:1 6583:1 6620:1 6676:1 7196:1 7524:1 7894:1 8398:1 9267:1 9393:1 9827:1 10050:1 10318:1 11031:1 11067:1 11078:1 11966:1 12268:1 12408:1 13653:1 14032:1 14129:1 14130:1 14698:1 14778:1 
1 1:1 849:1 1919:1 2011:1 4095:1 4362:1 5091:1 7894:1 8816:1 9805:1 9827:1 9898:1 10087:1 10513:1 11331:1 11686:1 14475:1 
1 1:1 137:1 763:1 1324:1 2412:1 2756:1 2924:1 4024:1 4478:1 6540:1 8128:1 8512:1 9014:1 9827:1 10555:1 10788:1 11035:1 11573:1 13062:1 14451:1 
1 1:1 13:1 88:1 187:1 760:1 763:1 1280:1 1973:1 2011:1 2298:1 2756:1 2821:1 3954:1 4362:1 4478:1 5023:1 5150:1 5432:1 5847:1 6503:1 6524:1 6583:1 7003:1 7091:1 7279:1 7486:1 8100:1 8127:1 8544:1 9277:1 9827:1 9843:1 9893:1 10382:1 10822:1 11294:1 11481:1 12044:1 13152:1 13973:1 
1 1:1 98:1 187:1 612:1 1741:1 3564:1 4362:1 5177:1 5401:1 5740:1 7264:1 7514:1 7525:1 7630:1 7852:1 7899:1 7966:1 8818:1 8888:1 9827:1 10322:1 10976:1 11156:1 11373:1 11717:1 12044:1 12838:1 13000:1 13117:1 13130:1 13379:1 13402:1 14451:1 
1 1:1 1282:1 1346:1 2011:1 2225:1 2412:1 2831:1 3564:1 3870:1 3954:1 5610:1 5740:1 6326:1 7094:1 7582:1 8647:1 8649:1 8888:1 9415:1 9531:1 9827:1 10103:1 10773:1 11030:1 11048:1 11474:1 11666:1 11678:1 12044:1 12752:1 13915:1 
1 1:1 298:1 368:1 533:1 732:1 849:1 915:1 1004:1 1136:1 1925:1 2040:1 2150:1 2300:1 2318:1 2330:1 3083:1 3870:1 4362:1 4759:1 4879:1 5058:1 5169:1 5710:1 6049:1 6524:1 6640:1 6853:1 7196:1 7853:1 7965:1 8383:1 8549:1 9473:1 9594:1 9827:1 10480:1 11474:1 11750:1 12268:1 13056:1 13104:1 13120:1 13130:1 14793:1 14856:1 
1 1:1 3689:1 6059:1 6583:1 7894:1 8888:1 12044:1 12680:1 14125:1 
1 1:1 732:1 763:1 963:1 1004:1 1033:1 1220:1 1985:1 2046:1 2412:1 2482:1 2518:1 2870:1 3412:1 3954:1 4362:1 4786:1 5058:1 5409:1 5472:1 5715:1 5815:1 5899:1 5977:1 6272:1 6315:1 6410:1 7389:1 7525:1 8127:1 8591:1 8596:1 8729:1 9034:1 9473:1 9481:1 9500:1 9743:1 9778:1 10012:1 10083:1 10246:1 10389:1 10513:1 10818:1 11092:1 11181:1 11187:1 11659:1 12044:1 12268:1 12408:1 13106:1 13661:1 13973:1 14451:1 14738:1 14798:1 14859:1 
1 1:1 13:1 189:1 578:1 621:1 631:1 1004:1 1074:1 1280:1 1729:1 1942:1 2042:1 2300:1 2494:1 2837:1 2959:1 3582:1 3589:1 3883:1 4332:1 4362:1 5023:1 5186:1 5410:1 5528:1 5855:1 6009:1 6226:1 6855:1 6913:1 6920:1 7015:1 7078:1 7543:1 7557:1 7656:1 8053:1 8633:1 8649:1 8780:1 8923:1 9008:1 9140:1 9581:1 9698:1 9711:1 9729:1 9805:1 10164:1 10464:1 10705:1 10832:1 10876:1 10976:1 11112:1 11249:1 11275:1 11321:1 11501:1 11731:1 11765:1 12687:1 12761:1 13066:1 13067:1 13697:1 13766:1 14191:1 14492:1 
1 1:1 13:1 612:1 1036:1 2518:1 2756:1 3348:1 4263:1 4362:1 4817:1 5045:1 6275:1 6583:1 8100:1 8752:1 9312:1 9792:1 9827:1 11092:1 11331:1 12041:1 12111:1 12408:1 13946:1 14185:1 
1 1:1 189:1 1022:1 1033:1 1214:1 1288:1 1887:1 1915:1 2257:1 2313:1 2870:1 2977:1 3062:1 3326:1 3348:1 3438:1 3906:1 4478:1 5124:1 5472:1 6016:1 6356:1 6410:1 6691:1 7191:1 7665:1 8507:1 8524:1 8649:1 8987:1 9312:1 9321:1 9533:1 10513:1 10832:1 10976:1 11112:1 12334:1 12406:1 12646:1 12997:1 13067:1 14266:1 14451:1 
1 1:1 189:1 1022:1 1033:1 1214:1 1288:1 1887:1 1915:1 2257:1 2313:1 2870:1 2977:1 3062:1 3326:1 3348:1 3438:1 3906:1 4478:1 5124:1 5472:1 6016:1 6356:1 6410:1 6691:1 7191:1 7665:1 8507:1 8524:1 8649:1 8987:1 9312:1 9321:1 9533:1 10513:1 10832:1 10976:1 11112:1 12334:1 12406:1 12646:1 12997:1 13067:1 14266:1 14451:1 
1 1:1 547:1 732:1 1942:1 2218:1 2575:1 2756:1 2870:1 3685:1 3792:1 4362:1 4846:1 5169:1 5282:1 5516:1 5702:1 5710:1 6495:1 7279:1 7625:1 7894:1 9792:1 9805:1 10012:1 10332:1 10480:1 10778:1 12044:1 13033:1 13298:1 13441:1 13768:1 13802:1 14129:1 14451:1 
1 1:1 187:1 763:1 942:1 1938:1 4362:1 5150:1 7554:1 9312:1 9581:1 9613:1 13308:1 
1 1:1 936:1 1098:1 1114:1 1358:1 2518:1 2678:1 2870:1 3230:1 3583:1 4535:1 4682:1 4824:1 5150:1 5524:1 6214:1 6433:1 6930:1 7087:1 7279:1 7665:1 9140:1 9277:1 9382:1 10199:1 10381:1 11474:1 12343:1 13106:1 13477:1 14312:1 
1 1:1 612:1 849:1 915:1 1004:1 2431:1 2837:1 3531:1 4625:1 5023:1 5528:1 5610:1 5732:1 7320:1 8512:1 8648:1 8732:1 9050:1 9613:1 9626:1 9827:1 9898:1 10103:1 10480:1 12044:1 12174:1 12406:1 12766:1 13104:1 13130:1 13152:1 13494:1 14788:1 
1 1:1 346:1 612:1 1004:1 2200:1 2412:1 2431:1 3083:1 4362:1 4641:1 5150:1 5528:1 6524:1 6853:1 7874:1 9277:1 9473:1 9594:1 9626:1 9827:1 12406:1 12893:1 13104:1 13130:1 13152:1 14788:1 
1 1:1 368:1 621:1 1004:1 1033:1 1902:1 1958:1 2330:1 2959:1 3230:1 5472:1 5518:1 5710:1 7396:1 8512:1 8888:1 8987:1 9108:1 9613:1 9658:1 9827:1 9893:1 9898:1 10513:1 10976:1 11112:1 11275:1 12044:1 12930:1 13104:1 13123:1 13130:1 13286:1 13494:1 
1 1:1 1136:1 1871:1 1942:1 2855:1 3083:1 3689:1 4786:1 4879:1 5150:1 6583:1 7514:1 7524:1 9277:1 9473:1 9620:1 9792:1 9805:1 9827:1 11275:1 12013:1 12044:1 13104:1 14793:1 
1 1:1 326:1 609:1 759:1 1388:1 1661:1 3062:1 3219:1 3535:1 4759:1 5320:1 5576:1 6736:1 6857:1 7321:1 7401:1 7524:1 7536:1 7582:1 7625:1 8078:1 8744:1 9026:1 9473:1 9791:1 9903:1 10513:1 10789:1 11226:1 11896:1 12157:1 12800:1 12808:1 12816:1 13123:1 13480:1 13670:1 14264:1 
1 1:1 13:1 834:1 844:1 1074:1 1255:1 1641:1 2150:1 3112:1 3230:1 3954:1 4362:1 4834:1 4959:1 5416:1 5472:1 6410:1 6850:1 7251:1 7279:1 7966:1 7984:1 9316:1 9711:1 9827:1 9892:1 10743:1 11292:1 11481:1 11734:1 12000:1 12121:1 12212:1 12278:1 12343:1 12620:1 12772:1 12808:1 12838:1 13201:1 13809:1 14859:1 
1 1:1 759:1 763:1 915:1 1255:1 2056:1 2066:1 2431:1 2760:1 2870:1 2949:1 4323:1 4362:1 4378:1 4397:1 4850:1 5524:1 5610:1 5962:1 6215:1 6524:1 6583:1 7685:1 7966:1 8324:1 9827:1 9952:1 10103:1 11187:1 11474:1 13059:1 13915:1 14451:1 
1 1:1 98:1 187:1 612:1 1741:1 3564:1 4362:1 5177:1 5401:1 5740:1 7264:1 7514:1 7525:1 7630:1 7852:1 7899:1 7966:1 8818:1 8888:1 9827:1 10322:1 10976:1 11156:1 11373:1 11717:1 12044:1 12838:1 13000:1 13117:1 13130:1 13379:1 13402:1 14451:1 
1 1:1 1324:1 2870:1 4362:1 7525:1 7894:1 8324:1 9827:1 10681:1 12044:1 14451:1 
1 1:1 326:1 373:1 612:1 945:1 1280:1 1324:1 1337:1 1716:1 1973:1 2431:1 2518:1 3990:1 4442:1 4683:1 4980:1 6410:1 6503:1 6736:1 6765:1 6987:1 8047:1 9286:1 9473:1 9805:1 10487:1 10513:1 10641:1 10705:1 10818:1 12808:1 14264:1 14435:1 14597:1 14863:1 
1 1:1 98:1 187:1 612:1 1741:1 3564:1 4362:1 5177:1 5401:1 5740:1 7264:1 7514:1 7525:1 7630:1 7852:1 7899:1 7966:1 8818:1 8888:1 9827:1 10322:1 10976:1 11156:1 11373:1 11717:1 12044:1 12838:1 13000:1 13117:1 13130:1 13379:1 13402:1 14451:1 
1 1:1 267:1 759:1 1004:1 1147:1 1280:1 1324:1 1871:1 1958:1 2011:1 2092:1 2421:1 2431:1 3041:1 3689:1 4362:1 4392:1 4936:1 5011:1 5169:1 5441:1 5482:1 6059:1 6583:1 6620:1 6676:1 7196:1 7524:1 7894:1 8398:1 9267:1 9393:1 9827:1 10050:1 10318:1 11031:1 11067:1 11078:1 11966:1 12268:1 12408:1 13653:1 14032:1 14129:1 14130:1 14698:1 14778:1 
1 1:1 187:1 732:1 2300:1 2368:1 2404:1 3984:1 4362:1 4625:1 4923:1 5160:1 5169:1 6059:1 7256:1 8651:1 8746:1 9297:1 9312:1 9893:1 9998:1 10992:1 11909:1 12913:1 13379:1 
1 1:1 4362:1 5610:1 7524:1 10103:1 10480:1 
1 1:1 187:1 732:1 2300:1 2368:1 2404:1 3984:1 4362:1 4625:1 4923:1 5160:1 5169:1 6059:1 7256:1 8651:1 8746:1 9297:1 9312:1 9893:1 9998:1 10992:1 11909:1 12913:1 13379:1 
1 1:1 267:1 759:1 1004:1 1147:1 1280:1 1324:1 1871:1 1958:1 2011:1 2092:1 2421:1 2431:1 3041:1 3689:1 4362:1 4392:1 4936:1 5011:1 5169:1 5441:1 5482:1 6059:1 6583:1 6620:1 6676:1 7196:1 7524:1 7894:1 8398:1 9267:1 9393:1 9827:1 10050:1 10318:1 11031:1 11067:1 11078:1 11966:1 12268:1 12408:1 13653:1 14032:1 14129:1 14130:1 14698:1 14778:1 
