svm_type c_svc
kernel_type linear
nr_class 2
total_sv 697
rho -0.999666
label 1 0
nr_sv 193 504
SV
0.113072156420417 1:1 628:1 1806:1 1808:1 1810:1 1812:1 2269:1 3372:1 3440:1 3441:1 4285:1 4286:1 4288:1 4888:1 5015:1 5381:1 5794:1 5830:1 6892:1 6895:1 7427:1 7948:1 9382:1 9384:1 9490:1 10124:1 10495:1 10956:1 11309:1 13125:1 13570:1 14130:1 
0.02865829955722813 1:1 42:1 242:1 267:1 448:1 612:1 700:1 763:1 915:1 1004:1 1280:1 1421:1 1552:1 1803:1 1938:1 2011:1 2030:1 2046:1 2300:1 2363:1 2412:1 2518:1 2677:1 2768:1 2870:1 2928:1 3196:1 3230:1 3320:1 3454:1 3883:1 3954:1 4309:1 4348:1 4572:1 4600:1 4622:1 4786:1 4900:1 4987:1 5023:1 5045:1 5055:1 5091:1 5114:1 5150:1 5179:1 5410:1 5416:1 5432:1 5472:1 5977:1 6030:1 6226:1 6268:1 6410:1 6583:1 6920:1 7105:1 7257:1 7379:1 7524:1 7527:1 7582:1 7586:1 7587:1 7894:1 7941:1 7965:1 8037:1 8127:1 8163:1 8324:1 8358:1 8474:1 8587:1 8631:1 8732:1 8888:1 8932:1 9026:1 9034:1 9200:1 9297:1 9446:1 9463:1 9473:1 9518:1 9716:1 9805:1 9811:1 9816:1 9861:1 9898:1 10027:1 10034:1 10053:1 10087:1 10346:1 10390:1 10781:1 10976:1 11275:1 11474:1 12155:1 12174:1 12343:1 12406:1 12592:1 12620:1 12784:1 12823:1 13092:1 13104:1 13130:1 13168:1 13441:1 13458:1 13490:1 13648:1 13653:1 13973:1 14129:1 14185:1 14232:1 14439:1 14451:1 14534:1 14600:1 14635:1 14792:1 14800:1 
0.6283898194255813 1:1 4:1 6:1 7:1 10:1 13:1 17:1 29:1 34:1 43:1 46:1 47:1 49:1 55:1 58:1 60:1 63:1 66:1 67:1 73:1 78:1 79:1 80:1 85:1 88:1 89:1 91:1 95:1 98:1 102:1 105:1 108:1 111:1 112:1 114:1 115:1 121:1 124:1 126:1 128:1 129:1 130:1 131:1 135:1 136:1 138:1 142:1 143:1 146:1 147:1 148:1 151:1 152:1 153:1 154:1 155:1 158:1 161:1 163:1 164:1 167:1 168:1 172:1 173:1 176:1 181:1 182:1 184:1 185:1 186:1 187:1 188:1 189:1 196:1 197:1 198:1 199:1 200:1 201:1 206:1 207:1 209:1 211:1 213:1 214:1 218:1 222:1 223:1 224:1 228:1 235:1 236:1 237:1 238:1 239:1 240:1 242:1 244:1 245:1 246:1 250:1 255:1 259:1 263:1 265:1 267:1 278:1 281:1 284:1 285:1 286:1 289:1 290:1 298:1 299:1 300:1 304:1 311:1 312:1 317:1 318:1 319:1 320:1 324:1 326:1 334:1 335:1 339:1 341:1 345:1 346:1 347:1 349:1 351:1 354:1 357:1 364:1 365:1 367:1 368:1 369:1 372:1 373:1 374:1 376:1 379:1 380:1 381:1 383:1 384:1 389:1 394:1 396:1 399:1 400:1 403:1 404:1 405:1 406:1 410:1 416:1 420:1 421:1 422:1 424:1 426:1 427:1 429:1 430:1 434:1 436:1 437:1 440:1 442:1 444:1 445:1 446:1 447:1 448:1 449:1 457:1 458:1 459:1 460:1 462:1 463:1 464:1 471:1 472:1 473:1 486:1 489:1 490:1 492:1 493:1 494:1 497:1 499:1 500:1 502:1 504:1 510:1 512:1 513:1 519:1 522:1 524:1 529:1 530:1 531:1 532:1 533:1 535:1 536:1 538:1 539:1 542:1 544:1 545:1 547:1 551:1 555:1 556:1 557:1 558:1 559:1 560:1 564:1 566:1 568:1 570:1 573:1 574:1 575:1 578:1 579:1 581:1 586:1 589:1 590:1 591:1 595:1 596:1 599:1 603:1 604:1 605:1 606:1 608:1 609:1 610:1 611:1 612:1 615:1 617:1 619:1 621:1 622:1 623:1 624:1 625:1 631:1 633:1 638:1 640:1 641:1 642:1 644:1 648:1 651:1 657:1 659:1 663:1 667:1 669:1 671:1 676:1 677:1 679:1 680:1 681:1 686:1 687:1 691:1 696:1 704:1 705:1 706:1 711:1 715:1 717:1 720:1 721:1 722:1 723:1 724:1 727:1 731:1 732:1 733:1 735:1 736:1 741:1 742:1 744:1 747:1 752:1 758:1 759:1 760:1 762:1 763:1 772:1 776:1 780:1 781:1 782:1 794:1 795:1 797:1 798:1 799:1 800:1 802:1 812:1 815:1 817:1 818:1 824:1 825:1 828:1 834:1 835:1 836:1 838:1 841:1 843:1 844:1 846:1 847:1 849:1 856:1 857:1 862:1 866:1 869:1 872:1 873:1 876:1 877:1 878:1 879:1 880:1 881:1 883:1 886:1 887:1 889:1 891:1 893:1 894:1 895:1 897:1 898:1 899:1 906:1 911:1 913:1 915:1 916:1 919:1 920:1 921:1 927:1 928:1 935:1 936:1 939:1 940:1 941:1 943:1 945:1 947:1 948:1 949:1 950:1 951:1 952:1 954:1 955:1 959:1 960:1 961:1 963:1 966:1 969:1 974:1 976:1 977:1 982:1 985:1 987:1 988:1 989:1 991:1 993:1 997:1 998:1 1001:1 1004:1 1005:1 1007:1 1011:1 1014:1 1016:1 1018:1 1021:1 1024:1 1028:1 1031:1 1033:1 1036:1 1040:1 1041:1 1042:1 1043:1 1044:1 1045:1 1047:1 1049:1 1050:1 1054:1 1056:1 1057:1 1059:1 1060:1 1062:1 1063:1 1065:1 1069:1 1072:1 1074:1 1083:1 1088:1 1089:1 1091:1 1096:1 1101:1 1102:1 1107:1 1109:1 1110:1 1112:1 1114:1 1119:1 1121:1 1123:1 1125:1 1126:1 1127:1 1128:1 1130:1 1132:1 1135:1 1136:1 1139:1 1140:1 1146:1 1147:1 1154:1 1155:1 1157:1 1164:1 1167:1 1169:1 1170:1 1171:1 1172:1 1173:1 1178:1 1181:1 1184:1 1185:1 1186:1 1187:1 1189:1 1191:1 1192:1 1193:1 1199:1 1200:1 1203:1 1205:1 1210:1 1211:1 1213:1 1214:1 1217:1 1220:1 1223:1 1228:1 1231:1 1232:1 1235:1 1236:1 1241:1 1242:1 1243:1 1244:1 1245:1 1247:1 1248:1 1250:1 1252:1 1254:1 1255:1 1263:1 1264:1 1268:1 1269:1 1270:1 1272:1 1274:1 1276:1 1277:1 1278:1 1280:1 1281:1 1282:1 1284:1 1285:1 1288:1 1289:1 1290:1 1292:1 1295:1 1296:1 1297:1 1306:1 1308:1 1310:1 1311:1 1313:1 1314:1 1316:1 1317:1 1320:1 1321:1 1322:1 1323:1 1324:1 1330:1 1331:1 1337:1 1338:1 1339:1 1340:1 1341:1 1343:1 1344:1 1345:1 1346:1 1352:1 1354:1 1355:1 1358:1 1360:1 1365:1 1366:1 1367:1 1370:1 1372:1 1373:1 1377:1 1379:1 1386:1 1388:1 1390:1 1394:1 1396:1 1399:1 1406:1 1407:1 1408:1 1411:1 1412:1 1413:1 1414:1 1418:1 1421:1 1422:1 1423:1 1424:1 1427:1 1428:1 1433:1 1438:1 1441:1 1443:1 1444:1 1449:1 1452:1 1453:1 1455:1 1457:1 1466:1 1469:1 1471:1 1475:1 1481:1 1482:1 1484:1 1486:1 1488:1 1489:1 1492:1 1495:1 1499:1 1500:1 1512:1 1513:1 1515:1 1520:1 1521:1 1522:1 1527:1 1528:1 1529:1 1534:1 1535:1 1536:1 1537:1 1539:1 1542:1 1544:1 1548:1 1551:1 1552:1 1553:1 1554:1 1556:1 1559:1 1563:1 1567:1 1568:1 1569:1 1571:1 1579:1 1580:1 1583:1 1584:1 1586:1 1587:1 1588:1 1604:1 1608:1 1613:1 1614:1 1616:1 1621:1 1623:1 1625:1 1629:1 1632:1 1635:1 1640:1 1641:1 1645:1 1653:1 1655:1 1657:1 1658:1 1659:1 1660:1 1661:1 1664:1 1668:1 1669:1 1675:1 1677:1 1693:1 1694:1 1702:1 1706:1 1712:1 1713:1 1716:1 1723:1 1725:1 1726:1 1728:1 1729:1 1730:1 1732:1 1735:1 1736:1 1737:1 1741:1 1743:1 1744:1 1753:1 1759:1 1760:1 1763:1 1770:1 1772:1 1773:1 1774:1 1775:1 1782:1 1783:1 1785:1 1786:1 1788:1 1790:1 1791:1 1792:1 1793:1 1798:1 1802:1 1803:1 1804:1 1805:1 1807:1 1810:1 1813:1 1814:1 1815:1 1816:1 1818:1 1819:1 1826:1 1834:1 1841:1 1844:1 1851:1 1853:1 1858:1 1859:1 1863:1 1867:1 1871:1 1874:1 1876:1 1880:1 1886:1 1892:1 1899:1 1902:1 1903:1 1904:1 1911:1 1915:1 1918:1 1919:1 1922:1 1924:1 1925:1 1928:1 1931:1 1933:1 1935:1 1938:1 1939:1 1941:1 1942:1 1945:1 1947:1 1949:1 1955:1 1956:1 1958:1 1959:1 1973:1 1975:1 1978:1 1979:1 1980:1 1984:1 1985:1 1986:1 1993:1 1995:1 2000:1 2001:1 2004:1 2006:1 2008:1 2009:1 2010:1 2011:1 2014:1 2015:1 2019:1 2021:1 2022:1 2023:1 2024:1 2026:1 2028:1 2030:1 2031:1 2032:1 2034:1 2035:1 2037:1 2040:1 2042:1 2046:1 2049:1 2051:1 2053:1 2056:1 2057:1 2060:1 2065:1 2066:1 2067:1 2074:1 2076:1 2077:1 2078:1 2079:1 2083:1 2089:1 2090:1 2092:1 2094:1 2097:1 2103:1 2106:1 2108:1 2109:1 2111:1 2113:1 2116:1 2118:1 2131:1 2132:1 2135:1 2136:1 2141:1 2142:1 2143:1 2146:1 2148:1 2150:1 2156:1 2161:1 2163:1 2167:1 2169:1 2171:1 2173:1 2177:1 2179:1 2180:1 2184:1 2189:1 2190:1 2191:1 2194:1 2202:1 2203:1 2206:1 2207:1 2209:1 2211:1 2218:1 2220:1 2223:1 2224:1 2225:1 2230:1 2232:1 2234:1 2235:1 2236:1 2239:1 2240:1 2246:1 2249:1 2254:1 2256:1 2257:1 2258:1 2263:1 2272:1 2273:1 2275:1 2278:1 2282:1 2283:1 2285:1 2287:1 2294:1 2298:1 2299:1 2300:1 2302:1 2305:1 2311:1 2315:1 2316:1 2317:1 2318:1 2319:1 2329:1 2330:1 2332:1 2333:1 2335:1 2338:1 2340:1 2341:1 2345:1 2347:1 2350:1 2351:1 2354:1 2356:1 2357:1 2359:1 2360:1 2363:1 2366:1 2367:1 2368:1 2369:1 2372:1 2373:1 2378:1 2380:1 2381:1 2385:1 2387:1 2389:1 2392:1 2395:1 2399:1 2404:1 2405:1 2410:1 2411:1 2412:1 2414:1 2415:1 2416:1 2417:1 2420:1 2421:1 2423:1 2431:1 2440:1 2443:1 2448:1 2449:1 2450:1 2451:1 2453:1 2454:1 2458:1 2460:1 2461:1 2464:1 2465:1 2468:1 2473:1 2474:1 2477:1 2478:1 2481:1 2482:1 2483:1 2488:1 2494:1 2495:1 2497:1 2499:1 2503:1 2506:1 2509:1 2510:1 2514:1 2515:1 2516:1 2518:1 2519:1 2520:1 2521:1 2522:1 2529:1 2530:1 2531:1 2533:1 2534:1 2535:1 2544:1 2545:1 2554:1 2557:1 2562:1 2564:1 2568:1 2569:1 2570:1 2572:1 2574:1 2576:1 2582:1 2589:1 2594:1 2601:1 2608:1 2611:1 2613:1 2614:1 2617:1 2619:1 2623:1 2624:1 2625:1 2628:1 2630:1 2633:1 2634:1 2636:1 2637:1 2640:1 2641:1 2645:1 2646:1 2648:1 2651:1 2652:1 2657:1 2658:1 2659:1 2660:1 2662:1 2666:1 2669:1 2672:1 2675:1 2677:1 2681:1 2687:1 2695:1 2698:1 2700:1 2703:1 2705:1 2713:1 2718:1 2720:1 2721:1 2728:1 2730:1 2731:1 2732:1 2734:1 2735:1 2738:1 2739:1 2741:1 2744:1 2746:1 2749:1 2750:1 2752:1 2753:1 2756:1 2758:1 2760:1 2763:1 2765:1 2766:1 2767:1 2768:1 2769:1 2770:1 2775:1 2780:1 2781:1 2782:1 2783:1 2790:1 2796:1 2803:1 2805:1 2806:1 2807:1 2808:1 2810:1 2815:1 2823:1 2829:1 2831:1 2832:1 2833:1 2834:1 2836:1 2837:1 2839:1 2842:1 2845:1 2846:1 2848:1 2849:1 2852:1 2853:1 2855:1 2856:1 2857:1 2858:1 2859:1 2861:1 2862:1 2865:1 2868:1 2869:1 2870:1 2876:1 2878:1 2881:1 2883:1 2884:1 2889:1 2890:1 2891:1 2892:1 2894:1 2895:1 2896:1 2898:1 2899:1 2901:1 2902:1 2903:1 2909:1 2914:1 2916:1 2917:1 2918:1 2919:1 2921:1 2924:1 2925:1 2933:1 2935:1 2939:1 2941:1 2942:1 2943:1 2944:1 2945:1 2947:1 2948:1 2949:1 2953:1 2954:1 2959:1 2962:1 2963:1 2964:1 2965:1 2966:1 2969:1 2971:1 2973:1 2974:1 2976:1 2977:1 2985:1 2986:1 2987:1 2989:1 2991:1 2992:1 2994:1 2997:1 3006:1 3008:1 3010:1 3011:1 3012:1 3014:1 3016:1 3018:1 3022:1 3026:1 3032:1 3034:1 3036:1 3037:1 3039:1 3041:1 3042:1 3044:1 3049:1 3050:1 3051:1 3053:1 3055:1 3057:1 3058:1 3061:1 3062:1 3066:1 3067:1 3070:1 3072:1 3074:1 3077:1 3079:1 3080:1 3083:1 3087:1 3093:1 3095:1 3098:1 3099:1 3102:1 3105:1 3107:1 3110:1 3111:1 3112:1 3117:1 3118:1 3119:1 3120:1 3122:1 3123:1 3126:1 3127:1 3133:1 3134:1 3142:1 3143:1 3150:1 3156:1 3157:1 3158:1 3159:1 3160:1 3165:1 3166:1 3168:1 3175:1 3176:1 3179:1 3180:1 3185:1 3186:1 3187:1 3188:1 3189:1 3190:1 3191:1 3195:1 3196:1 3197:1 3198:1 3199:1 3201:1 3203:1 3206:1 3210:1 3213:1 3214:1 3218:1 3219:1 3221:1 3225:1 3227:1 3228:1 3230:1 3237:1 3240:1 3244:1 3250:1 3255:1 3258:1 3261:1 3264:1 3265:1 3268:1 3269:1 3270:1 3271:1 3272:1 3274:1 3276:1 3278:1 3281:1 3282:1 3283:1 3284:1 3286:1 3287:1 3292:1 3293:1 3294:1 3296:1 3297:1 3298:1 3301:1 3305:1 3306:1 3310:1 3313:1 3314:1 3316:1 3320:1 3326:1 3329:1 3331:1 3333:1 3336:1 3337:1 3338:1 3339:1 3340:1 3342:1 3343:1 3344:1 3345:1 3347:1 3348:1 3349:1 3351:1 3352:1 3353:1 3354:1 3355:1 3356:1 3357:1 3359:1 3363:1 3365:1 3373:1 3374:1 3375:1 3381:1 3384:1 3385:1 3386:1 3391:1 3394:1 3395:1 3409:1 3411:1 3418:1 3419:1 3420:1 3422:1 3423:1 3424:1 3426:1 3428:1 3431:1 3433:1 3434:1 3435:1 3441:1 3444:1 3445:1 3447:1 3448:1 3454:1 3455:1 3456:1 3457:1 3462:1 3464:1 3465:1 3466:1 3475:1 3482:1 3485:1 3488:1 3491:1 3492:1 3493:1 3495:1 3498:1 3501:1 3504:1 3506:1 3508:1 3509:1 3512:1 3525:1 3529:1 3530:1 3533:1 3535:1 3537:1 3546:1 3548:1 3550:1 3551:1 3554:1 3558:1 3564:1 3565:1 3571:1 3575:1 3577:1 3581:1 3582:1 3583:1 3584:1 3588:1 3589:1 3590:1 3595:1 3598:1 3602:1 3605:1 3607:1 3612:1 3614:1 3617:1 3623:1 3628:1 3629:1 3632:1 3636:1 3638:1 3642:1 3646:1 3650:1 3651:1 3652:1 3659:1 3660:1 3664:1 3669:1 3672:1 3681:1 3682:1 3688:1 3689:1 3690:1 3691:1 3695:1 3696:1 3697:1 3701:1 3702:1 3703:1 3705:1 3707:1 3709:1 3713:1 3715:1 3718:1 3719:1 3723:1 3724:1 3726:1 3727:1 3732:1 3735:1 3736:1 3737:1 3742:1 3744:1 3747:1 3749:1 3751:1 3753:1 3754:1 3756:1 3758:1 3764:1 3765:1 3770:1 3776:1 3779:1 3780:1 3783:1 3784:1 3790:1 3791:1 3795:1 3801:1 3802:1 3804:1 3811:1 3812:1 3814:1 3818:1 3822:1 3823:1 3835:1 3838:1 3839:1 3841:1 3843:1 3844:1 3863:1 3864:1 3869:1 3871:1 3873:1 3875:1 3877:1 3878:1 3879:1 3882:1 3886:1 3887:1 3888:1 3889:1 3893:1 3894:1 3897:1 3902:1 3906:1 3907:1 3913:1 3914:1 3918:1 3921:1 3922:1 3926:1 3929:1 3936:1 3937:1 3938:1 3941:1 3945:1 3946:1 3949:1 3950:1 3951:1 3954:1 3956:1 3957:1 3959:1 3961:1 3962:1 3965:1 3967:1 3969:1 3970:1 3973:1 3975:1 3977:1 3979:1 3982:1 3984:1 3985:1 3987:1 3990:1 3991:1 3993:1 3998:1 4000:1 4003:1 4004:1 4005:1 4006:1 4007:1 4015:1 4018:1 4019:1 4022:1 4024:1 4026:1 4028:1 4030:1 4032:1 4042:1 4044:1 4049:1 4050:1 4051:1 4052:1 4056:1 4057:1 4058:1 4059:1 4067:1 4068:1 4069:1 4070:1 4075:1 4076:1 4079:1 4081:1 4083:1 4086:1 4094:1 4095:1 4105:1 4107:1 4109:1 4112:1 4113:1 4118:1 4121:1 4122:1 4123:1 4127:1 4132:1 4133:1 4134:1 4140:1 4142:1 4143:1 4147:1 4149:1 4151:1 4152:1 4155:1 4158:1 4159:1 4161:1 4166:1 4171:1 4173:1 4177:1 4185:1 4192:1 4193:1 4196:1 4200:1 4202:1 4205:1 4208:1 4210:1 4211:1 4212:1 4213:1 4214:1 4218:1 4220:1 4222:1 4232:1 4233:1 4234:1 4236:1 4245:1 4246:1 4248:1 4250:1 4251:1 4254:1 4257:1 4258:1 4261:1 4263:1 4267:1 4268:1 4269:1 4270:1 4274:1 4281:1 4282:1 4284:1 4285:1 4288:1 4290:1 4291:1 4297:1 4298:1 4303:1 4305:1 4306:1 4311:1 4312:1 4315:1 4320:1 4323:1 4330:1 4332:1 4334:1 4340:1 4344:1 4347:1 4348:1 4349:1 4353:1 4357:1 4359:1 4362:1 4363:1 4364:1 4367:1 4375:1 4378:1 4379:1 4389:1 4392:1 4396:1 4397:1 4399:1 4400:1 4401:1 4403:1 4407:1 4412:1 4414:1 4416:1 4417:1 4418:1 4420:1 4421:1 4424:1 4425:1 4427:1 4429:1 4430:1 4432:1 4436:1 4437:1 4439:1 4440:1 4441:1 4447:1 4454:1 4455:1 4457:1 4460:1 4462:1 4463:1 4470:1 4471:1 4472:1 4475:1 4477:1 4478:1 4483:1 4486:1 4488:1 4490:1 4493:1 4494:1 4498:1 4499:1 4503:1 4504:1 4506:1 4514:1 4518:1 4526:1 4532:1 4533:1 4534:1 4536:1 4537:1 4539:1 4540:1 4545:1 4546:1 4547:1 4551:1 4554:1 4555:1 4562:1 4564:1 4565:1 4566:1 4570:1 4572:1 4575:1 4580:1 4581:1 4589:1 4590:1 4594:1 4595:1 4598:1 4599:1 4601:1 4602:1 4603:1 4604:1 4612:1 4616:1 4619:1 4620:1 4622:1 4624:1 4625:1 4626:1 4627:1 4628:1 4633:1 4635:1 4639:1 4642:1 4643:1 4645:1 4648:1 4649:1 4650:1 4657:1 4663:1 4666:1 4667:1 4668:1 4672:1 4673:1 4676:1 4678:1 4680:1 4681:1 4682:1 4683:1 4686:1 4689:1 4692:1 4693:1 4694:1 4703:1 4704:1 4705:1 4708:1 4713:1 4717:1 4718:1 4719:1 4720:1 4721:1 4725:1 4726:1 4728:1 4729:1 4730:1 4733:1 4737:1 4741:1 4744:1 4748:1 4755:1 4756:1 4759:1 4760:1 4762:1 4764:1 4766:1 4767:1 4772:1 4776:1 4778:1 4783:1 4785:1 4786:1 4789:1 4791:1 4793:1 4795:1 4798:1 4799:1 4801:1 4802:1 4805:1 4806:1 4808:1 4815:1 4816:1 4817:1 4818:1 4819:1 4824:1 4825:1 4830:1 4831:1 4834:1 4835:1 4836:1 4837:1 4842:1 4845:1 4846:1 4850:1 4851:1 4855:1 4862:1 4864:1 4865:1 4866:1 4867:1 4875:1 4877:1 4878:1 4879:1 4880:1 4882:1 4883:1 4884:1 4885:1 4887:1 4889:1 4892:1 4893:1 4894:1 4896:1 4897:1 4898:1 4899:1 4900:1 4905:1 4906:1 4907:1 4909:1 4912:1 4916:1 4918:1 4921:1 4922:1 4923:1 4924:1 4925:1 4927:1 4930:1 4933:1 4934:1 4935:1 4936:1 4938:1 4944:1 4945:1 4946:1 4948:1 4951:1 4952:1 4953:1 4954:1 4957:1 4959:1 4960:1 4961:1 4965:1 4967:1 4970:1 4973:1 4979:1 4980:1 4981:1 4982:1 4984:1 4991:1 4992:1 5003:1 5006:1 5008:1 5009:1 5011:1 5012:1 5013:1 5014:1 5015:1 5018:1 5022:1 5023:1 5025:1 5026:1 5027:1 5029:1 5030:1 5031:1 5032:1 5033:1 5034:1 5041:1 5045:1 5046:1 5052:1 5054:1 5055:1 5058:1 5061:1 5062:1 5063:1 5070:1 5072:1 5074:1 5078:1 5080:1 5081:1 5083:1 5087:1 5090:1 5091:1 5092:1 5094:1 5095:1 5096:1 5098:1 5100:1 5101:1 5104:1 5105:1 5106:1 5114:1 5115:1 5117:1 5120:1 5122:1 5123:1 5124:1 5125:1 5129:1 5130:1 5133:1 5135:1 5139:1 5140:1 5141:1 5142:1 5145:1 5146:1 5147:1 5149:1 5150:1 5152:1 5156:1 5157:1 5165:1 5169:1 5170:1 5171:1 5179:1 5180:1 5181:1 5182:1 5185:1 5186:1 5189:1 5190:1 5191:1 5194:1 5196:1 5198:1 5199:1 5200:1 5201:1 5203:1 5204:1 5207:1 5212:1 5214:1 5217:1 5218:1 5219:1 5221:1 5223:1 5229:1 5230:1 5232:1 5236:1 5239:1 5241:1 5242:1 5243:1 5245:1 5251:1 5252:1 5255:1 5260:1 5262:1 5265:1 5266:1 5268:1 5271:1 5277:1 5279:1 5281:1 5282:1 5290:1 5292:1 5297:1 5307:1 5308:1 5309:1 5310:1 5314:1 5317:1 5319:1 5320:1 5322:1 5326:1 5329:1 5331:1 5332:1 5334:1 5335:1 5337:1 5338:1 5340:1 5344:1 5346:1 5348:1 5351:1 5354:1 5361:1 5362:1 5365:1 5368:1 5369:1 5370:1 5377:1 5378:1 5380:1 5382:1 5387:1 5388:1 5390:1 5393:1 5394:1 5396:1 5397:1 5398:1 5400:1 5401:1 5406:1 5410:1 5411:1 5412:1 5414:1 5416:1 5419:1 5421:1 5424:1 5425:1 5426:1 5427:1 5428:1 5430:1 5432:1 5437:1 5438:1 5441:1 5443:1 5444:1 5445:1 5446:1 5448:1 5449:1 5455:1 5463:1 5467:1 5469:1 5471:1 5472:1 5473:1 5478:1 5482:1 5484:1 5485:1 5486:1 5491:1 5493:1 5494:1 5498:1 5500:1 5501:1 5502:1 5505:1 5506:1 5508:1 5509:1 5510:1 5511:1 5512:1 5513:1 5516:1 5517:1 5518:1 5519:1 5524:1 5525:1 5528:1 5529:1 5530:1 5531:1 5532:1 5537:1 5538:1 5540:1 5541:1 5542:1 5543:1 5545:1 5546:1 5547:1 5549:1 5551:1 5553:1 5554:1 5558:1 5560:1 5564:1 5565:1 5566:1 5573:1 5574:1 5576:1 5578:1 5579:1 5580:1 5586:1 5587:1 5588:1 5591:1 5592:1 5593:1 5595:1 5599:1 5601:1 5603:1 5604:1 5607:1 5610:1 5614:1 5615:1 5618:1 5623:1 5624:1 5634:1 5637:1 5638:1 5642:1 5644:1 5645:1 5646:1 5647:1 5650:1 5659:1 5672:1 5675:1 5678:1 5681:1 5683:1 5684:1 5686:1 5687:1 5689:1 5691:1 5693:1 5696:1 5697:1 5699:1 5700:1 5702:1 5704:1 5706:1 5707:1 5710:1 5712:1 5715:1 5717:1 5718:1 5722:1 5727:1 5728:1 5732:1 5733:1 5740:1 5742:1 5745:1 5747:1 5750:1 5754:1 5755:1 5756:1 5760:1 5766:1 5768:1 5770:1 5777:1 5782:1 5784:1 5787:1 5789:1 5791:1 5796:1 5799:1 5802:1 5804:1 5805:1 5806:1 5808:1 5810:1 5812:1 5815:1 5818:1 5819:1 5821:1 5822:1 5825:1 5826:1 5827:1 5833:1 5834:1 5835:1 5838:1 5839:1 5842:1 5845:1 5846:1 5847:1 5850:1 5855:1 5859:1 5860:1 5862:1 5863:1 5868:1 5869:1 5870:1 5872:1 5873:1 5874:1 5875:1 5878:1 5879:1 5880:1 5881:1 5883:1 5886:1 5894:1 5895:1 5897:1 5899:1 5904:1 5905:1 5906:1 5909:1 5910:1 5917:1 5919:1 5923:1 5924:1 5927:1 5928:1 5929:1 5933:1 5934:1 5937:1 5939:1 5940:1 5942:1 5947:1 5948:1 5949:1 5950:1 5951:1 5954:1 5956:1 5957:1 5962:1 5974:1 5975:1 5977:1 5978:1 5984:1 5985:1 5997:1 5998:1 5999:1 6002:1 6008:1 6009:1 6010:1 6012:1 6017:1 6020:1 6022:1 6023:1 6025:1 6026:1 6027:1 6028:1 6029:1 6030:1 6042:1 6043:1 6047:1 6048:1 6049:1 6050:1 6051:1 6054:1 6055:1 6059:1 6060:1 6064:1 6065:1 6066:1 6067:1 6069:1 6071:1 6072:1 6073:1 6078:1 6079:1 6083:1 6086:1 6087:1 6089:1 6090:1 6091:1 6093:1 6097:1 6098:1 6099:1 6100:1 6103:1 6105:1 6106:1 6109:1 6112:1 6115:1 6116:1 6123:1 6129:1 6136:1 6137:1 6139:1 6140:1 6141:1 6143:1 6146:1 6148:1 6149:1 6150:1 6155:1 6156:1 6163:1 6164:1 6167:1 6169:1 6171:1 6174:1 6177:1 6180:1 6184:1 6185:1 6186:1 6187:1 6195:1 6197:1 6200:1 6201:1 6202:1 6203:1 6205:1 6207:1 6209:1 6211:1 6213:1 6214:1 6215:1 6218:1 6220:1 6222:1 6225:1 6226:1 6229:1 6231:1 6233:1 6238:1 6239:1 6240:1 6241:1 6243:1 6244:1 6245:1 6247:1 6250:1 6256:1 6257:1 6258:1 6263:1 6268:1 6269:1 6271:1 6273:1 6278:1 6280:1 6284:1 6286:1 6288:1 6293:1 6295:1 6296:1 6305:1 6308:1 6315:1 6316:1 6317:1 6321:1 6322:1 6324:1 6325:1 6326:1 6328:1 6333:1 6334:1 6335:1 6337:1 6339:1 6340:1 6344:1 6347:1 6350:1 6354:1 6357:1 6363:1 6365:1 6371:1 6373:1 6376:1 6380:1 6383:1 6391:1 6401:1 6403:1 6405:1 6407:1 6410:1 6418:1 6429:1 6433:1 6435:1 6436:1 6438:1 6445:1 6447:1 6453:1 6454:1 6456:1 6460:1 6467:1 6470:1 6471:1 6473:1 6475:1 6477:1 6478:1 6480:1 6481:1 6487:1 6495:1 6496:1 6497:1 6501:1 6503:1 6505:1 6507:1 6511:1 6513:1 6514:1 6520:1 6521:1 6522:1 6524:1 6528:1 6533:1 6537:1 6541:1 6542:1 6549:1 6553:1 6554:1 6559:1 6561:1 6562:1 6565:1 6567:1 6575:1 6576:1 6577:1 6578:1 6579:1 6580:1 6581:1 6583:1 6585:1 6586:1 6589:1 6590:1 6595:1 6597:1 6598:1 6600:1 6602:1 6606:1 6611:1 6614:1 6616:1 6618:1 6619:1 6620:1 6624:1 6625:1 6629:1 6630:1 6631:1 6632:1 6633:1 6634:1 6635:1 6638:1 6640:1 6643:1 6645:1 6647:1 6648:1 6649:1 6651:1 6652:1 6653:1 6654:1 6655:1 6657:1 6658:1 6659:1 6663:1 6665:1 6666:1 6667:1 6668:1 6669:1 6671:1 6676:1 6678:1 6683:1 6684:1 6690:1 6691:1 6693:1 6699:1 6701:1 6703:1 6704:1 6707:1 6709:1 6714:1 6718:1 6721:1 6723:1 6733:1 6736:1 6739:1 6740:1 6756:1 6758:1 6759:1 6760:1 6761:1 6766:1 6768:1 6769:1 6770:1 6771:1 6777:1 6778:1 6781:1 6784:1 6786:1 6789:1 6793:1 6800:1 6801:1 6802:1 6806:1 6808:1 6809:1 6811:1 6813:1 6823:1 6824:1 6825:1 6828:1 6830:1 6831:1 6832:1 6844:1 6845:1 6846:1 6850:1 6852:1 6853:1 6855:1 6857:1 6858:1 6859:1 6861:1 6863:1 6864:1 6868:1 6869:1 6870:1 6874:1 6879:1 6881:1 6882:1 6886:1 6887:1 6898:1 6899:1 6900:1 6901:1 6902:1 6904:1 6906:1 6907:1 6909:1 6911:1 6914:1 6918:1 6920:1 6923:1 6925:1 6926:1 6928:1 6930:1 6932:1 6933:1 6944:1 6949:1 6950:1 6952:1 6954:1 6955:1 6963:1 6966:1 6967:1 6968:1 6973:1 6974:1 6979:1 6987:1 6988:1 6989:1 6990:1 6993:1 6994:1 6997:1 6998:1 7002:1 7003:1 7004:1 7006:1 7011:1 7015:1 7016:1 7019:1 7023:1 7024:1 7025:1 7027:1 7028:1 7031:1 7032:1 7033:1 7034:1 7036:1 7041:1 7043:1 7044:1 7046:1 7049:1 7050:1 7051:1 7058:1 7060:1 7063:1 7064:1 7066:1 7067:1 7069:1 7076:1 7078:1 7080:1 7081:1 7083:1 7084:1 7085:1 7087:1 7088:1 7089:1 7091:1 7093:1 7095:1 7106:1 7109:1 7112:1 7115:1 7116:1 7118:1 7126:1 7127:1 7130:1 7132:1 7133:1 7134:1 7137:1 7143:1 7144:1 7148:1 7151:1 7154:1 7158:1 7159:1 7161:1 7164:1 7165:1 7166:1 7167:1 7168:1 7169:1 7170:1 7172:1 7176:1 7177:1 7178:1 7182:1 7183:1 7185:1 7191:1 7193:1 7195:1 7196:1 7197:1 7200:1 7202:1 7207:1 7209:1 7211:1 7213:1 7216:1 7221:1 7228:1 7229:1 7233:1 7234:1 7235:1 7237:1 7240:1 7251:1 7253:1 7255:1 7256:1 7257:1 7258:1 7261:1 7262:1 7264:1 7265:1 7267:1 7268:1 7269:1 7274:1 7279:1 7280:1 7283:1 7284:1 7287:1 7296:1 7300:1 7302:1 7303:1 7308:1 7310:1 7311:1 7312:1 7314:1 7318:1 7320:1 7322:1 7325:1 7326:1 7330:1 7332:1 7336:1 7341:1 7345:1 7346:1 7350:1 7353:1 7358:1 7363:1 7367:1 7368:1 7369:1 7370:1 7371:1 7373:1 7374:1 7379:1 7382:1 7384:1 7389:1 7390:1 7391:1 7392:1 7395:1 7396:1 7397:1 7398:1 7400:1 7401:1 7405:1 7415:1 7416:1 7419:1 7425:1 7429:1 7430:1 7435:1 7436:1 7438:1 7444:1 7446:1 7451:1 7453:1 7455:1 7456:1 7459:1 7463:1 7464:1 7465:1 7469:1 7472:1 7473:1 7475:1 7477:1 7483:1 7484:1 7486:1 7487:1 7489:1 7492:1 7495:1 7496:1 7498:1 7501:1 7503:1 7504:1 7505:1 7507:1 7508:1 7509:1 7512:1 7514:1 7516:1 7520:1 7524:1 7525:1 7527:1 7531:1 7532:1 7536:1 7538:1 7539:1 7540:1 7542:1 7543:1 7548:1 7551:1 7552:1 7553:1 7554:1 7559:1 7565:1 7567:1 7568:1 7573:1 7580:1 7582:1 7583:1 7584:1 7585:1 7586:1 7587:1 7589:1 7590:1 7596:1 7597:1 7600:1 7601:1 7604:1 7605:1 7606:1 7607:1 7608:1 7609:1 7613:1 7614:1 7615:1 7616:1 7620:1 7622:1 7624:1 7625:1 7627:1 7630:1 7631:1 7638:1 7639:1 7641:1 7643:1 7644:1 7646:1 7647:1 7649:1 7652:1 7653:1 7656:1 7658:1 7660:1 7665:1 7666:1 7667:1 7669:1 7672:1 7674:1 7678:1 7684:1 7685:1 7687:1 7690:1 7691:1 7693:1 7697:1 7699:1 7704:1 7707:1 7710:1 7712:1 7713:1 7718:1 7723:1 7725:1 7726:1 7727:1 7728:1 7731:1 7734:1 7735:1 7737:1 7739:1 7741:1 7752:1 7755:1 7759:1 7760:1 7762:1 7765:1 7766:1 7767:1 7770:1 7772:1 7775:1 7777:1 7779:1 7785:1 7789:1 7790:1 7792:1 7793:1 7795:1 7796:1 7798:1 7802:1 7803:1 7809:1 7814:1 7817:1 7819:1 7821:1 7824:1 7825:1 7826:1 7830:1 7832:1 7833:1 7834:1 7839:1 7846:1 7847:1 7848:1 7850:1 7851:1 7852:1 7853:1 7854:1 7855:1 7861:1 7863:1 7866:1 7874:1 7875:1 7881:1 7882:1 7883:1 7885:1 7886:1 7889:1 7890:1 7894:1 7896:1 7897:1 7898:1 7899:1 7902:1 7904:1 7908:1 7909:1 7916:1 7919:1 7923:1 7924:1 7927:1 7930:1 7933:1 7934:1 7938:1 7941:1 7942:1 7943:1 7945:1 7947:1 7948:1 7951:1 7954:1 7955:1 7959:1 7960:1 7961:1 7963:1 7965:1 7966:1 7969:1 7972:1 7975:1 7977:1 7983:1 7984:1 7995:1 7996:1 7999:1 8005:1 8006:1 8009:1 8014:1 8015:1 8018:1 8019:1 8020:1 8022:1 8028:1 8029:1 8031:1 8032:1 8034:1 8035:1 8037:1 8038:1 8039:1 8040:1 8046:1 8049:1 8053:1 8060:1 8062:1 8067:1 8068:1 8069:1 8070:1 8071:1 8074:1 8076:1 8077:1 8078:1 8079:1 8093:1 8094:1 8096:1 8100:1 8103:1 8105:1 8109:1 8116:1 8118:1 8127:1 8128:1 8134:1 8144:1 8146:1 8149:1 8150:1 8153:1 8154:1 8155:1 8156:1 8157:1 8159:1 8161:1 8163:1 8164:1 8166:1 8171:1 8178:1 8179:1 8180:1 8188:1 8193:1 8194:1 8196:1 8199:1 8200:1 8207:1 8208:1 8210:1 8211:1 8215:1 8216:1 8217:1 8219:1 8220:1 8222:1 8223:1 8227:1 8229:1 8230:1 8234:1 8237:1 8239:1 8241:1 8244:1 8252:1 8255:1 8258:1 8260:1 8262:1 8263:1 8265:1 8266:1 8269:1 8270:1 8272:1 8274:1 8277:1 8282:1 8287:1 8288:1 8292:1 8295:1 8297:1 8300:1 8301:1 8302:1 8308:1 8309:1 8310:1 8316:1 8319:1 8324:1 8327:1 8329:1 8330:1 8332:1 8337:1 8338:1 8340:1 8341:1 8347:1 8348:1 8350:1 8351:1 8352:1 8354:1 8356:1 8357:1 8358:1 8359:1 8360:1 8362:1 8363:1 8367:1 8371:1 8372:1 8374:1 8382:1 8383:1 8385:1 8388:1 8389:1 8390:1 8393:1 8394:1 8395:1 8397:1 8398:1 8399:1 8400:1 8402:1 8404:1 8406:1 8409:1 8411:1 8413:1 8418:1 8419:1 8420:1 8422:1 8425:1 8426:1 8429:1 8431:1 8432:1 8436:1 8445:1 8449:1 8451:1 8456:1 8459:1 8466:1 8473:1 8474:1 8475:1 8479:1 8480:1 8481:1 8484:1 8486:1 8489:1 8493:1 8496:1 8497:1 8500:1 8501:1 8502:1 8505:1 8507:1 8510:1 8512:1 8514:1 8515:1 8520:1 8524:1 8527:1 8529:1 8534:1 8535:1 8536:1 8539:1 8540:1 8542:1 8543:1 8544:1 8545:1 8546:1 8549:1 8550:1 8554:1 8555:1 8556:1 8557:1 8560:1 8562:1 8564:1 8569:1 8571:1 8573:1 8575:1 8578:1 8582:1 8583:1 8584:1 8587:1 8589:1 8590:1 8591:1 8592:1 8595:1 8596:1 8598:1 8599:1 8602:1 8605:1 8608:1 8610:1 8611:1 8615:1 8616:1 8618:1 8619:1 8624:1 8626:1 8627:1 8628:1 8629:1 8631:1 8633:1 8634:1 8637:1 8638:1 8640:1 8647:1 8648:1 8649:1 8651:1 8655:1 8658:1 8659:1 8660:1 8661:1 8666:1 8669:1 8676:1 8677:1 8683:1 8687:1 8688:1 8691:1 8692:1 8694:1 8697:1 8698:1 8702:1 8704:1 8708:1 8709:1 8710:1 8715:1 8720:1 8724:1 8729:1 8732:1 8733:1 8734:1 8743:1 8746:1 8748:1 8749:1 8750:1 8751:1 8752:1 8758:1 8761:1 8764:1 8765:1 8768:1 8772:1 8778:1 8779:1 8780:1 8784:1 8790:1 8791:1 8792:1 8803:1 8804:1 8805:1 8806:1 8808:1 8809:1 8812:1 8815:1 8816:1 8818:1 8819:1 8820:1 8821:1 8823:1 8824:1 8828:1 8829:1 8832:1 8838:1 8839:1 8840:1 8853:1 8854:1 8856:1 8858:1 8860:1 8864:1 8867:1 8868:1 8870:1 8872:1 8873:1 8876:1 8878:1 8880:1 8881:1 8883:1 8884:1 8886:1 8888:1 8889:1 8893:1 8898:1 8901:1 8902:1 8903:1 8904:1 8912:1 8913:1 8914:1 8915:1 8916:1 8919:1 8921:1 8922:1 8925:1 8926:1 8928:1 8929:1 8930:1 8932:1 8935:1 8937:1 8939:1 8941:1 8942:1 8943:1 8944:1 8948:1 8949:1 8954:1 8956:1 8957:1 8963:1 8964:1 8966:1 8969:1 8971:1 8972:1 8974:1 8976:1 8978:1 8980:1 8982:1 8983:1 8989:1 8990:1 8991:1 8994:1 8995:1 8997:1 8999:1 9004:1 9008:1 9009:1 9011:1 9014:1 9015:1 9016:1 9019:1 9020:1 9022:1 9024:1 9025:1 9026:1 9027:1 9028:1 9030:1 9037:1 9038:1 9039:1 9043:1 9044:1 9045:1 9046:1 9048:1 9049:1 9050:1 9055:1 9057:1 9059:1 9061:1 9066:1 9067:1 9068:1 9069:1 9072:1 9075:1 9076:1 9079:1 9084:1 9085:1 9088:1 9089:1 9092:1 9093:1 9094:1 9095:1 9096:1 9105:1 9108:1 9115:1 9119:1 9120:1 9123:1 9124:1 9125:1 9127:1 9128:1 9133:1 9135:1 9136:1 9137:1 9139:1 9140:1 9141:1 9142:1 9148:1 9154:1 9155:1 9157:1 9158:1 9164:1 9166:1 9167:1 9169:1 9170:1 9177:1 9182:1 9186:1 9188:1 9190:1 9191:1 9192:1 9197:1 9198:1 9200:1 9202:1 9203:1 9205:1 9206:1 9210:1 9212:1 9214:1 9215:1 9218:1 9220:1 9223:1 9229:1 9230:1 9240:1 9241:1 9242:1 9247:1 9251:1 9261:1 9266:1 9267:1 9268:1 9269:1 9271:1 9276:1 9277:1 9278:1 9279:1 9281:1 9282:1 9286:1 9289:1 9291:1 9297:1 9299:1 9303:1 9305:1 9307:1 9312:1 9313:1 9316:1 9319:1 9321:1 9322:1 9324:1 9326:1 9328:1 9334:1 9335:1 9339:1 9341:1 9345:1 9347:1 9348:1 9354:1 9355:1 9360:1 9362:1 9363:1 9371:1 9372:1 9375:1 9377:1 9378:1 9381:1 9383:1 9392:1 9393:1 9394:1 9395:1 9400:1 9401:1 9402:1 9407:1 9409:1 9414:1 9415:1 9419:1 9420:1 9422:1 9423:1 9424:1 9427:1 9434:1 9437:1 9441:1 9446:1 9448:1 9451:1 9452:1 9453:1 9456:1 9461:1 9463:1 9465:1 9466:1 9470:1 9472:1 9473:1 9474:1 9476:1 9477:1 9481:1 9482:1 9483:1 9485:1 9492:1 9493:1 9494:1 9498:1 9499:1 9500:1 9502:1 9504:1 9505:1 9508:1 9511:1 9513:1 9519:1 9524:1 9525:1 9526:1 9529:1 9530:1 9531:1 9533:1 9534:1 9543:1 9545:1 9548:1 9549:1 9555:1 9557:1 9560:1 9561:1 9564:1 9568:1 9571:1 9572:1 9575:1 9580:1 9581:1 9582:1 9589:1 9591:1 9592:1 9593:1 9594:1 9595:1 9600:1 9604:1 9611:1 9612:1 9613:1 9614:1 9615:1 9616:1 9617:1 9620:1 9621:1 9626:1 9629:1 9630:1 9633:1 9635:1 9636:1 9637:1 9638:1 9641:1 9648:1 9651:1 9652:1 9653:1 9654:1 9656:1 9658:1 9665:1 9668:1 9670:1 9673:1 9679:1 9681:1 9685:1 9688:1 9689:1 9690:1 9692:1 9693:1 9694:1 9696:1 9697:1 9698:1 9706:1 9711:1 9712:1 9716:1 9721:1 9724:1 9725:1 9726:1 9729:1 9730:1 9732:1 9733:1 9734:1 9739:1 9740:1 9743:1 9745:1 9747:1 9748:1 9750:1 9751:1 9753:1 9754:1 9755:1 9759:1 9760:1 9762:1 9769:1 9771:1 9775:1 9778:1 9779:1 9781:1 9786:1 9787:1 9789:1 9791:1 9792:1 9793:1 9797:1 9798:1 9799:1 9800:1 9802:1 9805:1 9806:1 9807:1 9810:1 9811:1 9813:1 9814:1 9815:1 9816:1 9819:1 9821:1 9824:1 9827:1 9830:1 9833:1 9836:1 9843:1 9848:1 9854:1 9855:1 9856:1 9857:1 9858:1 9861:1 9866:1 9869:1 9870:1 9873:1 9877:1 9879:1 9880:1 9882:1 9884:1 9885:1 9888:1 9892:1 9893:1 9895:1 9896:1 9898:1 9900:1 9901:1 9903:1 9904:1 9905:1 9907:1 9909:1 9911:1 9913:1 9914:1 9920:1 9924:1 9928:1 9930:1 9932:1 9933:1 9940:1 9941:1 9943:1 9944:1 9945:1 9950:1 9952:1 9956:1 9958:1 9962:1 9963:1 9977:1 9982:1 9983:1 9987:1 9988:1 9991:1 9992:1 9993:1 9995:1 9998:1 10001:1 10004:1 10010:1 10012:1 10014:1 10015:1 10022:1 10023:1 10024:1 10025:1 10027:1 10028:1 10032:1 10034:1 10036:1 10037:1 10038:1 10040:1 10041:1 10044:1 10047:1 10048:1 10049:1 10050:1 10053:1 10054:1 10055:1 10062:1 10068:1 10069:1 10075:1 10078:1 10081:1 10083:1 10084:1 10087:1 10089:1 10091:1 10092:1 10095:1 10098:1 10100:1 10102:1 10103:1 10104:1 10105:1 10106:1 10113:1 10115:1 10117:1 10123:1 10124:1 10127:1 10131:1 10137:1 10139:1 10141:1 10142:1 10148:1 10150:1 10154:1 10155:1 10156:1 10157:1 10161:1 10163:1 10164:1 10168:1 10170:1 10173:1 10174:1 10176:1 10178:1 10181:1 10183:1 10187:1 10188:1 10189:1 10191:1 10192:1 10194:1 10196:1 10197:1 10198:1 10199:1 10200:1 10202:1 10204:1 10211:1 10216:1 10219:1 10220:1 10221:1 10223:1 10224:1 10228:1 10229:1 10236:1 10237:1 10243:1 10244:1 10245:1 10246:1 10258:1 10264:1 10266:1 10267:1 10272:1 10273:1 10276:1 10280:1 10284:1 10286:1 10289:1 10290:1 10294:1 10303:1 10305:1 10306:1 10314:1 10318:1 10319:1 10322:1 10323:1 10325:1 10329:1 10331:1 10332:1 10334:1 10335:1 10338:1 10339:1 10340:1 10342:1 10343:1 10345:1 10346:1 10349:1 10353:1 10355:1 10356:1 10359:1 10360:1 10361:1 10365:1 10367:1 10372:1 10377:1 10379:1 10381:1 10382:1 10387:1 10389:1 10390:1 10391:1 10393:1 10398:1 10399:1 10401:1 10404:1 10407:1 10411:1 10412:1 10414:1 10417:1 10426:1 10429:1 10430:1 10434:1 10436:1 10437:1 10450:1 10455:1 10456:1 10459:1 10462:1 10468:1 10472:1 10475:1 10477:1 10479:1 10480:1 10482:1 10488:1 10489:1 10491:1 10494:1 10495:1 10499:1 10503:1 10505:1 10506:1 10510:1 10513:1 10515:1 10520:1 10523:1 10527:1 10529:1 10533:1 10534:1 10536:1 10542:1 10544:1 10545:1 10547:1 10548:1 10549:1 10554:1 10559:1 10560:1 10561:1 10565:1 10566:1 10574:1 10575:1 10586:1 10587:1 10589:1 10591:1 10595:1 10598:1 10599:1 10600:1 10601:1 10602:1 10604:1 10605:1 10608:1 10609:1 10612:1 10615:1 10616:1 10619:1 10620:1 10621:1 10622:1 10627:1 10629:1 10631:1 10637:1 10639:1 10640:1 10647:1 10648:1 10650:1 10651:1 10654:1 10657:1 10658:1 10659:1 10661:1 10664:1 10668:1 10672:1 10673:1 10677:1 10680:1 10681:1 10682:1 10683:1 10684:1 10685:1 10688:1 10691:1 10692:1 10696:1 10698:1 10701:1 10702:1 10703:1 10704:1 10705:1 10715:1 10716:1 10719:1 10720:1 10721:1 10724:1 10730:1 10735:1 10737:1 10739:1 10740:1 10742:1 10743:1 10746:1 10747:1 10750:1 10752:1 10755:1 10757:1 10758:1 10762:1 10764:1 10765:1 10768:1 10773:1 10774:1 10776:1 10778:1 10781:1 10783:1 10784:1 10788:1 10791:1 10792:1 10793:1 10795:1 10797:1 10798:1 10799:1 10800:1 10801:1 10805:1 10806:1 10807:1 10808:1 10814:1 10818:1 10819:1 10821:1 10823:1 10828:1 10831:1 10832:1 10835:1 10839:1 10841:1 10842:1 10843:1 10844:1 10849:1 10850:1 10852:1 10856:1 10858:1 10861:1 10864:1 10867:1 10868:1 10872:1 10875:1 10876:1 10879:1 10881:1 10883:1 10885:1 10889:1 10898:1 10901:1 10902:1 10907:1 10911:1 10914:1 10917:1 10918:1 10919:1 10921:1 10925:1 10927:1 10929:1 10935:1 10936:1 10940:1 10943:1 10947:1 10953:1 10954:1 10955:1 10956:1 10957:1 10960:1 10964:1 10965:1 10968:1 10969:1 10971:1 10972:1 10976:1 10977:1 10980:1 10985:1 10987:1 10988:1 10991:1 10992:1 10993:1 10995:1 10996:1 11000:1 11012:1 11017:1 11018:1 11019:1 11020:1 11022:1 11024:1 11027:1 11028:1 11029:1 11030:1 11031:1 11035:1 11036:1 11038:1 11039:1 11044:1 11045:1 11046:1 11049:1 11051:1 11052:1 11053:1 11054:1 11057:1 11059:1 11060:1 11062:1 11063:1 11067:1 11068:1 11073:1 11078:1 11080:1 11081:1 11083:1 11084:1 11086:1 11087:1 11088:1 11089:1 11090:1 11092:1 11094:1 11098:1 11100:1 11103:1 11104:1 11106:1 11107:1 11110:1 11111:1 11112:1 11113:1 11126:1 11127:1 11133:1 11136:1 11138:1 11140:1 11145:1 11147:1 11149:1 11152:1 11153:1 11160:1 11161:1 11163:1 11166:1 11177:1 11178:1 11181:1 11184:1 11185:1 11187:1 11193:1 11196:1 11205:1 11208:1 11210:1 11212:1 11214:1 11217:1 11218:1 11220:1 11223:1 11224:1 11226:1 11228:1 11229:1 11231:1 11232:1 11233:1 11234:1 11235:1 11239:1 11243:1 11246:1 11247:1 11249:1 11251:1 11252:1 11253:1 11255:1 11256:1 11259:1 11264:1 11271:1 11272:1 11275:1 11280:1 11281:1 11283:1 11284:1 11285:1 11289:1 11292:1 11293:1 11294:1 11296:1 11298:1 11299:1 11302:1 11303:1 11304:1 11311:1 11313:1 11321:1 11324:1 11326:1 11328:1 11330:1 11331:1 11333:1 11336:1 11337:1 11341:1 11342:1 11343:1 11345:1 11346:1 11348:1 11349:1 11350:1 11354:1 11355:1 11356:1 11360:1 11364:1 11365:1 11368:1 11369:1 11371:1 11373:1 11380:1 11381:1 11384:1 11397:1 11401:1 11404:1 11407:1 11408:1 11409:1 11413:1 11423:1 11426:1 11431:1 11439:1 11446:1 11447:1 11451:1 11453:1 11455:1 11456:1 11459:1 11460:1 11465:1 11466:1 11469:1 11471:1 11474:1 11476:1 11478:1 11480:1 11481:1 11482:1 11484:1 11488:1 11489:1 11492:1 11493:1 11494:1 11495:1 11496:1 11498:1 11499:1 11500:1 11501:1 11503:1 11507:1 11510:1 11513:1 11515:1 11518:1 11521:1 11522:1 11523:1 11525:1 11526:1 11533:1 11534:1 11535:1 11536:1 11544:1 11550:1 11555:1 11564:1 11566:1 11568:1 11570:1 11573:1 11574:1 11575:1 11576:1 11579:1 11580:1 11582:1 11588:1 11589:1 11591:1 11593:1 11594:1 11599:1 11604:1 11606:1 11607:1 11610:1 11611:1 11614:1 11615:1 11618:1 11621:1 11623:1 11632:1 11634:1 11637:1 11639:1 11640:1 11641:1 11644:1 11652:1 11654:1 11657:1 11659:1 11661:1 11662:1 11665:1 11666:1 11667:1 11678:1 11681:1 11684:1 11690:1 11691:1 11695:1 11698:1 11699:1 11700:1 11704:1 11706:1 11713:1 11714:1 11716:1 11717:1 11718:1 11721:1 11723:1 11724:1 11727:1 11728:1 11731:1 11733:1 11734:1 11735:1 11736:1 11738:1 11740:1 11743:1 11745:1 11746:1 11748:1 11750:1 11756:1 11764:1 11765:1 11768:1 11772:1 11773:1 11776:1 11779:1 11780:1 11783:1 11787:1 11790:1 11792:1 11796:1 11798:1 11799:1 11802:1 11803:1 11806:1 11817:1 11818:1 11821:1 11822:1 11823:1 11824:1 11826:1 11829:1 11832:1 11834:1 11836:1 11843:1 11851:1 11852:1 11853:1 11859:1 11864:1 11869:1 11876:1 11886:1 11890:1 11891:1 11893:1 11895:1 11896:1 11898:1 11900:1 11903:1 11904:1 11908:1 11909:1 11913:1 11915:1 11916:1 11917:1 11918:1 11921:1 11922:1 11923:1 11929:1 11932:1 11937:1 11939:1 11943:1 11953:1 11954:1 11956:1 11958:1 11959:1 11961:1 11963:1 11966:1 11967:1 11970:1 11972:1 11973:1 11978:1 11979:1 11980:1 11981:1 11982:1 11983:1 11987:1 11988:1 11989:1 11990:1 11991:1 11992:1 11993:1 11994:1 11996:1 11999:1 12000:1 12001:1 12004:1 12010:1 12013:1 12017:1 12018:1 12019:1 12020:1 12027:1 12029:1 12030:1 12033:1 12034:1 12040:1 12041:1 12042:1 12043:1 12044:1 12050:1 12057:1 12062:1 12064:1 12073:1 12075:1 12078:1 12079:1 12081:1 12084:1 12085:1 12086:1 12088:1 12090:1 12093:1 12094:1 12098:1 12099:1 12101:1 12104:1 12109:1 12110:1 12111:1 12112:1 12113:1 12121:1 12123:1 12127:1 12128:1 12129:1 12132:1 12134:1 12138:1 12140:1 12141:1 12147:1 12148:1 12150:1 12151:1 12155:1 12157:1 12169:1 12173:1 12174:1 12177:1 12183:1 12185:1 12189:1 12191:1 12192:1 12193:1 12201:1 12202:1 12210:1 12212:1 12216:1 12218:1 12221:1 12222:1 12230:1 12231:1 12233:1 12235:1 12237:1 12239:1 12240:1 12242:1 12247:1 12249:1 12254:1 12255:1 12258:1 12261:1 12265:1 12268:1 12270:1 12274:1 12276:1 12278:1 12283:1 12289:1 12300:1 12301:1 12303:1 12309:1 12310:1 12311:1 12312:1 12313:1 12329:1 12332:1 12333:1 12334:1 12335:1 12336:1 12341:1 12342:1 12343:1 12346:1 12348:1 12349:1 12350:1 12354:1 12358:1 12359:1 12362:1 12369:1 12373:1 12376:1 12379:1 12385:1 12388:1 12392:1 12393:1 12394:1 12395:1 12397:1 12398:1 12400:1 12402:1 12406:1 12408:1 12412:1 12413:1 12414:1 12415:1 12419:1 12420:1 12425:1 12428:1 12430:1 12432:1 12434:1 12435:1 12438:1 12439:1 12442:1 12444:1 12446:1 12448:1 12454:1 12455:1 12456:1 12458:1 12470:1 12471:1 12472:1 12476:1 12478:1 12479:1 12480:1 12482:1 12484:1 12491:1 12493:1 12494:1 12495:1 12496:1 12502:1 12505:1 12508:1 12509:1 12510:1 12513:1 12515:1 12516:1 12518:1 12520:1 12524:1 12528:1 12529:1 12530:1 12531:1 12532:1 12534:1 12535:1 12538:1 12539:1 12540:1 12543:1 12544:1 12546:1 12549:1 12551:1 12558:1 12560:1 12563:1 12569:1 12570:1 12574:1 12577:1 12578:1 12579:1 12580:1 12581:1 12585:1 12592:1 12593:1 12594:1 12597:1 12598:1 12602:1 12608:1 12611:1 12613:1 12617:1 12620:1 12621:1 12625:1 12630:1 12631:1 12633:1 12637:1 12638:1 12639:1 12643:1 12645:1 12646:1 12648:1 12655:1 12656:1 12658:1 12659:1 12662:1 12667:1 12671:1 12674:1 12675:1 12676:1 12677:1 12678:1 12679:1 12682:1 12684:1 12687:1 12691:1 12692:1 12697:1 12703:1 12704:1 12707:1 12708:1 12709:1 12710:1 12712:1 12717:1 12718:1 12719:1 12720:1 12722:1 12726:1 12727:1 12728:1 12732:1 12735:1 12739:1 12740:1 12742:1 12744:1 12750:1 12751:1 12752:1 12753:1 12761:1 12762:1 12763:1 12764:1 12765:1 12766:1 12767:1 12770:1 12772:1 12774:1 12782:1 12784:1 12791:1 12793:1 12794:1 12797:1 12798:1 12800:1 12805:1 12807:1 12808:1 12809:1 12811:1 12812:1 12816:1 12818:1 12823:1 12825:1 12828:1 12831:1 12836:1 12838:1 12842:1 12844:1 12845:1 12847:1 12848:1 12849:1 12851:1 12856:1 12859:1 12863:1 12865:1 12866:1 12872:1 12873:1 12874:1 12878:1 12883:1 12884:1 12885:1 12890:1 12893:1 12895:1 12897:1 12899:1 12901:1 12903:1 12904:1 12906:1 12908:1 12909:1 12913:1 12915:1 12917:1 12919:1 12921:1 12922:1 12924:1 12925:1 12929:1 12930:1 12931:1 12934:1 12941:1 12943:1 12947:1 12951:1 12952:1 12953:1 12957:1 12961:1 12964:1 12969:1 12972:1 12974:1 12976:1 12985:1 12987:1 12992:1 12993:1 12996:1 12997:1 12999:1 13001:1 13002:1 13003:1 13005:1 13013:1 13017:1 13021:1 13023:1 13024:1 13026:1 13032:1 13033:1 13043:1 13047:1 13048:1 13051:1 13052:1 13054:1 13056:1 13059:1 13060:1 13066:1 13067:1 13068:1 13069:1 13070:1 13074:1 13076:1 13083:1 13085:1 13087:1 13091:1 13092:1 13093:1 13095:1 13096:1 13100:1 13106:1 13108:1 13109:1 13111:1 13112:1 13113:1 13114:1 13115:1 13116:1 13117:1 13120:1 13121:1 13122:1 13123:1 13125:1 13127:1 13130:1 13145:1 13147:1 13150:1 13152:1 13154:1 13157:1 13160:1 13162:1 13164:1 13165:1 13168:1 13172:1 13176:1 13179:1 13187:1 13191:1 13192:1 13193:1 13195:1 13201:1 13202:1 13211:1 13214:1 13221:1 13229:1 13230:1 13231:1 13232:1 13237:1 13239:1 13241:1 13242:1 13243:1 13246:1 13248:1 13251:1 13252:1 13256:1 13259:1 13260:1 13266:1 13271:1 13276:1 13277:1 13278:1 13281:1 13282:1 13285:1 13287:1 13288:1 13289:1 13292:1 13297:1 13298:1 13299:1 13301:1 13308:1 13311:1 13312:1 13314:1 13315:1 13324:1 13326:1 13330:1 13337:1 13338:1 13339:1 13340:1 13341:1 13344:1 13348:1 13349:1 13350:1 13351:1 13355:1 13356:1 13361:1 13364:1 13365:1 13368:1 13376:1 13377:1 13378:1 13379:1 13380:1 13386:1 13388:1 13389:1 13390:1 13391:1 13393:1 13394:1 13395:1 13396:1 13402:1 13403:1 13404:1 13405:1 13413:1 13416:1 13419:1 13421:1 13423:1 13426:1 13431:1 13432:1 13433:1 13434:1 13436:1 13441:1 13442:1 13446:1 13448:1 13451:1 13452:1 13453:1 13454:1 13458:1 13461:1 13463:1 13464:1 13465:1 13469:1 13473:1 13476:1 13477:1 13479:1 13483:1 13486:1 13489:1 13490:1 13491:1 13493:1 13494:1 13497:1 13499:1 13500:1 13501:1 13504:1 13510:1 13511:1 13512:1 13514:1 13515:1 13518:1 13520:1 13530:1 13531:1 13532:1 13537:1 13538:1 13541:1 13544:1 13545:1 13549:1 13551:1 13554:1 13555:1 13560:1 13564:1 13572:1 13578:1 13587:1 13593:1 13594:1 13595:1 13598:1 13599:1 13603:1 13604:1 13607:1 13611:1 13613:1 13618:1 13619:1 13622:1 13624:1 13625:1 13628:1 13629:1 13630:1 13631:1 13632:1 13635:1 13638:1 13642:1 13644:1 13647:1 13648:1 13649:1 13650:1 13653:1 13654:1 13655:1 13656:1 13657:1 13658:1 13661:1 13665:1 13666:1 13669:1 13670:1 13672:1 13675:1 13676:1 13679:1 13681:1 13682:1 13685:1 13687:1 13692:1 13694:1 13696:1 13697:1 13698:1 13701:1 13702:1 13704:1 13706:1 13707:1 13708:1 13710:1 13711:1 13714:1 13716:1 13718:1 13719:1 13724:1 13725:1 13726:1 13727:1 13731:1 13734:1 13738:1 13740:1 13744:1 13745:1 13751:1 13752:1 13753:1 13755:1 13757:1 13758:1 13762:1 13764:1 13766:1 13768:1 13769:1 13772:1 13777:1 13782:1 13784:1 13785:1 13786:1 13787:1 13789:1 13790:1 13791:1 13794:1 13802:1 13806:1 13808:1 13809:1 13811:1 13813:1 13818:1 13820:1 13822:1 13823:1 13825:1 13826:1 13829:1 13832:1 13834:1 13836:1 13839:1 13840:1 13842:1 13845:1 13849:1 13855:1 13858:1 13861:1 13863:1 13864:1 13866:1 13874:1 13878:1 13885:1 13886:1 13887:1 13889:1 13891:1 13909:1 13910:1 13911:1 13913:1 13914:1 13915:1 13921:1 13923:1 13927:1 13928:1 13929:1 13931:1 13932:1 13937:1 13938:1 13940:1 13941:1 13942:1 13944:1 13946:1 13950:1 13951:1 13956:1 13958:1 13965:1 13966:1 13970:1 13973:1 13977:1 13981:1 13984:1 13985:1 13986:1 13987:1 13992:1 13995:1 13996:1 13997:1 13998:1 14002:1 14006:1 14011:1 14013:1 14014:1 14016:1 14017:1 14022:1 14028:1 14030:1 14031:1 14032:1 14033:1 14035:1 14036:1 14037:1 14038:1 14045:1 14048:1 14052:1 14054:1 14055:1 14056:1 14057:1 14058:1 14059:1 14060:1 14063:1 14065:1 14066:1 14068:1 14070:1 14071:1 14073:1 14076:1 14078:1 14080:1 14085:1 14086:1 14090:1 14092:1 14093:1 14100:1 14103:1 14104:1 14105:1 14106:1 14111:1 14113:1 14114:1 14115:1 14116:1 14119:1 14125:1 14129:1 14130:1 14132:1 14137:1 14138:1 14140:1 14141:1 14142:1 14143:1 14144:1 14146:1 14147:1 14148:1 14150:1 14156:1 14163:1 14166:1 14172:1 14175:1 14178:1 14180:1 14184:1 14185:1 14186:1 14188:1 14189:1 14193:1 14194:1 14195:1 14198:1 14199:1 14204:1 14206:1 14207:1 14208:1 14211:1 14213:1 14214:1 14221:1 14229:1 14232:1 14233:1 14237:1 14251:1 14259:1 14261:1 14263:1 14264:1 14266:1 14267:1 14270:1 14272:1 14275:1 14276:1 14277:1 14283:1 14285:1 14289:1 14291:1 14292:1 14296:1 14297:1 14301:1 14305:1 14306:1 14310:1 14313:1 14315:1 14318:1 14325:1 14326:1 14329:1 14332:1 14334:1 14336:1 14348:1 14351:1 14352:1 14354:1 14355:1 14359:1 14360:1 14362:1 14363:1 14366:1 14369:1 14370:1 14371:1 14372:1 14373:1 14375:1 14380:1 14381:1 14383:1 14384:1 14385:1 14389:1 14392:1 14394:1 14396:1 14397:1 14398:1 14403:1 14404:1 14410:1 14413:1 14414:1 14417:1 14420:1 14421:1 14425:1 14426:1 14427:1 14428:1 14430:1 14432:1 14435:1 14439:1 14443:1 14444:1 14451:1 14452:1 14455:1 14456:1 14458:1 14461:1 14465:1 14467:1 14471:1 14472:1 14474:1 14475:1 14479:1 14480:1 14481:1 14488:1 14491:1 14492:1 14500:1 14502:1 14503:1 14507:1 14508:1 14509:1 14514:1 14515:1 14520:1 14522:1 14524:1 14526:1 14529:1 14530:1 14531:1 14532:1 14533:1 14534:1 14538:1 14539:1 14555:1 14558:1 14560:1 14564:1 14566:1 14568:1 14570:1 14573:1 14574:1 14586:1 14587:1 14590:1 14593:1 14595:1 14597:1 14600:1 14601:1 14602:1 14603:1 14608:1 14610:1 14614:1 14619:1 14623:1 14624:1 14629:1 14633:1 14635:1 14637:1 14639:1 14640:1 14642:1 14645:1 14647:1 14649:1 14654:1 14662:1 14665:1 14667:1 14668:1 14671:1 14673:1 14675:1 14676:1 14677:1 14678:1 14686:1 14688:1 14689:1 14692:1 14693:1 14697:1 14698:1 14699:1 14703:1 14705:1 14707:1 14708:1 14709:1 14710:1 14711:1 14713:1 14714:1 14715:1 14719:1 14727:1 14730:1 14732:1 14733:1 14734:1 14736:1 14737:1 14738:1 14739:1 14742:1 14743:1 14745:1 14746:1 14747:1 14748:1 14752:1 14753:1 14755:1 14756:1 14757:1 14772:1 14776:1 14777:1 14778:1 14779:1 14780:1 14781:1 14784:1 14785:1 14786:1 14787:1 14788:1 14789:1 14793:1 14795:1 14798:1 14799:1 14800:1 14801:1 14802:1 14803:1 14804:1 14805:1 14807:1 14808:1 14810:1 14812:1 14821:1 14825:1 14826:1 14827:1 14829:1 14832:1 14833:1 14836:1 14839:1 14840:1 14841:1 14847:1 14850:1 14856:1 14858:1 14859:1 14860:1 14861:1 14863:1 14864:1 14865:1 14867:1 14869:1 14872:1 14878:1 14882:1 14885:1 14886:1 14889:1 
0.0147002136116239 1:1 119:1 176:1 339:1 368:1 374:1 483:1 537:1 732:1 759:1 915:1 952:1 1004:1 1007:1 1060:1 1242:1 1280:1 1324:1 1358:1 1552:1 1661:1 1736:1 1931:1 1973:1 1985:1 2011:1 2106:1 2197:1 2218:1 2404:1 2506:1 2742:1 2756:1 2836:1 2837:1 2870:1 2924:1 2976:1 3011:1 3042:1 3250:1 3298:1 3602:1 3642:1 3651:1 3689:1 3701:1 4147:1 4151:1 4285:1 4348:1 4362:1 4536:1 4562:1 4721:1 4808:1 4846:1 4922:1 4923:1 4935:1 5023:1 5416:1 5432:1 5472:1 5474:1 5524:1 5715:1 5760:1 5803:1 6073:1 6357:1 6524:1 6540:1 6583:1 6651:1 6987:1 7034:1 7094:1 7158:1 7262:1 7308:1 7444:1 7459:1 7495:1 7514:1 7638:1 7639:1 7658:1 7667:1 7735:1 7846:1 7965:1 7966:1 8100:1 8208:1 8587:1 8628:1 8649:1 8684:1 8729:1 8809:1 9192:1 9240:1 9382:1 9414:1 9490:1 9498:1 9513:1 9615:1 9688:1 9716:1 9743:1 9830:1 9942:1 9958:1 10087:1 10148:1 10266:1 10284:1 10429:1 10499:1 10513:1 10547:1 10677:1 10698:1 10764:1 10976:1 11110:1 11214:1 11518:1 11560:1 11657:1 11666:1 11851:1 12000:1 12030:1 12268:1 12343:1 12401:1 12432:1 12442:1 12863:1 12934:1 12969:1 13054:1 13067:1 13324:1 13458:1 13493:1 13773:1 14057:1 14065:1 14283:1 14451:1 14614:1 14629:1 14635:1 14688:1 14693:1 14713:1 14738:1 14779:1 
0.1044190148650821 1:1 368:1 838:1 849:1 1816:1 1955:1 1979:1 2522:1 2985:1 3314:1 3435:1 3583:1 4348:1 4362:1 4397:1 4824:1 4960:1 5095:1 5576:1 5710:1 6583:1 6704:1 6853:1 6923:1 7516:1 7536:1 7586:1 7755:1 7894:1 7966:1 8161:1 8724:1 10387:1 10391:1 10482:1 10533:1 10669:1 10691:1 10856:1 10858:1 11474:1 12044:1 12408:1 12722:1 12726:1 12808:1 12846:1 13130:1 13340:1 13386:1 13708:1 13784:1 14451:1 14603:1 
0.04300791685580263 1:1 13:1 187:1 194:1 242:1 298:1 346:1 421:1 691:1 759:1 763:1 849:1 915:1 1033:1 1147:1 1242:1 1255:1 1280:1 1324:1 1327:1 1358:1 1931:1 1958:1 2032:1 2090:1 2109:1 2177:1 2225:1 2232:1 2256:1 2300:1 2431:1 2738:1 2949:1 3036:1 3042:1 3268:1 3395:1 3602:1 3689:1 3954:1 4067:1 4147:1 4599:1 4786:1 4969:1 5023:1 5058:1 5410:1 5426:1 5432:1 5472:1 5524:1 5543:1 5678:1 5718:1 5815:1 5821:1 6022:1 6043:1 6180:1 6380:1 6383:1 6513:1 6524:1 6554:1 6619:1 6676:1 6683:1 6920:1 6993:1 7196:1 7279:1 7318:1 7389:1 7514:1 7524:1 7527:1 7582:1 7587:1 7620:1 7639:1 7725:1 7734:1 7941:1 8100:1 8127:1 8394:1 8534:1 8545:1 8587:1 8616:1 8734:1 8743:1 8752:1 8809:1 8819:1 8824:1 9026:1 9050:1 9137:1 9271:1 9312:1 9326:1 9582:1 9615:1 9617:1 9709:1 9711:1 9748:1 9792:1 9944:1 10012:1 10103:1 10332:1 10391:1 10429:1 10437:1 10480:1 10513:1 10743:1 10818:1 10909:1 11187:1 11259:1 11281:1 11292:1 11298:1 11321:1 11465:1 11471:1 11495:1 11599:1 11736:1 11750:1 12268:1 12471:1 12472:1 12535:1 12569:1 12838:1 12845:1 12874:1 12974:1 13123:1 13277:1 13330:1 13349:1 13361:1 13679:1 13840:1 13914:1 13973:1 14003:1 14185:1 14195:1 14207:1 14261:1 14674:1 14713:1 14723:1 14743:1 14829:1 14856:1 
0.003062388213445647 1:1 217:1 578:1 759:1 1007:1 1056:1 1280:1 1728:1 1775:1 1919:1 2011:1 2318:1 2431:1 2760:1 2855:1 2870:1 3230:1 3305:1 3314:1 3351:1 3373:1 3689:1 3954:1 4024:1 4362:1 4392:1 4622:1 4786:1 4865:1 4923:1 5045:1 5095:1 5125:1 5150:1 5416:1 5445:1 5480:1 6197:1 6239:1 6339:1 6410:1 6676:1 6736:1 6920:1 7032:1 7115:1 7151:1 7639:1 8060:1 8161:1 8474:1 8649:1 8734:1 8888:1 8942:1 8944:1 8994:1 9026:1 9297:1 9305:1 9473:1 9711:1 9748:1 9791:1 10087:1 10342:1 10558:1 10677:1 10867:1 10956:1 11187:1 11659:1 11666:1 11829:1 11983:1 12044:1 12099:1 12212:1 12678:1 12687:1 12703:1 12722:1 12808:1 12838:1 13024:1 13059:1 13092:1 13106:1 13154:1 13324:1 13350:1 13473:1 13494:1 13656:1 14032:1 14129:1 14568:1 
0.06591192339077975 1:1 143:1 154:1 186:1 187:1 222:1 255:1 267:1 334:1 347:1 368:1 372:1 483:1 490:1 494:1 590:1 612:1 706:1 732:1 759:1 760:1 763:1 780:1 849:1 869:1 915:1 945:1 952:1 954:1 1004:1 1007:1 1025:1 1033:1 1041:1 1074:1 1083:1 1110:1 1147:1 1192:1 1245:1 1280:1 1284:1 1354:1 1358:1 1414:1 1421:1 1730:1 1741:1 1744:1 1871:1 1902:1 1918:1 1925:1 1973:1 2030:1 2106:1 2150:1 2156:1 2177:1 2202:1 2225:1 2232:1 2294:1 2298:1 2300:1 2311:1 2330:1 2347:1 2412:1 2421:1 2461:1 2518:1 2522:1 2545:1 2569:1 2617:1 2681:1 2695:1 2756:1 2760:1 2829:1 2855:1 2870:1 2924:1 2953:1 2959:1 2963:1 2974:1 2991:1 3083:1 3105:1 3127:1 3196:1 3200:1 3298:1 3301:1 3314:1 3384:1 3564:1 3583:1 3602:1 3689:1 3751:1 3765:1 3770:1 3808:1 3871:1 3875:1 3945:1 3954:1 3984:1 4127:1 4185:1 4247:1 4323:1 4334:1 4362:1 4392:1 4461:1 4470:1 4478:1 4549:1 4581:1 4622:1 4681:1 4692:1 4730:1 4802:1 4817:1 4824:1 4855:1 4923:1 4960:1 4973:1 4980:1 5008:1 5011:1 5023:1 5030:1 5032:1 5045:1 5091:1 5095:1 5169:1 5177:1 5203:1 5207:1 5262:1 5388:1 5410:1 5416:1 5426:1 5472:1 5528:1 5529:1 5543:1 5610:1 5678:1 5704:1 5710:1 5715:1 5740:1 5815:1 5821:1 5928:1 5984:1 6020:1 6098:1 6208:1 6226:1 6239:1 6263:1 6278:1 6293:1 6326:1 6328:1 6410:1 6503:1 6524:1 6583:1 6619:1 6844:1 6853:1 6857:1 6905:1 6920:1 6923:1 6930:1 6932:1 6993:1 7087:1 7196:1 7216:1 7233:1 7265:1 7279:1 7379:1 7423:1 7463:1 7469:1 7514:1 7524:1 7525:1 7554:1 7587:1 7620:1 7639:1 7690:1 7723:1 7725:1 7727:1 7755:1 7782:1 7901:1 7943:1 7966:1 8028:1 8029:1 8031:1 8034:1 8037:1 8040:1 8067:1 8093:1 8100:1 8127:1 8128:1 8144:1 8179:1 8188:1 8208:1 8216:1 8283:1 8394:1 8486:1 8512:1 8587:1 8591:1 8640:1 8648:1 8649:1 8651:1 8692:1 8732:1 8734:1 8749:1 8861:1 8888:1 9009:1 9026:1 9030:1 9046:1 9135:1 9137:1 9250:1 9271:1 9316:1 9427:1 9470:1 9473:1 9498:1 9581:1 9592:1 9615:1 9617:1 9629:1 9638:1 9679:1 9690:1 9716:1 9748:1 9753:1 9789:1 9792:1 9821:1 9855:1 9952:1 10014:1 10037:1 10062:1 10087:1 10178:1 10280:1 10318:1 10323:1 10325:1 10480:1 10491:1 10513:1 10599:1 10640:1 10691:1 10792:1 10806:1 10822:1 10856:1 10964:1 10976:1 10977:1 11024:1 11149:1 11187:1 11205:1 11249:1 11255:1 11275:1 11373:1 11474:1 11495:1 11534:1 11599:1 11638:1 11724:1 11737:1 11818:1 11853:1 11918:1 11951:1 12029:1 12073:1 12086:1 12099:1 12111:1 12147:1 12148:1 12150:1 12169:1 12268:1 12343:1 12408:1 12442:1 12471:1 12472:1 12528:1 12570:1 12579:1 12644:1 12676:1 12684:1 12703:1 12710:1 12722:1 12742:1 12772:1 12784:1 12800:1 12808:1 12838:1 12867:1 12872:1 12917:1 12921:1 12924:1 13059:1 13106:1 13130:1 13154:1 13172:1 13229:1 13241:1 13299:1 13340:1 13415:1 13459:1 13494:1 13538:1 13545:1 13752:1 13777:1 13784:1 13785:1 13799:1 13810:1 13855:1 13914:1 13977:1 14032:1 14060:1 14129:1 14132:1 14185:1 14261:1 14291:1 14451:1 14629:1 14635:1 14662:1 14713:1 14779:1 14805:1 14832:1 
0.01144484099789787 1:1 30:1 67:1 85:1 98:1 108:1 131:1 136:1 159:1 163:1 187:1 224:1 232:1 267:1 317:1 372:1 373:1 394:1 427:1 448:1 471:1 542:1 551:1 612:1 743:1 747:1 760:1 786:1 849:1 915:1 952:1 969:1 977:1 1004:1 1036:1 1042:1 1068:1 1074:1 1103:1 1119:1 1125:1 1126:1 1140:1 1147:1 1170:1 1218:1 1236:1 1238:1 1274:1 1280:1 1358:1 1388:1 1399:1 1421:1 1457:1 1552:1 1600:1 1736:1 1767:1 1777:1 1810:1 1815:1 1867:1 1904:1 1925:1 1947:1 1973:1 2015:1 2022:1 2030:1 2032:1 2167:1 2277:1 2300:1 2410:1 2431:1 2460:1 2468:1 2514:1 2518:1 2552:1 2578:1 2641:1 2677:1 2695:1 2731:1 2760:1 2772:1 2773:1 2829:1 2837:1 2869:1 2870:1 2898:1 2942:1 2948:1 2959:1 2972:1 2991:1 3042:1 3055:1 3083:1 3098:1 3196:1 3206:1 3230:1 3314:1 3333:1 3361:1 3549:1 3581:1 3589:1 3605:1 3642:1 3650:1 3651:1 3664:1 3676:1 3689:1 3695:1 3696:1 3701:1 3870:1 3889:1 4024:1 4039:1 4044:1 4056:1 4066:1 4127:1 4159:1 4210:1 4214:1 4279:1 4348:1 4362:1 4367:1 4392:1 4408:1 4463:1 4468:1 4478:1 4497:1 4599:1 4621:1 4632:1 4655:1 4663:1 4673:1 4681:1 4683:1 4723:1 4730:1 4786:1 4817:1 4825:1 4834:1 4846:1 4900:1 4916:1 4923:1 4930:1 4959:1 4992:1 4999:1 5023:1 5030:1 5031:1 5041:1 5095:1 5114:1 5150:1 5153:1 5169:1 5228:1 5255:1 5273:1 5286:1 5416:1 5426:1 5441:1 5443:1 5472:1 5493:1 5528:1 5604:1 5610:1 5648:1 5696:1 5702:1 5732:1 5791:1 5815:1 5897:1 6022:1 6100:1 6168:1 6215:1 6226:1 6268:1 6316:1 6376:1 6410:1 6440:1 6454:1 6464:1 6524:1 6589:1 6651:1 6701:1 6716:1 6736:1 6885:1 6896:1 6920:1 6930:1 7004:1 7011:1 7024:1 7161:1 7178:1 7196:1 7202:1 7256:1 7258:1 7287:1 7303:1 7332:1 7350:1 7373:1 7419:1 7437:1 7497:1 7514:1 7524:1 7568:1 7582:1 7587:1 7615:1 7620:1 7630:1 7638:1 7656:1 7665:1 7690:1 7704:1 7723:1 7725:1 7726:1 7818:1 7825:1 7853:1 7874:1 7889:1 7919:1 7948:1 7955:1 7960:1 7966:1 7981:1 7999:1 8029:1 8031:1 8032:1 8067:1 8094:1 8100:1 8159:1 8227:1 8236:1 8281:1 8325:1 8347:1 8363:1 8385:1 8387:1 8391:1 8449:1 8473:1 8497:1 8545:1 8547:1 8557:1 8570:1 8649:1 8688:1 8734:1 8743:1 8809:1 8812:1 8856:1 8898:1 8983:1 9026:1 9042:1 9049:1 9085:1 9171:1 9200:1 9277:1 9312:1 9326:1 9348:1 9349:1 9354:1 9366:1 9446:1 9451:1 9473:1 9513:1 9571:1 9574:1 9581:1 9583:1 9611:1 9612:1 9614:1 9638:1 9647:1 9681:1 9688:1 9690:1 9711:1 9716:1 9748:1 9791:1 9798:1 9843:1 9879:1 9892:1 9950:1 10034:1 10053:1 10087:1 10100:1 10103:1 10117:1 10183:1 10284:1 10322:1 10323:1 10348:1 10355:1 10430:1 10513:1 10544:1 10549:1 10555:1 10586:1 10652:1 10703:1 10723:1 10745:1 10758:1 10792:1 10868:1 10885:1 10897:1 10927:1 10939:1 10942:1 10956:1 10976:1 10992:1 10996:1 11058:1 11083:1 11149:1 11156:1 11170:1 11181:1 11187:1 11208:1 11275:1 11292:1 11298:1 11474:1 11530:1 11536:1 11599:1 11641:1 11724:1 11734:1 11819:1 11932:1 11953:1 11963:1 12049:1 12110:1 12111:1 12157:1 12174:1 12265:1 12268:1 12328:1 12329:1 12472:1 12478:1 12500:1 12572:1 12691:1 12703:1 12722:1 12751:1 12808:1 12823:1 12831:1 12838:1 12873:1 12908:1 13002:1 13059:1 13084:1 13092:1 13115:1 13117:1 13130:1 13148:1 13152:1 13162:1 13241:1 13308:1 13402:1 13441:1 13473:1 13474:1 13523:1 13545:1 13613:1 13626:1 13648:1 13697:1 13700:1 13726:1 13768:1 13784:1 13858:1 13891:1 13896:1 13910:1 13915:1 13935:1 13946:1 13965:1 13985:1 13989:1 14018:1 14069:1 14078:1 14113:1 14130:1 14132:1 14170:1 14194:1 14207:1 14368:1 14391:1 14451:1 14461:1 14491:1 14533:1 14550:1 14603:1 14640:1 14662:1 14677:1 14699:1 14713:1 14738:1 14749:1 14779:1 14829:1 
0.02841440239131589 1:1 197:1 346:1 368:1 464:1 529:1 547:1 706:1 759:1 763:1 776:1 834:1 847:1 915:1 945:1 952:1 1004:1 1007:1 1021:1 1280:1 1324:1 1337:1 1358:1 1614:1 1663:1 1742:1 1775:1 1810:1 1867:1 1938:1 1955:1 1985:1 2011:1 2030:1 2040:1 2177:1 2294:1 2412:1 2518:1 2568:1 2641:1 2870:1 2939:1 2963:1 3014:1 3042:1 3112:1 3196:1 3258:1 3564:1 3581:1 3589:1 3689:1 3954:1 4024:1 4222:1 4248:1 4348:1 4362:1 4545:1 4622:1 4681:1 4730:1 4786:1 4846:1 4916:1 4923:1 5023:1 5045:1 5124:1 5150:1 5190:1 5218:1 5242:1 5300:1 5335:1 5426:1 5472:1 5493:1 5524:1 5528:1 5529:1 5564:1 5623:1 5645:1 5704:1 5728:1 5740:1 6256:1 6268:1 6278:1 6410:1 6456:1 6524:1 6527:1 6549:1 6620:1 6651:1 6768:1 6830:1 6902:1 7049:1 7087:1 7088:1 7093:1 7257:1 7265:1 7346:1 7514:1 7527:1 7536:1 7565:1 7582:1 7620:1 7656:1 7727:1 7852:1 7901:1 8067:1 8100:1 8324:1 8426:1 8512:1 8545:1 8587:1 8605:1 8649:1 8732:1 8734:1 8768:1 8856:1 8898:1 8942:1 9006:1 9020:1 9026:1 9067:1 9095:1 9312:1 9451:1 9533:1 9581:1 9638:1 9690:1 9762:1 9792:1 9805:1 9898:1 10062:1 10198:1 10284:1 10314:1 10411:1 10480:1 10513:1 10677:1 10781:1 10976:1 11083:1 11112:1 11187:1 11193:1 11214:1 11275:1 11292:1 11298:1 11336:1 11481:1 11534:1 11536:1 11776:1 11778:1 11792:1 11896:1 11940:1 11954:1 11983:1 12121:1 12148:1 12174:1 12183:1 12268:1 12703:1 12808:1 13002:1 13059:1 13093:1 13106:1 13115:1 13130:1 13152:1 13441:1 13452:1 13494:1 13532:1 13545:1 13708:1 13711:1 13832:1 13910:1 13914:1 14032:1 14070:1 14129:1 14185:1 14451:1 14533:1 14619:1 14635:1 14713:1 14776:1 14779:1 14829:1 
0.0993308777426052 1:1 542:1 1121:1 1276:1 1890:1 2225:1 2787:1 2924:1 3199:1 3270:1 3696:1 4418:1 4639:1 4916:1 4973:1 5335:1 5351:1 5899:1 6026:1 6215:1 6268:1 6524:1 6561:1 6680:1 7516:1 8093:1 8171:1 8406:1 8588:1 8649:1 8724:1 9893:1 10323:1 10332:1 10657:1 10765:1 10858:1 11792:1 12029:1 12397:1 13461:1 13891:1 
0.4730697591407465 1:1 959:1 2756:1 2768:1 3039:1 3454:1 4362:1 4892:1 5790:1 7264:1 10390:1 10513:1 10921:1 10976:1 11092:1 12062:1 12343:1 13130:1 13349:1 14129:1 14451:1 
0.02376331888667747 1:1 6:1 21:1 67:1 131:1 139:1 154:1 155:1 164:1 176:1 187:1 189:1 197:1 218:1 224:1 255:1 368:1 374:1 396:1 403:1 416:1 421:1 436:1 448:1 473:1 475:1 493:1 505:1 529:1 542:1 547:1 558:1 591:1 612:1 621:1 706:1 709:1 732:1 742:1 744:1 752:1 759:1 760:1 762:1 763:1 776:1 797:1 826:1 835:1 838:1 849:1 891:1 898:1 915:1 959:1 960:1 985:1 989:1 998:1 1004:1 1005:1 1007:1 1021:1 1032:1 1033:1 1125:1 1146:1 1147:1 1209:1 1214:1 1219:1 1242:1 1247:1 1249:1 1252:1 1280:1 1285:1 1293:1 1295:1 1324:1 1358:1 1360:1 1372:1 1383:1 1386:1 1421:1 1443:1 1464:1 1499:1 1533:1 1534:1 1537:1 1539:1 1552:1 1571:1 1629:1 1635:1 1641:1 1658:1 1661:1 1672:1 1716:1 1729:1 1735:1 1741:1 1744:1 1775:1 1803:1 1810:1 1813:1 1874:1 1892:1 1902:1 1925:1 1949:1 1955:1 1958:1 1978:1 2009:1 2022:1 2030:1 2040:1 2049:1 2089:1 2106:1 2150:1 2156:1 2177:1 2225:1 2261:1 2294:1 2300:1 2368:1 2385:1 2404:1 2406:1 2412:1 2429:1 2431:1 2468:1 2478:1 2518:1 2557:1 2572:1 2604:1 2624:1 2641:1 2677:1 2681:1 2695:1 2734:1 2756:1 2760:1 2770:1 2783:1 2832:1 2843:1 2849:1 2855:1 2870:1 2883:1 2903:1 2924:1 2949:1 2959:1 2962:1 2963:1 2985:1 2991:1 2993:1 2994:1 3011:1 3014:1 3036:1 3042:1 3083:1 3087:1 3102:1 3127:1 3142:1 3196:1 3199:1 3230:1 3272:1 3298:1 3314:1 3320:1 3327:1 3336:1 3346:1 3373:1 3482:1 3544:1 3551:1 3564:1 3589:1 3602:1 3607:1 3623:1 3628:1 3649:1 3650:1 3689:1 3697:1 3723:1 3724:1 3749:1 3765:1 3776:1 3821:1 3834:1 3854:1 3869:1 3874:1 3875:1 3902:1 3914:1 3924:1 3954:1 3984:1 4006:1 4024:1 4032:1 4049:1 4056:1 4132:1 4143:1 4147:1 4152:1 4155:1 4185:1 4200:1 4281:1 4304:1 4310:1 4323:1 4362:1 4378:1 4392:1 4420:1 4421:1 4470:1 4478:1 4498:1 4506:1 4529:1 4562:1 4572:1 4575:1 4581:1 4622:1 4639:1 4681:1 4683:1 4730:1 4761:1 4767:1 4783:1 4786:1 4793:1 4802:1 4817:1 4834:1 4846:1 4879:1 4882:1 4900:1 4916:1 4923:1 4930:1 4935:1 4936:1 5008:1 5023:1 5030:1 5032:1 5034:1 5041:1 5062:1 5063:1 5070:1 5090:1 5091:1 5095:1 5125:1 5150:1 5165:1 5169:1 5201:1 5203:1 5262:1 5338:1 5360:1 5388:1 5410:1 5416:1 5421:1 5426:1 5441:1 5472:1 5524:1 5528:1 5529:1 5543:1 5573:1 5610:1 5614:1 5654:1 5696:1 5702:1 5704:1 5710:1 5740:1 5746:1 5760:1 5770:1 5815:1 5821:1 5909:1 5910:1 5923:1 5928:1 5934:1 5944:1 5962:1 5977:1 5984:1 6066:1 6112:1 6156:1 6164:1 6215:1 6226:1 6273:1 6278:1 6280:1 6288:1 6312:1 6363:1 6376:1 6383:1 6391:1 6405:1 6407:1 6410:1 6433:1 6481:1 6503:1 6524:1 6583:1 6597:1 6619:1 6633:1 6651:1 6671:1 6684:1 6691:1 6736:1 6789:1 6801:1 6830:1 6844:1 6853:1 6857:1 6869:1 6874:1 6902:1 6905:1 6920:1 6923:1 6930:1 6932:1 6973:1 6979:1 6989:1 6993:1 7002:1 7023:1 7032:1 7034:1 7063:1 7087:1 7115:1 7137:1 7176:1 7178:1 7183:1 7196:1 7208:1 7214:1 7251:1 7265:1 7279:1 7349:1 7360:1 7379:1 7390:1 7395:1 7505:1 7514:1 7524:1 7525:1 7527:1 7542:1 7554:1 7587:1 7620:1 7625:1 7639:1 7656:1 7685:1 7690:1 7711:1 7725:1 7727:1 7734:1 7759:1 7795:1 7832:1 7847:1 7853:1 7901:1 7904:1 7916:1 7941:1 7958:1 7959:1 7966:1 7969:1 8018:1 8029:1 8031:1 8037:1 8039:1 8046:1 8053:1 8068:1 8093:1 8100:1 8127:1 8128:1 8144:1 8159:1 8161:1 8188:1 8199:1 8216:1 8258:1 8283:1 8292:1 8316:1 8319:1 8324:1 8394:1 8397:1 8422:1 8451:1 8473:1 8481:1 8486:1 8496:1 8512:1 8524:1 8545:1 8549:1 8550:1 8551:1 8560:1 8563:1 8587:1 8591:1 8605:1 8615:1 8616:1 8637:1 8640:1 8648:1 8649:1 8651:1 8658:1 8687:1 8692:1 8724:1 8729:1 8732:1 8734:1 8743:1 8749:1 8804:1 8809:1 8812:1 8856:1 8858:1 8888:1 8915:1 8916:1 8942:1 8944:1 8972:1 9020:1 9026:1 9038:1 9044:1 9045:1 9069:1 9088:1 9135:1 9137:1 9171:1 9175:1 9206:1 9227:1 9277:1 9286:1 9297:1 9312:1 9320:1 9402:1 9427:1 9446:1 9451:1 9470:1 9473:1 9483:1 9524:1 9533:1 9557:1 9581:1 9594:1 9611:1 9615:1 9617:1 9658:1 9690:1 9711:1 9716:1 9750:1 9753:1 9760:1 9781:1 9789:1 9792:1 9799:1 9805:1 9821:1 9827:1 9843:1 9893:1 9898:1 9903:1 9909:1 9933:1 9944:1 10010:1 10012:1 10053:1 10081:1 10083:1 10087:1 10103:1 10171:1 10178:1 10183:1 10198:1 10284:1 10318:1 10319:1 10323:1 10342:1 10391:1 10407:1 10411:1 10455:1 10504:1 10513:1 10681:1 10688:1 10691:1 10714:1 10724:1 10790:1 10806:1 10807:1 10844:1 10856:1 10858:1 10868:1 10914:1 10921:1 10956:1 10960:1 10964:1 10976:1 10977:1 10991:1 11035:1 11073:1 11109:1 11112:1 11149:1 11173:1 11187:1 11196:1 11205:1 11249:1 11275:1 11291:1 11292:1 11294:1 11296:1 11298:1 11302:1 11331:1 11333:1 11348:1 11368:1 11373:1 11401:1 11405:1 11432:1 11465:1 11474:1 11481:1 11495:1 11518:1 11573:1 11574:1 11593:1 11597:1 11615:1 11619:1 11734:1 11776:1 11790:1 11826:1 11851:1 11913:1 11917:1 11933:1 11940:1 11954:1 12029:1 12030:1 12041:1 12072:1 12086:1 12099:1 12112:1 12132:1 12148:1 12168:1 12212:1 12218:1 12255:1 12268:1 12274:1 12343:1 12397:1 12408:1 12460:1 12472:1 12492:1 12524:1 12528:1 12549:1 12579:1 12580:1 12598:1 12667:1 12676:1 12703:1 12710:1 12722:1 12742:1 12753:1 12784:1 12800:1 12808:1 12838:1 12865:1 12913:1 12917:1 12927:1 12961:1 13002:1 13052:1 13059:1 13066:1 13088:1 13092:1 13106:1 13112:1 13115:1 13130:1 13227:1 13233:1 13239:1 13241:1 13281:1 13286:1 13298:1 13304:1 13308:1 13349:1 13379:1 13386:1 13421:1 13441:1 13452:1 13458:1 13461:1 13473:1 13494:1 13497:1 13532:1 13545:1 13618:1 13626:1 13654:1 13657:1 13784:1 13839:1 13855:1 13914:1 13944:1 13973:1 13985:1 14032:1 14065:1 14070:1 14074:1 14105:1 14123:1 14129:1 14148:1 14184:1 14185:1 14195:1 14207:1 14291:1 14310:1 14332:1 14413:1 14500:1 14522:1 14534:1 14603:1 14635:1 14639:1 14654:1 14678:1 14713:1 14737:1 14746:1 14753:1 14779:1 14829:1 14863:1 14872:1 
0.005992836498381508 1:1 126:1 131:1 187:1 309:1 346:1 547:1 752:1 776:1 849:1 866:1 915:1 1074:1 1280:1 1358:1 1421:1 1481:1 1814:1 2177:1 2404:1 2412:1 2518:1 2522:1 2756:1 2917:1 3230:1 3345:1 3689:1 3914:1 4362:1 4475:1 4772:1 5045:1 5091:1 5095:1 5169:1 5354:1 5426:1 5610:1 5702:1 5740:1 5827:1 5838:1 6383:1 6524:1 6583:1 6789:1 6987:1 7274:1 7524:1 7608:1 7726:1 7847:1 7852:1 7894:1 7934:1 8100:1 8324:1 9072:1 9312:1 9805:1 9827:1 10858:1 11149:1 11187:1 11255:1 11302:1 11481:1 11954:1 12029:1 12044:1 12274:1 12343:1 12483:1 12520:1 12800:1 12808:1 13106:1 13130:1 13308:1 13441:1 13476:1 13631:1 13708:1 14458:1 14662:1 
0.04621358083250399 1:1 547:1 1004:1 2770:1 2962:1 3314:1 3435:1 4362:1 4751:1 5095:1 9240:1 9681:1 10681:1 10691:1 13104:1 14533:1 14568:1 14635:1 
0.05532582317007755 1:1 298:1 866:1 952:1 1324:1 1358:1 1421:1 1938:1 2177:1 2756:1 3225:1 3348:1 3564:1 4065:1 4362:1 5091:1 5179:1 5218:1 5242:1 5416:1 5815:1 6583:1 7004:1 7265:1 7582:1 7894:1 8809:1 9026:1 9312:1 9716:1 9861:1 10048:1 10332:1 11474:1 11826:1 12044:1 12212:1 12997:1 13106:1 13441:1 13914:1 14275:1 14451:1 
0.01692837734180981 1:1 6:1 13:1 82:1 154:1 155:1 176:1 187:1 189:1 198:1 218:1 267:1 368:1 384:1 421:1 426:1 448:1 475:1 529:1 547:1 612:1 706:1 732:1 742:1 759:1 760:1 763:1 776:1 838:1 849:1 880:1 915:1 977:1 1004:1 1007:1 1033:1 1219:1 1252:1 1280:1 1377:1 1386:1 1408:1 1486:1 1552:1 1641:1 1658:1 1672:1 1716:1 1729:1 1730:1 1744:1 1810:1 1859:1 1871:1 1874:1 1892:1 1918:1 1925:1 1956:1 1985:1 2030:1 2106:1 2109:1 2225:1 2300:1 2385:1 2412:1 2518:1 2557:1 2604:1 2624:1 2677:1 2681:1 2695:1 2756:1 2760:1 2849:1 2868:1 2870:1 2924:1 2959:1 2963:1 2991:1 2994:1 3014:1 3026:1 3042:1 3166:1 3230:1 3298:1 3314:1 3482:1 3535:1 3551:1 3564:1 3589:1 3602:1 3617:1 3689:1 3723:1 3765:1 3814:1 3877:1 3886:1 3902:1 3914:1 3984:1 4019:1 4024:1 4095:1 4127:1 4185:1 4287:1 4323:1 4362:1 4392:1 4463:1 4478:1 4572:1 4581:1 4622:1 4786:1 4802:1 4817:1 4818:1 4825:1 4846:1 4916:1 4923:1 4960:1 5023:1 5030:1 5032:1 5041:1 5062:1 5091:1 5095:1 5114:1 5150:1 5169:1 5203:1 5248:1 5262:1 5300:1 5388:1 5410:1 5416:1 5472:1 5518:1 5524:1 5528:1 5529:1 5610:1 5704:1 5740:1 5768:1 5815:1 5821:1 5881:1 5910:1 5923:1 5928:1 5984:1 6208:1 6215:1 6226:1 6268:1 6273:1 6278:1 6405:1 6407:1 6433:1 6454:1 6481:1 6503:1 6583:1 6619:1 6691:1 6739:1 6830:1 6853:1 6857:1 6863:1 6869:1 6902:1 6905:1 6920:1 6923:1 6987:1 7049:1 7083:1 7196:1 7256:1 7265:1 7341:1 7347:1 7360:1 7370:1 7389:1 7390:1 7464:1 7467:1 7514:1 7524:1 7525:1 7554:1 7586:1 7620:1 7625:1 7639:1 7725:1 7727:1 7755:1 7759:1 7852:1 7894:1 7901:1 7943:1 7966:1 8018:1 8029:1 8037:1 8039:1 8067:1 8100:1 8110:1 8127:1 8144:1 8161:1 8179:1 8216:1 8258:1 8282:1 8283:1 8394:1 8422:1 8486:1 8505:1 8507:1 8512:1 8545:1 8564:1 8587:1 8591:1 8615:1 8640:1 8648:1 8649:1 8729:1 8734:1 8743:1 8752:1 8784:1 8804:1 8809:1 8868:1 8880:1 8888:1 8902:1 8942:1 9026:1 9067:1 9072:1 9135:1 9312:1 9316:1 9321:1 9415:1 9427:1 9451:1 9473:1 9483:1 9498:1 9533:1 9551:1 9581:1 9690:1 9750:1 9753:1 9789:1 9792:1 9805:1 9819:1 9821:1 9830:1 9843:1 9906:1 9909:1 9933:1 10010:1 10081:1 10087:1 10103:1 10171:1 10178:1 10233:1 10280:1 10323:1 10332:1 10437:1 10455:1 10513:1 10681:1 10691:1 10746:1 10806:1 10849:1 10856:1 10858:1 10868:1 10914:1 10956:1 10976:1 10977:1 10995:1 11149:1 11187:1 11249:1 11275:1 11292:1 11373:1 11474:1 11518:1 11593:1 11599:1 11724:1 11737:1 11818:1 11826:1 11913:1 11992:1 12029:1 12030:1 12041:1 12132:1 12140:1 12148:1 12168:1 12212:1 12240:1 12268:1 12343:1 12408:1 12442:1 12460:1 12472:1 12510:1 12524:1 12532:1 12579:1 12676:1 12703:1 12722:1 12742:1 12744:1 12753:1 12762:1 12772:1 12793:1 12800:1 12871:1 12917:1 13001:1 13052:1 13059:1 13069:1 13106:1 13130:1 13154:1 13241:1 13304:1 13340:1 13349:1 13351:1 13379:1 13402:1 13452:1 13490:1 13538:1 13545:1 13738:1 13784:1 13790:1 13839:1 13855:1 13914:1 13946:1 13985:1 14032:1 14074:1 14129:1 14154:1 14291:1 14313:1 14491:1 14502:1 14533:1 14566:1 14603:1 14635:1 14713:1 14736:1 14746:1 14830:1 
0.009356838547378026 1:1 13:1 126:1 218:1 272:1 357:1 368:1 372:1 373:1 542:1 547:1 578:1 612:1 720:1 742:1 759:1 763:1 879:1 915:1 1004:1 1015:1 1059:1 1074:1 1147:1 1238:1 1280:1 1288:1 1324:1 1327:1 1354:1 1414:1 1552:1 1630:1 1736:1 1775:1 1919:1 1931:1 1938:1 1955:1 1958:1 1978:1 2011:1 2015:1 2046:1 2090:1 2156:1 2169:1 2218:1 2225:1 2294:1 2300:1 2318:1 2360:1 2370:1 2431:1 2503:1 2510:1 2518:1 2554:1 2677:1 2760:1 2825:1 2846:1 2849:1 2855:1 2856:1 2870:1 2973:1 2989:1 2994:1 3037:1 3049:1 3077:1 3146:1 3270:1 3305:1 3428:1 3551:1 3564:1 3582:1 3659:1 3697:1 3796:1 3954:1 4006:1 4024:1 4067:1 4102:1 4348:1 4362:1 4392:1 4494:1 4506:1 4545:1 4575:1 4620:1 4622:1 4683:1 4708:1 4756:1 4761:1 4764:1 4786:1 4856:1 4865:1 4885:1 4923:1 5008:1 5062:1 5150:1 5157:1 5183:1 5186:1 5317:1 5388:1 5398:1 5410:1 5416:1 5524:1 5528:1 5601:1 5700:1 5760:1 5815:1 5821:1 5838:1 5845:1 5865:1 5998:1 6030:1 6054:1 6066:1 6071:1 6073:1 6091:1 6112:1 6164:1 6168:1 6200:1 6215:1 6226:1 6239:1 6250:1 6263:1 6268:1 6315:1 6331:1 6332:1 6339:1 6501:1 6579:1 6606:1 6652:1 6682:1 6768:1 6920:1 6938:1 6966:1 6976:1 6997:1 7066:1 7084:1 7167:1 7202:1 7275:1 7279:1 7301:1 7346:1 7370:1 7384:1 7396:1 7514:1 7527:1 7554:1 7582:1 7586:1 7639:1 7685:1 7755:1 7759:1 7826:1 7855:1 7894:1 7934:1 7948:1 7961:1 7966:1 7996:1 8031:1 8035:1 8038:1 8100:1 8199:1 8239:1 8394:1 8397:1 8422:1 8446:1 8474:1 8570:1 8587:1 8649:1 8743:1 8752:1 8816:1 8819:1 8854:1 8858:1 8888:1 8903:1 8942:1 9026:1 9046:1 9050:1 9072:1 9427:1 9514:1 9559:1 9581:1 9594:1 9613:1 9681:1 9690:1 9716:1 9748:1 9805:1 9819:1 9827:1 9879:1 9892:1 9893:1 9898:1 9904:1 9913:1 9928:1 9933:1 10087:1 10103:1 10145:1 10318:1 10319:1 10332:1 10370:1 10391:1 10470:1 10587:1 10677:1 10720:1 10737:1 10807:1 11073:1 11078:1 11112:1 11226:1 11292:1 11298:1 11474:1 11481:1 11534:1 11573:1 11599:1 11666:1 11736:1 11829:1 11954:1 11966:1 11983:1 12039:1 12218:1 12258:1 12343:1 12373:1 12471:1 12506:1 12535:1 12726:1 12746:1 12772:1 12800:1 12838:1 12844:1 12921:1 12930:1 13033:1 13056:1 13059:1 13091:1 13130:1 13201:1 13241:1 13287:1 13307:1 13308:1 13473:1 13494:1 13532:1 13539:1 13551:1 13564:1 13744:1 13825:1 14032:1 14105:1 14129:1 14171:1 14370:1 14451:1 14475:1 14502:1 14534:1 14538:1 14629:1 14654:1 14678:1 14699:1 14713:1 14743:1 14776:1 14779:1 14784:1 14832:1 
0.005619582959502573 1:1 13:1 67:1 187:1 189:1 421:1 464:1 547:1 570:1 700:1 763:1 834:1 847:1 879:1 915:1 963:1 977:1 1059:1 1274:1 1280:1 1360:1 1443:1 1728:1 1958:1 2431:1 2760:1 2813:1 2836:1 2870:1 2959:1 3230:1 3412:1 3564:1 3583:1 3628:1 3689:1 3875:1 3984:1 4028:1 4308:1 4348:1 4362:1 4392:1 4572:1 4760:1 4772:1 4834:1 4923:1 5091:1 5104:1 5114:1 5218:1 5472:1 5484:1 5545:1 5610:1 5715:1 5805:1 5984:1 6149:1 6444:1 6454:1 6542:1 6756:1 6782:1 6874:1 6920:1 6930:1 7016:1 7049:1 7088:1 7514:1 7620:1 7690:1 7795:1 7941:1 7966:1 7969:1 8029:1 8100:1 8127:1 8324:1 8363:1 8474:1 8550:1 8649:1 8729:1 8732:1 8734:1 8858:1 9050:1 9072:1 9312:1 9446:1 9451:1 9594:1 9615:1 9668:1 9681:1 10048:1 10211:1 10284:1 10391:1 10513:1 10818:1 10976:1 10977:1 11103:1 11187:1 11275:1 11292:1 11302:1 11430:1 11455:1 11465:1 11474:1 11495:1 11534:1 11536:1 11940:1 11972:1 12088:1 12268:1 12373:1 12430:1 12765:1 12784:1 12808:1 12952:1 13106:1 13130:1 13386:1 13784:1 13973:1 14185:1 14617:1 14693:1 14746:1 14829:1 
0.001921572975845633 1:1 47:1 196:1 945:1 1004:1 1173:1 1255:1 1619:1 1658:1 2011:1 2106:1 2385:1 2421:1 2700:1 2734:1 2760:1 2870:1 2976:1 3335:1 3564:1 3689:1 3770:1 3906:1 4362:1 4566:1 4572:1 4682:1 4786:1 4850:1 5034:1 5091:1 5157:1 5203:1 5426:1 5524:1 5528:1 5645:1 5704:1 5715:1 5815:1 6278:1 6328:1 6410:1 6578:1 6683:1 6844:1 6855:1 6920:1 6973:1 6987:1 7094:1 7115:1 7177:1 7265:1 7298:1 7582:1 7656:1 7966:1 8100:1 8208:1 8292:1 8324:1 8649:1 8858:1 8888:1 9008:1 9312:1 9415:1 9611:1 9615:1 9748:1 9760:1 9811:1 10100:1 10103:1 10332:1 10480:1 10659:1 10788:1 10935:1 10976:1 11083:1 11275:1 11368:1 11534:1 11591:1 12030:1 12508:1 12752:1 13108:1 13130:1 13480:1 13493:1 13613:1 13661:1 13784:1 14275:1 14313:1 14779:1 
0.02543342246401073 1:1 58:1 1074:1 1214:1 1537:1 2200:1 2225:1 2756:1 4478:1 5740:1 6410:1 6583:1 6691:1 7346:1 7525:1 7966:1 8451:1 9164:1 9473:1 9621:1 9952:1 10010:1 11112:1 11214:1 11229:1 12684:1 13914:1 14037:1 14451:1 
0.09804491714346991 1:1 763:1 1004:1 1292:1 1871:1 2431:1 2756:1 4348:1 4362:1 4392:1 4622:1 5524:1 6433:1 6583:1 7554:1 7894:1 7966:1 9451:1 9581:1 9594:1 9827:1 9843:1 11092:1 11666:1 12044:1 13130:1 13172:1 13752:1 14129:1 14343:1 14451:1 
0.1733407990129233 1:1 58:1 1074:1 1214:1 1537:1 2200:1 2225:1 2756:1 4362:1 4478:1 5740:1 6410:1 6583:1 6691:1 7346:1 7525:1 7966:1 8451:1 9164:1 9473:1 9621:1 9952:1 10010:1 11112:1 11214:1 11229:1 12684:1 13914:1 14037:1 14451:1 
0.07290599404738152 1:1 128:1 349:1 464:1 760:1 834:1 1280:1 1324:1 1730:1 2030:1 2431:1 2518:1 2760:1 3454:1 3954:1 4362:1 4392:1 5062:1 5091:1 5962:1 6736:1 7524:1 7582:1 8287:1 8816:1 8858:1 8888:1 9473:1 10536:1 10743:1 11829:1 11954:1 13914:1 14451:1 
0.08839965880990036 1:1 88:1 197:1 399:1 732:1 735:1 759:1 847:1 915:1 1004:1 1245:1 1346:1 1358:1 1386:1 1414:1 1559:1 1840:1 1902:1 1938:1 1973:1 2011:1 2046:1 2150:1 2300:1 2412:1 2744:1 2756:1 2855:1 2949:1 3127:1 3196:1 3348:1 3349:1 3564:1 3689:1 3954:1 4024:1 4029:1 4332:1 4362:1 4463:1 4475:1 4478:1 4737:1 4786:1 4855:1 4875:1 4916:1 4922:1 5186:1 5335:1 5340:1 5393:1 5441:1 5528:1 5566:1 5614:1 5715:1 5740:1 6087:1 6433:1 6579:1 6671:1 6853:1 6855:1 6920:1 7097:1 7542:1 7586:1 7622:1 7755:1 8557:1 8584:1 8587:1 8640:1 8704:1 8729:1 8732:1 8888:1 9026:1 9050:1 9473:1 9498:1 9581:1 9582:1 9617:1 9789:1 9792:1 9903:1 10034:1 10062:1 10480:1 10513:1 10555:1 10788:1 10868:1 10921:1 10956:1 11112:1 11401:1 11593:1 12408:1 12579:1 12620:1 12969:1 13154:1 13338:1 14150:1 14207:1 14451:1 14475:1 14713:1 14779:1 14858:1 
0.007422005786868019 1:1 1032:1 1033:1 1979:1 2412:1 2738:1 3179:1 3218:1 4006:1 4030:1 4362:1 4498:1 4545:1 4681:1 5091:1 5547:1 5815:1 6134:1 6456:1 7168:1 7279:1 7685:1 7841:1 8649:1 8752:1 8888:1 9050:1 9791:1 9792:1 10976:1 11275:1 12212:1 12343:1 12838:1 13106:1 13711:1 14031:1 14435:1 
0.03814608849073764 1:1 879:1 963:1 1032:1 1033:1 2677:1 3230:1 3954:1 4362:1 5518:1 6383:1 6830:1 7966:1 8734:1 8824:1 13419:1 13452:1 13973:1 14132:1 14779:1 
0.04269418781834538 1:1 182:1 222:1 267:1 368:1 915:1 952:1 977:1 1074:1 1119:1 1220:1 1902:1 1916:1 1935:1 1986:1 2156:1 2225:1 2482:1 2849:1 2959:1 3110:1 3564:1 3870:1 3954:1 4095:1 4323:1 4362:1 4421:1 4478:1 4572:1 4622:1 4719:1 4824:1 4923:1 5062:1 5394:1 5424:1 5426:1 5518:1 5543:1 5928:1 6221:1 6278:1 6410:1 6456:1 6583:1 6920:1 7112:1 7115:1 7265:1 7525:1 7536:1 7582:1 7584:1 7826:1 7894:1 8100:1 8292:1 8449:1 8512:1 8651:1 8743:1 8892:1 9050:1 9137:1 9312:1 9381:1 9407:1 9473:1 10050:1 10103:1 10318:1 10513:1 10743:1 10929:1 10936:1 10976:1 11275:1 11298:1 11474:1 11510:1 11534:1 12041:1 12090:1 12343:1 12782:1 13106:1 13130:1 13152:1 13230:1 13784:1 13914:1 14129:1 14130:1 14180:1 14451:1 14475:1 14566:1 14619:1 
0.0679464101246865 1:1 31:1 196:1 198:1 569:1 612:1 723:1 915:1 1258:1 1280:1 1535:1 1644:1 1955:1 2065:1 2133:1 2268:1 2298:1 2300:1 2470:1 2837:1 2868:1 2870:1 2959:1 2977:1 3042:1 3196:1 3305:1 3741:1 3937:1 3984:1 4056:1 4362:1 4545:1 4649:1 4673:1 5150:1 5232:1 5426:1 5732:1 5815:1 5894:1 6043:1 6268:1 6618:1 6736:1 6739:1 6874:1 6920:1 6930:1 7251:1 7586:1 7592:1 7620:1 7916:1 8148:1 8159:1 8402:1 8888:1 9137:1 9451:1 9513:1 9614:1 9711:1 9716:1 9909:1 10087:1 10589:1 11149:1 11223:1 11275:1 11305:1 11478:1 11724:1 12110:1 12174:1 12212:1 12343:1 12528:1 12831:1 12838:1 12931:1 12971:1 14013:1 14451:1 14491:1 14632:1 14633:1 14719:1 14725:1 
0.264347065567231 1:1 13:1 2156:1 2420:1 2991:1 4362:1 5008:1 7582:1 8661:1 10340:1 11602:1 12569:1 12800:1 12808:1 
0.06656549247274043 1:1 34:1 197:1 368:1 464:1 578:1 586:1 644:1 834:1 915:1 985:1 1280:1 1655:1 1661:1 1729:1 1958:1 2011:1 2218:1 2991:1 3214:1 3218:1 3230:1 3298:1 3718:1 3751:1 3863:1 4218:1 4358:1 4478:1 4838:1 4868:1 4923:1 5023:1 5034:1 5087:1 5140:1 5186:1 5288:1 5440:1 5899:1 6410:1 6492:1 6671:1 6736:1 6855:1 6895:1 6987:1 7094:1 7251:1 7369:1 7415:1 7525:1 8449:1 8545:1 8626:1 8637:1 9069:1 9592:1 9920:1 10323:1 10458:1 11083:1 11246:1 11495:1 11518:1 12030:1 12208:1 12238:1 12375:1 12535:1 12708:1 12895:1 13096:1 13130:1 13386:1 13463:1 13480:1 13816:1 13817:1 14074:1 14129:1 14451:1 14475:1 14639:1 
0.05845015974718419 1:1 631:1 1874:1 2660:1 2977:1 4046:1 4362:1 4923:1 5045:1 6583:1 7369:1 7847:1 7966:1 8127:1 8638:1 8649:1 10491:1 10716:1 12143:1 12212:1 12274:1 12364:1 12997:1 14451:1 14568:1 14713:1 
0.1134571420239215 1:1 187:1 341:1 928:1 1130:1 1285:1 2056:1 2192:1 2298:1 2756:1 2942:1 4362:1 4856:1 5652:1 5827:1 5975:1 6214:1 6583:1 7448:1 7527:1 7852:1 8032:1 8100:1 8649:1 8687:1 8749:1 9419:1 9522:1 9615:1 10053:1 11569:1 11780:1 11999:1 12532:1 13145:1 13395:1 
11.76399750517339 1:1 2768:1 3454:1 10390:1 12343:1 
0.07923703928032032 1:1 2412:1 2756:1 2924:1 2940:1 4672:1 5740:1 6250:1 7527:1 7638:1 9827:1 
0.1091853862896093 1:1 158:1 759:1 915:1 2200:1 3196:1 3689:1 4323:1 4362:1 4922:1 5398:1 5610:1 6049:1 6137:1 6524:1 6583:1 6691:1 6846:1 7279:1 7690:1 7832:1 8037:1 8179:1 8208:1 8587:1 8729:1 8734:1 9473:1 9792:1 9805:1 9827:1 10976:1 11187:1 12579:1 13104:1 13152:1 13490:1 14597:1 
0.01103854953820112 1:1 176:1 346:1 368:1 374:1 421:1 448:1 471:1 483:1 578:1 758:1 760:1 763:1 915:1 1004:1 1007:1 1031:1 1033:1 1121:1 1147:1 1220:1 1232:1 1242:1 1276:1 1280:1 1306:1 1353:1 1358:1 1372:1 1421:1 1471:1 1533:1 1552:1 1614:1 1641:1 1655:1 1663:1 1810:1 1902:1 1924:1 1925:1 1931:1 1938:1 1942:1 1955:1 1985:1 1986:1 2015:1 2030:1 2037:1 2040:1 2109:1 2118:1 2156:1 2177:1 2218:1 2225:1 2260:1 2300:1 2318:1 2343:1 2402:1 2412:1 2421:1 2518:1 2557:1 2576:1 2619:1 2641:1 2695:1 2724:1 2768:1 2870:1 2949:1 2959:1 2963:1 2991:1 2994:1 3014:1 3112:1 3182:1 3196:1 3227:1 3230:1 3298:1 3454:1 3589:1 3590:1 3689:1 3709:1 3723:1 3875:1 3914:1 3954:1 3984:1 3985:1 3994:1 4004:1 4024:1 4028:1 4074:1 4147:1 4248:1 4348:1 4392:1 4478:1 4535:1 4572:1 4581:1 4622:1 4728:1 4783:1 4786:1 4816:1 4817:1 4855:1 4865:1 4892:1 4916:1 4960:1 4992:1 5030:1 5045:1 5078:1 5095:1 5100:1 5114:1 5335:1 5351:1 5390:1 5398:1 5416:1 5441:1 5464:1 5472:1 5482:1 5524:1 5529:1 5565:1 5578:1 5610:1 5645:1 5683:1 5702:1 5704:1 5715:1 5787:1 5977:1 5979:1 5985:1 6022:1 6067:1 6098:1 6215:1 6250:1 6366:1 6373:1 6383:1 6410:1 6456:1 6480:1 6503:1 6524:1 6598:1 6651:1 6759:1 6830:1 6844:1 6866:1 6920:1 7049:1 7083:1 7087:1 7112:1 7196:1 7256:1 7279:1 7307:1 7314:1 7352:1 7453:1 7514:1 7525:1 7536:1 7586:1 7656:1 7660:1 7690:1 7832:1 7847:1 7894:1 7963:1 8067:1 8100:1 8127:1 8179:1 8208:1 8324:1 8360:1 8398:1 8473:1 8474:1 8515:1 8534:1 8544:1 8549:1 8587:1 8649:1 8729:1 8732:1 8734:1 8743:1 8749:1 8780:1 8806:1 8809:1 8858:1 8888:1 8923:1 8926:1 8939:1 9026:1 9045:1 9067:1 9072:1 9106:1 9312:1 9493:1 9533:1 9545:1 9549:1 9581:1 9594:1 9611:1 9617:1 9690:1 9726:1 9747:1 9789:1 9792:1 9805:1 9843:1 9893:1 9898:1 9933:1 9952:1 9956:1 10053:1 10087:1 10284:1 10332:1 10342:1 10390:1 10513:1 10561:1 10705:1 10752:1 10814:1 10843:1 10868:1 10923:1 10956:1 10977:1 10988:1 10996:1 11181:1 11187:1 11267:1 11275:1 11278:1 11294:1 11298:1 11331:1 11333:1 11474:1 11495:1 11501:1 11526:1 11536:1 11580:1 11599:1 11638:1 11666:1 11731:1 11818:1 11826:1 11840:1 11940:1 12030:1 12092:1 12099:1 12231:1 12289:1 12313:1 12343:1 12392:1 12408:1 12442:1 12472:1 12484:1 12495:1 12509:1 12528:1 12531:1 12579:1 12599:1 12687:1 12703:1 12766:1 12772:1 12784:1 12791:1 12808:1 12838:1 12845:1 12893:1 12930:1 13002:1 13013:1 13056:1 13066:1 13092:1 13093:1 13106:1 13115:1 13130:1 13243:1 13350:1 13386:1 13395:1 13482:1 13494:1 13545:1 13551:1 13626:1 13653:1 13711:1 13784:1 13809:1 13914:1 13973:1 13977:1 14132:1 14185:1 14198:1 14207:1 14275:1 14451:1 14481:1 14662:1 14826:1 14829:1 14856:1 14872:1 
0.09025036431184116 1:1 915:1 985:1 1004:1 1219:1 1330:1 2011:1 2991:1 3689:1 4817:1 5008:1 5094:1 5150:1 5472:1 5715:1 5740:1 6383:1 7087:1 7524:1 7525:1 7582:1 7586:1 7965:1 7966:1 8031:1 8100:1 8426:1 8545:1 8734:1 8858:1 8888:1 9203:1 9827:1 9893:1 10087:1 10346:1 10513:1 10681:1 10976:1 11193:1 11275:1 11302:1 12075:1 12088:1 12808:1 13091:1 13092:1 13123:1 13130:1 14451:1 14829:1 
0.005847973447580639 1:1 384:1 578:1 612:1 759:1 763:1 952:1 1280:1 1324:1 1358:1 2370:1 2449:1 2870:1 2924:1 3196:1 3564:1 4817:1 5150:1 5179:1 5740:1 7525:1 7536:1 7894:1 7990:1 8127:1 9050:1 9816:1 10668:1 10976:1 11275:1 11474:1 12044:1 12157:1 12251:1 12667:1 12800:1 14033:1 14713:1 
0.02473306564899067 1:1 60:1 143:1 144:1 187:1 357:1 542:1 578:1 612:1 732:1 807:1 893:1 1004:1 1242:1 1245:1 1280:1 1354:1 1358:1 1419:1 1635:1 1655:1 1661:1 1770:1 1791:1 1925:1 2011:1 2022:1 2030:1 2042:1 2300:1 2518:1 2641:1 2756:1 2829:1 2870:1 2959:1 2985:1 2990:1 3137:1 3320:1 3351:1 3454:1 3568:1 3582:1 3602:1 4056:1 4285:1 4362:1 4463:1 4470:1 4478:1 4536:1 4624:1 4692:1 4698:1 4948:1 4960:1 5076:1 5218:1 5231:1 5253:1 5328:1 5645:1 5732:1 5760:1 5821:1 5899:1 5923:1 5970:1 6143:1 6250:1 6268:1 6554:1 6930:1 7086:1 7178:1 7207:1 7251:1 7279:1 7505:1 7514:1 7524:1 7620:1 7656:1 7772:1 7782:1 7894:1 7963:1 7969:1 8067:1 8097:1 8100:1 8105:1 8137:1 8208:1 8211:1 8449:1 8587:1 8612:1 8655:1 8666:1 8729:1 8743:1 9286:1 9297:1 9326:1 9394:1 9451:1 9571:1 9658:1 9690:1 9705:1 9781:1 9805:1 9884:1 10087:1 10100:1 10123:1 10198:1 10491:1 10752:1 10797:1 10805:1 10913:1 10940:1 10976:1 11092:1 11098:1 11115:1 11193:1 11275:1 11495:1 11765:1 11951:1 11993:1 12029:1 12177:1 12212:1 12268:1 12528:1 12579:1 12620:1 12703:1 12708:1 12726:1 12746:1 12772:1 12808:1 12838:1 12881:1 12997:1 13066:1 13130:1 13165:1 13458:1 13494:1 13635:1 13808:1 14080:1 14081:1 14143:1 14150:1 14354:1 14642:1 14662:1 14825:1 14868:1 
0.0367026152178979 1:1 199:1 421:1 603:1 612:1 1128:1 1280:1 1285:1 2311:1 2410:1 2949:1 4362:1 4421:1 4622:1 4639:1 5179:1 5644:1 6034:1 6226:1 6250:1 7582:1 7832:1 7966:1 8100:1 8616:1 8649:1 9268:1 11292:1 11513:1 12703:1 14096:1 
0.03591828840911555 1:1 218:1 307:1 403:1 421:1 483:1 502:1 559:1 612:1 834:1 849:1 915:1 977:1 1004:1 1005:1 1033:1 1074:1 1119:1 1125:1 1217:1 1242:1 1280:1 1414:1 1441:1 1520:1 1552:1 1715:1 1750:1 1955:1 1977:1 2177:1 2300:1 2420:1 2449:1 2710:1 2773:1 2870:1 2892:1 2959:1 3014:1 3036:1 3298:1 3689:1 3739:1 3784:1 3799:1 3954:1 4210:1 4362:1 4663:1 4673:1 4681:1 4683:1 4723:1 4850:1 4900:1 4923:1 4960:1 5008:1 5023:1 5282:1 5398:1 5426:1 5441:1 5501:1 5710:1 5815:1 5821:1 6112:1 6156:1 6315:1 6407:1 6410:1 6583:1 6631:1 7202:1 7240:1 7279:1 7295:1 7415:1 7483:1 7525:1 7586:1 7630:1 7634:1 7690:1 7852:1 7966:1 8368:1 8402:1 8596:1 8616:1 8649:1 8704:1 8734:1 8812:1 8818:1 8858:1 8948:1 9026:1 9297:1 9564:1 9612:1 9614:1 9656:1 9805:1 9827:1 9893:1 10087:1 10193:1 10323:1 10513:1 10682:1 10758:1 10897:1 10976:1 11092:1 11187:1 11255:1 11275:1 11278:1 11298:1 11331:1 11731:1 11734:1 12024:1 12041:1 12062:1 12110:1 12174:1 12343:1 12579:1 13106:1 13117:1 13402:1 13441:1 13603:1 13638:1 13782:1 13795:1 13832:1 13866:1 13896:1 13985:1 14172:1 14533:1 14676:1 14713:1 
0.1877336114876254 1:1 98:1 612:1 849:1 879:1 1197:1 1324:1 1741:1 2924:1 3434:1 3564:1 5045:1 5177:1 5401:1 5838:1 6583:1 7264:1 7514:1 7525:1 7630:1 7852:1 7899:1 8818:1 10322:1 10976:1 11156:1 11717:1 12838:1 13000:1 13117:1 13379:1 13402:1 
0.05772906215828111 1:1 558:1 1280:1 2924:1 4165:1 4362:1 5169:1 7202:1 7498:1 9548:1 10050:1 12578:1 13112:1 13402:1 
0.002453959534307762 1:1 131:1 187:1 374:1 547:1 763:1 1147:1 1563:1 1715:1 1803:1 2011:1 2294:1 2412:1 2510:1 2554:1 2770:1 2962:1 3014:1 3298:1 3435:1 4024:1 4478:1 4622:1 4923:1 5008:1 5023:1 5095:1 5169:1 5203:1 5644:1 6376:1 6524:1 6920:1 7209:1 7459:1 7464:1 7524:1 7755:1 8060:1 8199:1 8324:1 8337:1 8566:1 8649:1 9312:1 9613:1 9892:1 10004:1 10401:1 10559:1 10647:1 11579:1 13532:1 13613:1 14451:1 14836:1 14885:1 
0.01399732534461242 1:1 13:1 187:1 196:1 297:1 421:1 570:1 578:1 621:1 763:1 1021:1 1033:1 1097:1 1280:1 1388:1 1537:1 1629:1 1661:1 1702:1 2032:1 2150:1 2177:1 2311:1 2340:1 2412:1 2677:1 2870:1 3954:1 4362:1 4864:1 4879:1 5008:1 5094:1 5114:1 5179:1 5218:1 5482:1 5518:1 6215:1 6524:1 6930:1 7279:1 7401:1 7524:1 7586:1 7587:1 7966:1 7984:1 8067:1 8208:1 8258:1 8545:1 8571:1 8605:1 8688:1 8732:1 8734:1 8824:1 8888:1 9137:1 9266:1 9312:1 9473:1 9549:1 9613:1 9617:1 9805:1 9898:1 10012:1 10053:1 10480:1 10513:1 10668:1 10921:1 10976:1 11073:1 11156:1 11161:1 11275:1 11453:1 11471:1 11523:1 11595:1 11629:1 12041:1 12044:1 12303:1 12472:1 12682:1 12924:1 13066:1 13104:1 13349:1 13452:1 13551:1 13973:1 13986:1 14261:1 14713:1 14779:1 
0.04369894543206371 1:1 578:1 915:1 942:1 1729:1 2011:1 2431:1 2458:1 2949:1 3607:1 3779:1 4960:1 5338:1 5472:1 5715:1 5740:1 7554:1 7620:1 7638:1 7832:1 8752:1 9581:1 10319:1 11518:1 12680:1 13152:1 13802:1 
0.1296730135942067 1:1 1004:1 2849:1 2987:1 4362:1 7639:1 12808:1 13104:1 14566:1 
0.005442050140188307 1:1 13:1 547:1 612:1 742:1 849:1 883:1 915:1 1004:1 1121:1 1280:1 1354:1 1661:1 1902:1 2011:1 2443:1 2645:1 2677:1 2760:1 3042:1 3083:1 3236:1 3530:1 4024:1 4421:1 4846:1 4889:1 4923:1 4930:1 5095:1 5335:1 5426:1 5467:1 5574:1 5740:1 5821:1 5984:1 6186:1 6250:1 6278:1 6728:1 6768:1 6957:1 7283:1 7322:1 7492:1 7894:1 7966:1 8340:1 8382:1 8426:1 8527:1 8584:1 8640:1 8649:1 8888:1 9192:1 9286:1 9473:1 9724:1 9762:1 9827:1 9857:1 9909:1 10087:1 10639:1 10657:1 10681:1 11162:1 11292:1 11303:1 11704:1 12032:1 12343:1 12611:1 12625:1 12782:1 12844:1 12997:1 13130:1 13154:1 13199:1 13490:1 13938:1 14351:1 14509:1 14533:1 14667:1 14808:1 14825:1 14836:1 
0.01020525378858121 1:1 56:1 164:1 176:1 187:1 346:1 368:1 421:1 483:1 494:1 542:1 561:1 700:1 763:1 877:1 898:1 915:1 952:1 1004:1 1005:1 1007:1 1020:1 1033:1 1063:1 1074:1 1232:1 1242:1 1264:1 1280:1 1306:1 1358:1 1386:1 1388:1 1421:1 1457:1 1552:1 1641:1 1655:1 1661:1 1663:1 1810:1 1871:1 1902:1 1931:1 1935:1 1955:1 1985:1 1986:1 2015:1 2030:1 2109:1 2117:1 2150:1 2177:1 2225:1 2232:1 2300:1 2311:1 2404:1 2412:1 2420:1 2424:1 2489:1 2518:1 2641:1 2677:1 2724:1 2870:1 2949:1 2963:1 2983:1 2991:1 2994:1 3014:1 3028:1 3042:1 3074:1 3196:1 3218:1 3227:1 3230:1 3348:1 3349:1 3395:1 3399:1 3590:1 3602:1 3607:1 3689:1 3723:1 3765:1 3880:1 3889:1 3914:1 3954:1 3984:1 4024:1 4074:1 4248:1 4323:1 4348:1 4362:1 4455:1 4488:1 4533:1 4566:1 4572:1 4622:1 4639:1 4680:1 4728:1 4786:1 4816:1 4818:1 4916:1 4923:1 4935:1 4960:1 4992:1 5023:1 5032:1 5091:1 5100:1 5165:1 5179:1 5300:1 5335:1 5338:1 5387:1 5388:1 5398:1 5410:1 5416:1 5432:1 5472:1 5484:1 5524:1 5529:1 5565:1 5578:1 5610:1 5645:1 5672:1 5696:1 5704:1 5715:1 5821:1 5875:1 5923:1 5977:1 5985:1 6067:1 6081:1 6143:1 6312:1 6383:1 6410:1 6456:1 6480:1 6524:1 6583:1 6598:1 6619:1 6651:1 6666:1 6671:1 6718:1 6759:1 6830:1 6904:1 6920:1 7004:1 7016:1 7049:1 7076:1 7087:1 7264:1 7373:1 7453:1 7514:1 7516:1 7524:1 7525:1 7536:1 7557:1 7625:1 7638:1 7685:1 7690:1 7723:1 7727:1 7894:1 7957:1 7963:1 7969:1 8067:1 8100:1 8127:1 8179:1 8239:1 8292:1 8324:1 8347:1 8360:1 8505:1 8534:1 8545:1 8605:1 8649:1 8688:1 8732:1 8743:1 8780:1 8809:1 8824:1 8856:1 8858:1 8880:1 8888:1 8939:1 9026:1 9045:1 9067:1 9137:1 9170:1 9312:1 9326:1 9466:1 9473:1 9474:1 9493:1 9533:1 9594:1 9611:1 9615:1 9617:1 9681:1 9690:1 9762:1 9792:1 9805:1 9816:1 9827:1 9843:1 9870:1 9893:1 9913:1 9933:1 9945:1 9956:1 10004:1 10048:1 10083:1 10087:1 10103:1 10284:1 10480:1 10491:1 10513:1 10561:1 10677:1 10752:1 10843:1 10868:1 10875:1 10921:1 10956:1 10976:1 10977:1 10988:1 10996:1 11092:1 11187:1 11275:1 11331:1 11333:1 11430:1 11465:1 11474:1 11495:1 11615:1 11621:1 11666:1 11731:1 11818:1 11840:1 11940:1 11954:1 11972:1 12313:1 12334:1 12343:1 12392:1 12397:1 12408:1 12415:1 12442:1 12472:1 12509:1 12528:1 12579:1 12670:1 12703:1 12726:1 12766:1 12772:1 12808:1 12893:1 12930:1 13013:1 13060:1 13066:1 13067:1 13092:1 13106:1 13123:1 13130:1 13239:1 13308:1 13349:1 13350:1 13421:1 13441:1 13458:1 13478:1 13494:1 13532:1 13545:1 13551:1 13653:1 13711:1 13784:1 13809:1 13973:1 13985:1 14078:1 14080:1 14129:1 14185:1 14207:1 14275:1 14449:1 14451:1 14481:1 14530:1 14635:1 14713:1 14779:1 14800:1 14826:1 14829:1 14856:1 14865:1 
0.2741928693540884 1:1 187:1 601:1 1004:1 2030:1 2095:1 2300:1 2311:1 2404:1 2576:1 2870:1 2949:1 2974:1 3196:1 3954:1 5740:1 5815:1 6226:1 6583:1 6920:1 7049:1 7091:1 7527:1 7690:1 7995:1 8100:1 8649:1 8732:1 8734:1 9446:1 9805:1 10164:1 10430:1 10529:1 10844:1 10976:1 10992:1 11223:1 11259:1 11268:1 11275:1 11465:1 11573:1 12044:1 12099:1 12349:1 12579:1 12784:1 13106:1 13538:1 13784:1 14129:1 14451:1 14713:1 14863:1 
0.01378803896686815 1:1 128:1 176:1 187:1 368:1 421:1 448:1 471:1 473:1 529:1 533:1 542:1 570:1 578:1 604:1 612:1 622:1 663:1 715:1 759:1 763:1 776:1 849:1 881:1 893:1 915:1 952:1 961:1 977:1 1004:1 1007:1 1033:1 1069:1 1072:1 1114:1 1242:1 1280:1 1285:1 1291:1 1354:1 1358:1 1366:1 1372:1 1533:1 1537:1 1552:1 1655:1 1661:1 1668:1 1712:1 1775:1 1958:1 1985:1 1993:1 2030:1 2032:1 2177:1 2218:1 2225:1 2300:1 2311:1 2318:1 2404:1 2412:1 2503:1 2518:1 2624:1 2625:1 2695:1 2756:1 2760:1 2849:1 2870:1 2943:1 2949:1 2981:1 2985:1 3036:1 3114:1 3203:1 3230:1 3351:1 3373:1 3444:1 3564:1 3583:1 3689:1 3753:1 3776:1 3814:1 3902:1 3914:1 3954:1 4024:1 4056:1 4060:1 4067:1 4097:1 4147:1 4214:1 4298:1 4348:1 4362:1 4392:1 4478:1 4498:1 4622:1 4717:1 4730:1 4786:1 4865:1 4900:1 4923:1 4930:1 5008:1 5023:1 5045:1 5062:1 5087:1 5091:1 5114:1 5165:1 5193:1 5262:1 5335:1 5338:1 5394:1 5410:1 5416:1 5441:1 5472:1 5524:1 5565:1 5599:1 5610:1 5623:1 5710:1 5715:1 5740:1 5838:1 5880:1 6047:1 6156:1 6187:1 6197:1 6226:1 6262:1 6273:1 6278:1 6376:1 6383:1 6393:1 6524:1 6651:1 6830:1 6857:1 6904:1 6920:1 6979:1 6990:1 7083:1 7191:1 7196:1 7251:1 7419:1 7454:1 7509:1 7514:1 7524:1 7525:1 7536:1 7542:1 7554:1 7586:1 7620:1 7656:1 7685:1 7723:1 7727:1 7847:1 7852:1 7874:1 7894:1 7941:1 7963:1 7966:1 7969:1 8037:1 8067:1 8068:1 8074:1 8100:1 8128:1 8163:1 8165:1 8258:1 8347:1 8371:1 8473:1 8512:1 8534:1 8588:1 8605:1 8612:1 8637:1 8649:1 8729:1 8732:1 8734:1 8743:1 8749:1 8752:1 8821:1 8824:1 8838:1 8888:1 8939:1 8944:1 8983:1 9020:1 9026:1 9044:1 9045:1 9050:1 9061:1 9321:1 9386:1 9451:1 9473:1 9500:1 9533:1 9581:1 9611:1 9615:1 9681:1 9736:1 9805:1 9843:1 9862:1 9870:1 9893:1 9898:1 9945:1 9983:1 10012:1 10087:1 10261:1 10314:1 10323:1 10332:1 10335:1 10342:1 10345:1 10391:1 10480:1 10491:1 10513:1 10627:1 10677:1 10685:1 10773:1 10814:1 10925:1 10956:1 10976:1 10977:1 11046:1 11073:1 11092:1 11149:1 11187:1 11253:1 11275:1 11292:1 11294:1 11298:1 11333:1 11465:1 11474:1 11495:1 11518:1 11523:1 11536:1 11654:1 11765:1 11913:1 11981:1 12044:1 12075:1 12121:1 12177:1 12343:1 12347:1 12408:1 12415:1 12471:1 12472:1 12512:1 12528:1 12577:1 12579:1 12620:1 12667:1 12703:1 12707:1 12772:1 12784:1 12800:1 12808:1 12823:1 12874:1 12893:1 12930:1 13002:1 13067:1 13092:1 13104:1 13106:1 13130:1 13152:1 13243:1 13336:1 13343:1 13421:1 13441:1 13452:1 13494:1 13538:1 13545:1 13551:1 13711:1 13768:1 13784:1 13832:1 13840:1 13915:1 13973:1 14078:1 14129:1 14172:1 14185:1 14291:1 14451:1 14481:1 14500:1 14503:1 14522:1 14566:1 14635:1 14662:1 14713:1 14772:1 14798:1 14829:1 
0.09400784397542987 1:1 164:1 368:1 471:1 732:1 759:1 915:1 952:1 985:1 1121:1 1173:1 1242:1 1280:1 1354:1 1902:1 1973:1 2156:1 2184:1 2218:1 2499:1 2518:1 2760:1 2763:1 2870:1 3564:1 3770:1 3954:1 4362:1 4367:1 4463:1 4581:1 4648:1 4846:1 5020:1 5023:1 5150:1 5524:1 5740:1 6233:1 6480:1 6920:1 6997:1 7091:1 7251:1 7514:1 7524:1 7767:1 7808:1 7852:1 7966:1 8179:1 8363:1 8587:1 8732:1 8888:1 8944:1 9026:1 9277:1 9415:1 9473:1 9581:1 9865:1 10010:1 10087:1 10332:1 10513:1 10701:1 10872:1 10921:1 10976:1 11465:1 11534:1 12212:1 12376:1 12472:1 12528:1 12684:1 12800:1 13281:1 13653:1 14538:1 
0.0160252795567964 1:1 45:1 368:1 915:1 1280:1 1285:1 2090:1 2381:1 2768:1 2962:1 3189:1 3454:1 3984:1 4846:1 4952:1 5388:1 5815:1 6410:1 7465:1 7525:1 8649:1 10390:1 10692:1 10808:1 12212:1 12343:1 12800:1 14150:1 14451:1 
0.02212050841466344 1:1 13:1 187:1 421:1 502:1 529:1 547:1 605:1 617:1 763:1 880:1 1033:1 1074:1 1297:1 1358:1 1421:1 1661:1 1702:1 1810:1 1814:1 1838:1 1874:1 1902:1 1958:1 1971:1 2030:1 2037:1 2106:1 2298:1 2412:1 2677:1 2760:1 2870:1 3018:1 3253:1 3320:1 3423:1 3672:1 3954:1 4004:1 4362:1 4392:1 4622:1 4772:1 4918:1 4934:1 4936:1 5008:1 5011:1 5415:1 5472:1 5529:1 5760:1 5847:1 5999:1 6010:1 6215:1 6226:1 6513:1 6524:1 6554:1 6583:1 6671:1 6895:1 6930:1 7091:1 7110:1 7279:1 7419:1 7514:1 7527:1 7586:1 7620:1 7652:1 7832:1 7874:1 7966:1 7984:1 8037:1 8100:1 8163:1 8534:1 8545:1 8729:1 8732:1 8734:1 8888:1 8939:1 9011:1 9312:1 9617:1 9746:1 9805:1 9827:1 9932:1 10083:1 10087:1 10164:1 10513:1 10921:1 11033:1 11092:1 11156:1 11181:1 11187:1 11196:1 11302:1 11501:1 11713:1 12041:1 12183:1 12274:1 12343:1 12408:1 12579:1 12667:1 12838:1 13104:1 13386:1 13452:1 13490:1 13551:1 14185:1 14338:1 14435:1 14538:1 14713:1 14779:1 14800:1 
0.02867247748632537 1:1 13:1 542:1 1475:1 2156:1 3279:1 4362:1 4392:1 5087:1 5815:1 6071:1 6315:1 7049:1 7087:1 7495:1 7554:1 
0.01486058221334598 1:1 6:1 50:1 93:1 108:1 129:1 202:1 224:1 349:1 373:1 379:1 421:1 446:1 473:1 501:1 547:1 591:1 600:1 601:1 607:1 612:1 615:1 742:1 763:1 834:1 847:1 849:1 897:1 915:1 936:1 970:1 978:1 1004:1 1007:1 1013:1 1024:1 1036:1 1074:1 1125:1 1126:1 1140:1 1147:1 1176:1 1180:1 1280:1 1358:1 1372:1 1421:1 1481:1 1495:1 1610:1 1614:1 1635:1 1653:1 1703:1 1712:1 1728:1 1810:1 1825:1 1900:1 1931:1 1938:1 1973:1 1981:1 1993:1 2011:1 2073:1 2074:1 2097:1 2150:1 2156:1 2167:1 2177:1 2184:1 2248:1 2294:1 2300:1 2368:1 2409:1 2431:1 2436:1 2510:1 2518:1 2576:1 2608:1 2624:1 2677:1 2721:1 2827:1 2837:1 2866:1 2870:1 2879:1 2918:1 2943:1 2959:1 2989:1 3014:1 3036:1 3042:1 3127:1 3154:1 3196:1 3202:1 3217:1 3227:1 3236:1 3320:1 3340:1 3373:1 3399:1 3428:1 3529:1 3540:1 3589:1 3628:1 3678:1 3689:1 3709:1 3752:1 3765:1 3803:1 3835:1 3893:1 3907:1 3922:1 3954:1 4000:1 4006:1 4024:1 4032:1 4051:1 4147:1 4168:1 4210:1 4225:1 4230:1 4263:1 4303:1 4343:1 4392:1 4393:1 4408:1 4420:1 4463:1 4468:1 4622:1 4639:1 4648:1 4669:1 4673:1 4683:1 4705:1 4723:1 4730:1 4759:1 4772:1 4809:1 4846:1 4923:1 4926:1 4936:1 4948:1 4959:1 4980:1 5006:1 5023:1 5041:1 5062:1 5063:1 5085:1 5123:1 5128:1 5176:1 5201:1 5209:1 5242:1 5251:1 5379:1 5393:1 5405:1 5410:1 5416:1 5472:1 5511:1 5529:1 5660:1 5683:1 5693:1 5704:1 5706:1 5715:1 5728:1 5733:1 5787:1 5791:1 5838:1 5875:1 5924:1 6078:1 6090:1 6114:1 6131:1 6141:1 6168:1 6177:1 6203:1 6241:1 6256:1 6265:1 6268:1 6358:1 6359:1 6382:1 6410:1 6456:1 6479:1 6481:1 6555:1 6583:1 6600:1 6626:1 6723:1 6855:1 6930:1 6933:1 7004:1 7015:1 7025:1 7026:1 7049:1 7133:1 7178:1 7196:1 7268:1 7310:1 7380:1 7389:1 7444:1 7495:1 7514:1 7527:1 7536:1 7568:1 7582:1 7583:1 7586:1 7598:1 7620:1 7623:1 7679:1 7685:1 7690:1 7697:1 7725:1 7726:1 7741:1 7827:1 7832:1 7847:1 7855:1 7874:1 7890:1 7900:1 7943:1 7957:1 7966:1 8031:1 8067:1 8074:1 8100:1 8110:1 8131:1 8159:1 8179:1 8208:1 8273:1 8292:1 8348:1 8398:1 8429:1 8475:1 8494:1 8549:1 8557:1 8587:1 8598:1 8605:1 8616:1 8648:1 8649:1 8692:1 8720:1 8729:1 8732:1 8734:1 8735:1 8743:1 8749:1 8772:1 8789:1 8818:1 8887:1 8888:1 8901:1 9011:1 9015:1 9026:1 9037:1 9066:1 9085:1 9095:1 9097:1 9223:1 9241:1 9266:1 9286:1 9312:1 9355:1 9383:1 9482:1 9483:1 9493:1 9581:1 9613:1 9615:1 9629:1 9688:1 9690:1 9727:1 9760:1 9762:1 9783:1 9791:1 9792:1 9814:1 9827:1 9830:1 9898:1 9944:1 9987:1 10027:1 10062:1 10083:1 10091:1 10158:1 10188:1 10192:1 10309:1 10323:1 10338:1 10350:1 10480:1 10506:1 10544:1 10587:1 10682:1 10691:1 10710:1 10743:1 10747:1 10758:1 10808:1 10858:1 10921:1 10927:1 10936:1 10956:1 10976:1 10996:1 11027:1 11131:1 11149:1 11160:1 11178:1 11187:1 11205:1 11214:1 11247:1 11275:1 11292:1 11300:1 11331:1 11333:1 11348:1 11352:1 11453:1 11474:1 11495:1 11518:1 11536:1 11585:1 11668:1 11702:1 11781:1 11790:1 11820:1 11844:1 11891:1 11913:1 11951:1 11954:1 11961:1 11966:1 11984:1 12089:1 12157:1 12328:1 12357:1 12359:1 12373:1 12400:1 12420:1 12452:1 12460:1 12495:1 12579:1 12592:1 12619:1 12750:1 12764:1 12784:1 12836:1 12838:1 12879:1 12924:1 12930:1 12997:1 13017:1 13022:1 13056:1 13059:1 13061:1 13115:1 13130:1 13147:1 13161:1 13179:1 13199:1 13243:1 13248:1 13327:1 13349:1 13364:1 13441:1 13490:1 13494:1 13560:1 13644:1 13656:1 13669:1 13683:1 13685:1 13688:1 13727:1 13784:1 13790:1 13811:1 13814:1 13832:1 13914:1 13951:1 13977:1 14032:1 14129:1 14185:1 14220:1 14304:1 14317:1 14417:1 14430:1 14444:1 14461:1 14507:1 14538:1 14686:1 14699:1 14713:1 14745:1 14784:1 14786:1 14825:1 14829:1 
0.1315287851802216 1:1 184:1 298:1 578:1 776:1 1661:1 1931:1 2056:1 2234:1 2518:1 2768:1 2837:1 2870:1 3454:1 4362:1 4817:1 4846:1 4892:1 4922:1 5426:1 5740:1 5760:1 6268:1 6325:1 6357:1 6844:1 7112:1 7161:1 7389:1 7514:1 7524:1 7727:1 7735:1 8512:1 8809:1 9026:1 9297:1 9394:1 9789:1 9792:1 10198:1 10390:1 10681:1 10925:1 10976:1 11181:1 11275:1 11666:1 12343:1 12442:1 13476:1 13494:1 14080:1 14129:1 14192:1 
0.006828549297585486 1:1 40:1 154:1 368:1 416:1 578:1 644:1 763:1 1004:1 1074:1 1121:1 1242:1 1443:1 1552:1 1568:1 1661:1 1788:1 1807:1 1925:1 1931:1 1958:1 1985:1 2011:1 2109:1 2156:1 2294:1 2404:1 2412:1 2431:1 2677:1 2687:1 2760:1 2962:1 2964:1 3083:1 3218:1 3320:1 3564:1 3841:1 3985:1 4024:1 4096:1 4159:1 4185:1 4362:1 4421:1 4478:1 4504:1 4537:1 4572:1 4622:1 4741:1 4786:1 4923:1 5011:1 5062:1 5091:1 5095:1 5169:1 5203:1 5241:1 5255:1 5432:1 5604:1 5728:1 5740:1 5815:1 5869:1 6410:1 6436:1 6560:1 6597:1 6620:1 6736:1 6930:1 7115:1 7196:1 7216:1 7265:1 7396:1 7525:1 7554:1 7567:1 7586:1 7598:1 7741:1 7832:1 7894:1 7959:1 7966:1 8324:1 8496:1 8557:1 8815:1 8888:1 9024:1 9026:1 9286:1 9312:1 9393:1 9800:1 9898:1 10103:1 10192:1 10198:1 10332:1 10591:1 10781:1 10911:1 11049:1 11053:1 11110:1 11292:1 11348:1 11499:1 11534:1 11731:1 11826:1 12268:1 12343:1 12408:1 12510:1 12524:1 12529:1 12620:1 12668:1 12744:1 13054:1 13074:1 13087:1 13130:1 13172:1 13490:1 13826:1 14032:1 14100:1 14129:1 14214:1 14283:1 14417:1 14475:1 14699:1 14746:1 14778:1 14836:1 14863:1 
100 1:1 2768:1 3454:1 10390:1 12343:1 
0.06630888470308435 1:1 176:1 742:1 915:1 1004:1 1871:1 2011:1 2092:1 2225:1 2421:1 2624:1 2734:1 3041:1 3689:1 4127:1 4362:1 4816:1 5011:1 5587:1 5653:1 5821:1 6268:1 6583:1 7524:1 7894:1 7928:1 8449:1 8554:1 8813:1 9267:1 9363:1 9393:1 9827:1 9843:1 9854:1 10050:1 11149:1 11292:1 11983:1 12268:1 12408:1 12524:1 14130:1 14778:1 
0.01408799315283883 1:1 416:1 547:1 1061:1 1074:1 1242:1 1280:1 1377:1 1712:1 1958:1 2011:1 2218:1 2254:1 2924:1 3042:1 3093:1 3348:1 3993:1 4044:1 4362:1 4681:1 4838:1 4923:1 4987:1 5095:1 5169:1 5472:1 5821:1 6465:1 6853:1 7620:1 8422:1 8743:1 9286:1 9312:1 9882:1 10164:1 10765:1 11112:1 11501:1 11704:1 11951:1 12406:1 12452:1 12897:1 12997:1 13379:1 13463:1 13565:1 13765:1 14461:1 14640:1 14713:1 
0.0583529126925577 1:1 13:1 471:1 763:1 915:1 1324:1 1542:1 2150:1 2184:1 2277:1 2356:1 2763:1 2991:1 3042:1 3564:1 3954:1 3984:1 4362:1 4581:1 4817:1 4846:1 5278:1 5416:1 5546:1 5715:1 5740:1 5815:1 6997:1 7216:1 7767:1 8031:1 8166:1 8480:1 8888:1 8898:1 8942:1 8944:1 9026:1 9415:1 9488:1 9792:1 10087:1 10192:1 10513:1 10619:1 10792:1 11092:1 11149:1 11474:1 11518:1 12010:1 12343:1 12472:1 13130:1 13532:1 13653:1 13698:1 13802:1 14129:1 14538:1 
0.03804836583922205 1:1 67:1 128:1 168:1 187:1 547:1 732:1 744:1 847:1 849:1 915:1 952:1 985:1 1274:1 1280:1 1324:1 1358:1 1360:1 1537:1 1655:1 1730:1 1788:1 1810:1 1979:1 2370:1 2412:1 2625:1 2641:1 2756:1 2959:1 3196:1 3333:1 3560:1 3628:1 3765:1 3902:1 3954:1 3984:1 4362:1 4625:1 4641:1 4879:1 5023:1 5528:1 5710:1 5815:1 5899:1 5928:1 6185:1 6576:1 6583:1 6789:1 6920:1 7196:1 7257:1 7264:1 7279:1 7495:1 7524:1 7536:1 7685:1 7690:1 8179:1 8208:1 8587:1 8729:1 8734:1 8743:1 8752:1 8858:1 8888:1 8939:1 9009:1 9050:1 9183:1 9378:1 9594:1 9617:1 9805:1 9893:1 9933:1 10391:1 10868:1 11073:1 11181:1 11187:1 11331:1 11534:1 11913:1 12087:1 12148:1 12268:1 12343:1 12406:1 12680:1 12703:1 12974:1 13152:1 13308:1 13473:1 13490:1 13726:1 14129:1 14130:1 14597:1 14703:1 14719:1 14800:1 
0.2487607443819236 1:1 391:1 915:1 1021:1 1033:1 1321:1 1354:1 1358:1 1421:1 1603:1 1676:1 1815:1 1962:1 2329:1 2412:1 2921:1 3454:1 3607:1 3689:1 4547:1 4622:1 4694:1 5094:1 6239:1 6273:1 6407:1 6524:1 6671:1 7465:1 7587:1 7638:1 7894:1 7963:1 8473:1 8513:1 8587:1 8649:1 8688:1 8749:1 8888:1 9424:1 9451:1 9613:1 10048:1 10062:1 10083:1 10087:1 10513:1 10976:1 11027:1 11401:1 11853:1 12173:1 12183:1 12579:1 12653:1 12784:1 13130:1 13618:1 13653:1 14207:1 14713:1 14859:1 
0.03188566738652267 1:1 763:1 1121:1 1330:1 1958:1 2011:1 3723:1 3906:1 3914:1 4323:1 4348:1 4362:1 4622:1 5023:1 5604:1 5815:1 5847:1 5924:1 6241:1 7620:1 7965:1 7966:1 8474:1 9266:1 9312:1 9748:1 9778:1 10103:1 10914:1 10972:1 10976:1 10977:1 11205:1 11275:1 11302:1 11495:1 12442:1 12532:1 13106:1 13551:1 13838:1 14451:1 
1.62148002968509 1:1 4362:1 9581:1 
0.01837702089121603 1:1 67:1 368:1 763:1 915:1 1280:1 1324:1 1421:1 1655:1 1886:1 2011:1 2177:1 2453:1 2482:1 3196:1 3282:1 3564:1 3875:1 4246:1 4362:1 4562:1 4639:1 4669:1 4772:1 4910:1 4980:1 5023:1 5439:1 5472:1 5599:1 5610:1 5740:1 5815:1 6203:1 6609:1 6651:1 7465:1 7516:1 7527:1 7538:1 7848:1 7852:1 8371:1 8864:1 9026:1 9050:1 9215:1 9581:1 9614:1 9805:1 10087:1 10129:1 10342:1 10513:1 10999:1 11187:1 11298:1 11333:1 11481:1 11780:1 11985:1 12150:1 12268:1 12392:1 12442:1 12471:1 12585:1 12757:1 12838:1 13441:1 13458:1 13654:1 14156:1 14158:1 14566:1 14703:1 14713:1 
0.6633466858519407 1:1 3689:1 6059:1 6583:1 7894:1 8888:1 12044:1 12680:1 14125:1 
0.007990681372085886 1:1 13:1 189:1 578:1 621:1 631:1 1004:1 1074:1 1280:1 1729:1 1942:1 2042:1 2300:1 2494:1 2837:1 2959:1 3582:1 3589:1 3883:1 4332:1 4362:1 5023:1 5186:1 5410:1 5528:1 5855:1 6009:1 6226:1 6855:1 6913:1 6920:1 7015:1 7078:1 7543:1 7557:1 7656:1 8053:1 8633:1 8649:1 8780:1 8923:1 9008:1 9140:1 9581:1 9698:1 9711:1 9729:1 9805:1 10164:1 10464:1 10705:1 10832:1 10876:1 10976:1 11112:1 11249:1 11275:1 11321:1 11501:1 11731:1 11765:1 12687:1 12761:1 13066:1 13067:1 13697:1 13766:1 14191:1 14492:1 
0.02723524297172374 1:1 368:1 732:1 759:1 849:1 915:1 952:1 1121:1 1173:1 1242:1 1280:1 1354:1 1358:1 1942:1 1973:1 2184:1 2225:1 2311:1 2404:1 2518:1 2760:1 2763:1 2870:1 3770:1 3782:1 4362:1 4367:1 4392:1 4581:1 4648:1 4846:1 5023:1 5150:1 5524:1 5732:1 5740:1 5846:1 6524:1 6651:1 6759:1 6920:1 6997:1 7027:1 7091:1 7379:1 7524:1 7525:1 7527:1 7582:1 7767:1 7808:1 7852:1 7934:1 7966:1 8179:1 8363:1 8382:1 8587:1 8688:1 8888:1 9026:1 9045:1 9277:1 9297:1 9415:1 9473:1 9893:1 10010:1 10332:1 10391:1 10513:1 10701:1 10821:1 10872:1 10976:1 11187:1 11275:1 11292:1 11465:1 11495:1 11518:1 11534:1 12212:1 12268:1 12684:1 12808:1 13281:1 13661:1 13915:1 14538:1 14779:1 14829:1 
